svm_type epsilon_svr
kernel_type rbf
gamma 0.03125
nr_class 2
total_sv 5454
rho -0.568314
SV
-8 1:1 2:9 3:-3 4:-3 5:4 
8 1:1 2:9 3:-3 4:-3 5:5 
8 1:5 2:-2 3:-2 4:-2 5:1 
8 1:5 2:-2 3:-2 4:-2 5:3 
8 1:5 2:-2 3:-2 4:-2 5:4 
-8 1:6 2:-8 3:4 4:-3 5:2 
8 1:6 2:-8 3:4 4:-3 5:3 
8 1:6 2:-8 3:4 4:-3 5:4 
8 1:6 2:-8 3:4 4:-3 5:5 
-6.128641874588745 1:1 2:2 3:-1 4:3 5:2 
8 1:1 2:2 3:-1 4:3 5:3 
8 1:1 2:2 3:-1 4:3 5:4 
8 1:1 2:2 3:-1 4:3 5:5 
8 1:10 2:-1 3:-4 4:-2 5:1 
-8 1:10 2:-1 3:-4 4:-2 5:2 
0.4234271204063957 1:10 2:-1 3:-4 4:-2 5:3 
8 1:10 2:-1 3:-4 4:-2 5:4 
8 1:10 2:-1 3:-4 4:-2 5:5 
-8 1:4 2:-4 3:3 4:-3 5:1 
-8 1:4 2:-4 3:3 4:-3 5:2 
-1.654717129748775 1:4 2:-4 3:3 4:-3 5:3 
8 1:4 2:-4 3:3 4:-3 5:4 
-8 1:5 2:9 3:-1 4:2 5:1 
-8 1:5 2:9 3:-1 4:2 5:2 
8 1:5 2:9 3:-1 4:2 5:3 
8 1:5 2:9 3:-1 4:2 5:4 
8 1:5 2:9 3:-1 4:2 5:5 
8 1:-10 2:10 3:3 4:2 5:1 
-8 1:-10 2:10 3:3 4:2 5:2 
-8 1:-10 2:10 3:3 4:2 5:3 
-8 1:-10 2:10 3:3 4:2 5:4 
-8 1:-10 2:10 3:3 4:2 5:5 
-8 1:7 2:8 3:1 4:1 5:2 
-8 1:7 2:8 3:1 4:1 5:3 
-8 1:7 2:8 3:1 4:1 5:4 
-8 1:7 2:8 3:1 4:1 5:5 
-8 1:-4 2:1 3:5 5:1 
-4.672453034054818 1:-4 2:1 3:5 5:2 
8 1:-4 2:1 3:5 5:3 
8 1:-4 2:1 3:5 5:4 
8 1:-4 2:1 3:5 5:5 
8 1:10 2:2 4:-1 5:1 
8 1:10 2:2 4:-1 5:2 
-8 1:10 2:2 4:-1 5:4 
-8 1:10 2:2 4:-1 5:5 
8 1:-3 2:2 3:-3 4:-2 5:1 
-8 1:-3 2:2 3:-3 4:-2 5:3 
-8 1:-3 2:2 3:-3 4:-2 5:4 
-8 1:-3 2:2 3:-3 4:-2 5:5 
8 1:-4 2:-5 3:5 4:-2 5:1 
8 1:-4 2:-5 3:5 4:-2 5:2 
-8 1:-4 2:-5 3:5 4:-2 5:3 
-8 1:-4 2:-5 3:5 4:-2 5:4 
-8 1:-4 2:-5 3:5 4:-2 5:5 
8 1:-2 2:-8 3:-4 4:1 5:3 
8 1:-2 2:-8 3:-4 4:1 5:4 
8 1:-2 2:-8 3:-4 4:1 5:5 
8 1:5 2:7 3:5 4:1 5:1 
-8 1:5 2:7 3:5 4:1 5:3 
-8 1:5 2:7 3:5 4:1 5:4 
3.456745937864423 1:5 2:7 3:5 4:1 5:5 
8 1:9 2:4 3:4 4:-1 5:1 
8 1:9 2:4 3:4 4:-1 5:2 
-8 1:9 2:4 3:4 4:-1 5:3 
-8 1:9 2:4 3:4 4:-1 5:4 
-8 1:9 2:4 3:4 4:-1 5:5 
-8 1:-10 2:7 3:4 4:-2 5:1 
8 1:-10 2:7 3:4 4:-2 5:2 
-8 1:-10 2:7 3:4 4:-2 5:3 
-8 1:-10 2:7 3:4 4:-2 5:4 
-8 1:-10 2:7 3:4 4:-2 5:5 
-8 1:-4 2:-10 3:-3 4:1 5:1 
-8 1:-4 2:-10 3:-3 4:1 5:2 
7.824782979341688 1:-4 2:-10 3:-3 4:1 5:3 
8 1:-4 2:-10 3:-3 4:1 5:4 
-8 1:-4 2:-10 3:-3 4:1 5:5 
8 1:-4 2:3 3:3 4:2 5:1 
8 1:-4 2:3 3:3 4:2 5:2 
-8 1:-4 2:3 3:3 4:2 5:3 
-8 1:-4 2:3 3:3 4:2 5:4 
-8 1:-4 2:3 3:3 4:2 5:5 
8 1:-8 2:3 3:3 4:3 5:1 
-8 1:-8 2:3 3:3 4:3 5:2 
-8 1:-8 2:3 3:3 4:3 5:3 
-8 1:-8 2:3 3:3 4:3 5:4 
-8 1:-8 2:3 3:3 4:3 5:5 
-8 1:-10 2:1 3:1 5:1 
-4.343465686723425 1:-10 2:1 3:1 5:2 
8 1:-10 2:1 3:1 5:3 
8 1:-10 2:1 3:1 5:4 
8 1:-10 2:1 3:1 5:5 
8 1:-8 2:3 3:4 4:3 5:1 
-8 1:-8 2:3 3:4 4:3 5:2 
-8 1:-8 2:3 3:4 4:3 5:3 
-8 1:-8 2:3 3:4 4:3 5:4 
-8 1:-8 2:3 3:4 4:3 5:5 
8 1:-7 2:-3 3:3 4:2 5:1 
8 1:-7 2:-3 3:3 4:2 5:2 
-8 1:-7 2:-3 3:3 4:2 5:3 
-8 1:-7 2:-3 3:3 4:2 5:4 
-8 1:-7 2:-3 3:3 4:2 5:5 
-1.446009934582047 1:-10 2:6 3:4 5:1 
8 1:-10 2:6 3:4 5:2 
8 1:-10 2:6 3:4 5:3 
8 1:-10 2:6 3:4 5:4 
8 1:-10 2:6 3:4 5:5 
8 1:1 2:-9 3:4 5:1 
-8 1:1 2:-9 3:4 5:3 
-8 1:1 2:-9 3:4 5:4 
-8 1:1 2:-9 3:4 5:5 
8 1:-9 2:8 3:-2 4:1 5:1 
8 1:-9 2:8 3:-2 4:1 5:2 
8 1:-9 2:8 3:-2 4:1 5:3 
8 1:-9 2:8 3:-2 4:1 5:4 
8 1:-9 2:8 3:-2 4:1 5:5 
8 1:-5 2:-4 4:-3 5:1 
8 1:-5 2:-4 4:-3 5:2 
-5.550609034191432 1:-5 2:-4 4:-3 5:4 
-8 1:-5 2:-4 4:-3 5:5 
-8 1:8 2:5 3:5 4:3 5:1 
8 1:8 2:5 3:5 4:3 5:2 
8 1:8 2:5 3:5 4:3 5:3 
8 1:8 2:5 3:5 4:3 5:4 
8 1:8 2:5 3:5 4:3 5:5 
-8 1:-10 2:7 3:-5 4:-1 5:1 
-8 1:-10 2:7 3:-5 4:-1 5:2 
8 1:-10 2:7 3:-5 4:-1 5:3 
8 1:-10 2:7 3:-5 4:-1 5:4 
8 1:-10 2:7 3:-5 4:-1 5:5 
-8 2:-2 3:-3 5:5 
8 1:9 2:1 3:4 4:-2 5:1 
0.1897031888339224 1:9 2:1 3:4 4:-2 5:3 
-8 1:9 2:1 3:4 4:-2 5:5 
8 1:3 2:7 3:-2 5:1 
8 1:3 2:7 3:-2 5:2 
-8 1:3 2:7 3:-2 5:3 
-8 1:3 2:7 3:-2 5:4 
-8 1:3 2:7 3:-2 5:5 
-8 1:-4 2:10 3:-5 5:1 
-3.32787498947717 1:-4 2:10 3:-5 5:2 
6.825412409051197 1:-4 2:10 3:-5 5:3 
8 1:-4 2:10 3:-5 5:4 
8 1:-4 2:10 3:-5 5:5 
8 1:4 2:-1 3:4 4:-2 5:1 
8 1:4 2:-1 3:4 4:-2 5:2 
8 1:4 2:-1 3:4 4:-2 5:3 
8 1:4 2:-1 3:4 4:-2 5:4 
8 1:4 2:-1 3:4 4:-2 5:5 
8 1:-10 2:3 3:3 4:3 5:1 
-8 1:-10 2:3 3:3 4:3 5:2 
-8 1:-10 2:3 3:3 4:3 5:3 
-8 1:-10 2:3 3:3 4:3 5:4 
-8 1:-10 2:3 3:3 4:3 5:5 
6.604362800573898 2:6 3:-4 4:-3 5:2 
8 2:6 3:-4 4:-3 5:5 
7.106477906795324 1:-1 2:2 3:1 4:-3 5:2 
2.809942637034005 2:9 4:-1 5:1 
8 2:9 4:-1 5:2 
-3.622672401611309 2:9 4:-1 5:3 
-8 2:9 4:-1 5:4 
-8 2:9 4:-1 5:5 
-4.854675823151115 2:-4 4:-3 5:5 
8 1:-7 2:-6 3:-2 4:2 5:1 
8 1:-7 2:-6 3:-2 4:2 5:2 
-8 1:-7 2:-6 3:-2 4:2 5:3 
-8 1:-7 2:-6 3:-2 4:2 5:4 
-8 1:-7 2:-6 3:-2 4:2 5:5 
0.1609192360560837 1:5 2:-1 3:3 4:2 5:1 
-8 1:5 2:-1 3:3 4:2 5:2 
-8 1:5 2:-1 3:3 4:2 5:3 
8 1:5 2:-1 3:3 4:2 5:4 
8 1:5 2:-1 3:3 4:2 5:5 
8 1:4 2:-2 3:5 4:1 5:1 
-8 1:4 2:-2 3:5 4:1 5:2 
-8 1:4 2:-2 3:5 4:1 5:3 
-8 1:4 2:-2 3:5 4:1 5:4 
-8 1:4 2:-2 3:5 4:1 5:5 
-4.923890130969476 1:-6 2:-7 3:4 4:1 5:1 
8 1:-6 2:-7 3:4 4:1 5:2 
8 1:-6 2:-7 3:4 4:1 5:3 
8 1:-6 2:-7 3:4 4:1 5:4 
8 1:-6 2:-7 3:4 4:1 5:5 
-8 1:10 2:1 3:-1 4:-3 5:1 
-8 1:10 2:1 3:-1 4:-3 5:2 
-8 1:10 2:1 3:-1 4:-3 5:3 
8 1:10 2:1 3:-1 4:-3 5:4 
8 1:10 2:1 3:-1 4:-3 5:5 
-8 1:-2 2:8 3:3 5:1 
8 1:-2 2:8 3:3 5:4 
8 1:-2 2:8 3:3 5:5 
8 1:2 2:2 3:1 4:-1 5:1 
8 1:2 2:2 3:1 4:-1 5:2 
8 1:2 2:2 3:1 4:-1 5:3 
-8 1:2 2:2 3:1 4:-1 5:5 
8 1:4 2:4 3:1 4:1 5:1 
-6.143279405877071 1:4 2:4 3:1 4:1 5:2 
-8 1:4 2:4 3:1 4:1 5:3 
-8 1:4 2:4 3:1 4:1 5:4 
-8 1:4 2:4 3:1 4:1 5:5 
-8 1:-2 2:-1 3:4 4:-1 5:3 
-8 1:-2 2:-1 3:4 4:-1 5:4 
-8 1:-2 2:-1 3:4 4:-1 5:5 
8 1:-9 2:-7 3:-3 4:1 5:1 
8 1:-9 2:-7 3:-3 4:1 5:2 
8 1:-9 2:-7 3:-3 4:1 5:3 
8 1:-9 2:-7 3:-3 4:1 5:4 
8 1:-9 2:-7 3:-3 4:1 5:5 
8 1:7 2:9 3:3 5:1 
-8 1:7 2:9 3:3 5:3 
-8 1:7 2:9 3:3 5:4 
-8 1:7 2:9 3:3 5:5 
-7.859217177106794 2:9 3:-3 4:-3 5:1 
-8 2:9 3:-3 4:-3 5:4 
6.470891929106464 2:9 3:-3 4:-3 5:5 
-8 1:4 2:6 3:-4 4:2 5:1 
-8 1:4 2:6 3:-4 4:2 5:2 
7.3542824573161 1:4 2:6 3:-4 4:2 5:3 
8 1:4 2:6 3:-4 4:2 5:4 
8 1:4 2:6 3:-4 4:2 5:5 
-8 1:2 2:-10 3:4 4:3 5:1 
8 1:2 2:-10 3:4 4:3 5:2 
8 1:2 2:-10 3:4 4:3 5:3 
8 1:2 2:-10 3:4 4:3 5:4 
8 1:2 2:-10 3:4 4:3 5:5 
8 1:5 2:6 3:3 4:-2 5:3 
8 1:5 2:6 3:3 4:-2 5:4 
8 1:5 2:6 3:3 4:-2 5:5 
-8 1:-8 2:4 3:-5 5:1 
8 1:-8 2:4 3:-5 5:3 
8 1:-8 2:4 3:-5 5:4 
8 1:-8 2:4 3:-5 5:5 
-0.6418127548516109 1:-7 2:10 3:3 4:-3 5:1 
8 1:-7 2:10 3:3 4:-3 5:2 
-8 1:-7 2:10 3:3 4:-3 5:4 
8 1:-7 2:10 3:3 4:-3 5:5 
-8 1:10 2:2 3:3 4:3 5:1 
8 1:10 2:2 3:3 4:3 5:2 
8 1:10 2:2 3:3 4:3 5:3 
8 1:10 2:2 3:3 4:3 5:4 
8 1:10 2:2 3:3 4:3 5:5 
8 1:10 2:-7 3:-4 4:-1 5:1 
7.556666013067394 1:10 2:-7 3:-4 4:-1 5:2 
-8 1:10 2:-7 3:-4 4:-1 5:4 
-8 1:10 2:-7 3:-4 4:-1 5:5 
8 1:9 2:5 3:-2 5:1 
-8 1:9 2:5 3:-2 5:3 
-8 1:9 2:5 3:-2 5:4 
-8 1:9 2:5 3:-2 5:5 
8 1:8 2:4 3:2 5:1 
-8 1:8 2:4 3:2 5:2 
-8 1:8 2:4 3:2 5:3 
-8 1:8 2:4 3:2 5:4 
-8 1:8 2:4 3:2 5:5 
8 1:-2 2:-8 3:-3 4:2 5:1 
8 1:-2 2:-8 3:-3 4:2 5:2 
-8 1:-2 2:-8 3:-3 4:2 5:3 
-8 1:-2 2:-8 3:-3 4:2 5:4 
-8 1:-2 2:-8 3:-3 4:2 5:5 
-8 1:-6 2:-10 3:5 5:1 
8 1:-6 2:-10 3:5 5:2 
8 1:-6 2:-10 3:5 5:3 
8 1:-6 2:-10 3:5 5:4 
8 1:-6 2:-10 3:5 5:5 
4.018758791797326 1:7 2:-3 3:-5 4:1 5:1 
-8 1:7 2:-3 3:-5 4:1 5:2 
-8 1:7 2:-3 3:-5 4:1 5:3 
-8 1:7 2:-3 3:-5 4:1 5:4 
-8 1:7 2:-3 3:-5 4:1 5:5 
8 1:8 2:-3 3:3 4:-1 5:1 
-8 1:8 2:-3 3:3 4:-1 5:3 
-8 1:8 2:-3 3:3 4:-1 5:4 
-8 1:8 2:-3 3:3 4:-1 5:5 
8 1:3 2:-3 3:-4 4:1 5:1 
-8 1:3 2:-3 3:-4 4:1 5:2 
-8 1:3 2:-3 3:-4 4:1 5:3 
-8 1:3 2:-3 3:-4 4:1 5:4 
-8 1:3 2:-3 3:-4 4:1 5:5 
-8 1:-3 2:4 5:1 
-8 1:-3 2:4 5:2 
8 1:-3 2:4 5:3 
8 1:-3 2:4 5:4 
8 1:-3 2:4 5:5 
8 1:-10 2:-2 3:5 4:3 5:1 
-8 1:-10 2:-2 3:5 4:3 5:2 
-8 1:-10 2:-2 3:5 4:3 5:3 
-8 1:-10 2:-2 3:5 4:3 5:4 
-8 1:-10 2:-2 3:5 4:3 5:5 
8 1:7 2:8 3:-5 4:-2 5:1 
-8 1:7 2:8 3:-5 4:-2 5:2 
8 1:7 2:8 3:-5 4:-2 5:5 
-8 1:-1 4:2 5:1 
8 1:-1 4:2 5:2 
8 1:-1 4:2 5:3 
6.164739685794945 1:-1 4:2 5:4 
-8 1:-1 4:2 5:5 
8 1:4 2:-6 3:-4 4:1 5:1 
-8 1:4 2:-6 3:-4 4:1 5:2 
-8 1:4 2:-6 3:-4 4:1 5:3 
-8 1:4 2:-6 3:-4 4:1 5:4 
-8 1:4 2:-6 3:-4 4:1 5:5 
2.793915218753927 1:-1 2:9 3:-1 4:-3 5:2 
-8 1:-1 2:9 3:-1 4:-3 5:4 
8 1:-4 2:7 4:-3 5:1 
8 1:-4 2:7 4:-3 5:2 
8 1:-4 2:7 4:-3 5:3 
8 1:-4 2:7 4:-3 5:5 
-8 1:4 2:1 3:-1 4:3 5:1 
-8 1:4 2:1 3:-1 4:3 5:2 
8 1:4 2:1 3:-1 4:3 5:3 
8 1:4 2:1 3:-1 4:3 5:4 
8 1:4 2:1 3:-1 4:3 5:5 
-8 1:-10 2:8 3:2 4:-3 5:1 
8 1:-10 2:8 3:2 4:-3 5:2 
5.052788298207406 1:-10 2:8 3:2 4:-3 5:3 
-8 1:-10 2:8 3:2 4:-3 5:4 
8 1:-10 2:8 3:2 4:-3 5:5 
-8 1:4 2:9 3:-4 4:3 5:1 
8 1:4 2:9 3:-4 4:3 5:2 
8 1:4 2:9 3:-4 4:3 5:3 
8 1:4 2:9 3:-4 4:3 5:4 
8 1:4 2:9 3:-4 4:3 5:5 
8 1:1 2:-9 3:5 4:2 5:1 
-5.553575771516782 1:1 2:-9 3:5 4:2 5:2 
-8 1:1 2:-9 3:5 4:2 5:3 
8 1:1 2:-9 3:5 4:2 5:4 
8 1:1 2:-9 3:5 4:2 5:5 
-8 1:2 2:6 3:-2 4:3 5:1 
-8 1:2 2:6 3:-2 4:3 5:2 
8 1:2 2:6 3:-2 4:3 5:3 
8 1:2 2:6 3:-2 4:3 5:4 
8 1:2 2:6 3:-2 4:3 5:5 
8 1:-6 2:-2 3:5 4:-3 5:1 
8 1:-6 2:-2 3:5 4:-3 5:2 
8 1:-6 2:-2 3:5 4:-3 5:3 
-8 1:-6 2:-2 3:5 4:-3 5:5 
-8 1:5 2:-3 3:-5 4:-2 5:2 
8 1:5 2:-3 3:-5 4:-2 5:3 
8 1:5 2:-3 3:-5 4:-2 5:4 
8 1:-10 2:-6 3:2 4:1 5:1 
8 1:-10 2:-6 3:2 4:1 5:2 
8 1:-10 2:-6 3:2 4:1 5:3 
8 1:-10 2:-6 3:2 4:1 5:4 
-5.612929257367685 1:-10 2:-6 3:2 4:1 5:5 
-8 1:-1 2:-4 3:-5 4:-2 5:5 
8 1:-10 3:-3 4:2 5:1 
-8 1:-10 3:-3 4:2 5:3 
-8 1:-10 3:-3 4:2 5:4 
-8 1:-10 3:-3 4:2 5:5 
-1.141158800707918 1:-8 2:4 3:1 4:1 5:1 
8 1:-8 2:4 3:1 4:1 5:2 
8 1:-8 2:4 3:1 4:1 5:3 
8 1:-8 2:4 3:1 4:1 5:4 
8 1:-8 2:4 3:1 4:1 5:5 
-8 1:8 2:8 3:-2 4:1 5:1 
-8 1:8 2:8 3:-2 4:1 5:2 
-8 1:8 2:8 3:-2 4:1 5:3 
-8 1:8 2:8 3:-2 4:1 5:4 
8 1:-10 2:7 3:4 4:2 5:1 
-8 1:-10 2:7 3:4 4:2 5:3 
-8 1:-10 2:7 3:4 4:2 5:4 
-8 1:-10 2:7 3:4 4:2 5:5 
8 1:5 2:-9 3:5 4:-3 5:1 
-8 1:5 2:-9 3:5 4:-3 5:2 
1.655082217241999 1:5 2:-9 3:5 4:-3 5:4 
-8 1:5 2:-9 3:5 4:-3 5:5 
-8 1:-5 2:-3 3:-2 4:-1 5:1 
-8 1:-5 2:-3 3:-2 4:-1 5:2 
-8 1:-5 2:-3 3:-2 4:-1 5:3 
8 1:-5 2:-3 3:-2 4:-1 5:5 
8 1:-4 2:-9 3:5 4:2 5:1 
8 1:-4 2:-9 3:5 4:2 5:2 
-8 1:-4 2:-9 3:5 4:2 5:3 
-8 1:-4 2:-9 3:5 4:2 5:4 
-8 1:-4 2:-9 3:5 4:2 5:5 
8 1:-5 3:-5 4:3 5:1 
-8 1:-5 3:-5 4:3 5:2 
-8 1:-5 3:-5 4:3 5:3 
-8 1:-5 3:-5 4:3 5:4 
-8 1:-5 3:-5 4:3 5:5 
-8 2:-8 3:1 4:1 5:5 
-1.887650415686361 1:2 2:-7 3:5 4:-3 5:1 
-8 1:2 2:-7 3:5 4:-3 5:2 
8 1:2 2:-7 3:5 4:-3 5:4 
-8 1:8 2:-4 3:4 4:-3 5:1 
-8 1:8 2:-4 3:4 4:-3 5:2 
8 1:8 2:-4 3:4 4:-3 5:3 
8 1:8 2:-4 3:4 4:-3 5:4 
8 1:8 2:-4 3:4 4:-3 5:5 
-8 1:10 2:4 3:4 4:1 5:1 
-8 1:10 2:4 3:4 4:1 5:2 
-8 1:10 2:4 3:4 4:1 5:3 
-8 1:10 2:4 3:4 4:1 5:4 
-8 1:10 2:4 3:4 4:1 5:5 
-8 1:-2 2:1 3:1 5:1 
-8 1:-2 2:1 3:1 5:2 
8 1:-2 2:1 3:1 5:3 
8 1:-2 2:1 3:1 5:4 
8 1:-2 2:1 3:1 5:5 
8 1:9 2:6 3:5 5:1 
8 1:9 2:6 3:5 5:2 
-8 1:9 2:6 3:5 5:3 
-8 1:9 2:6 3:5 5:4 
-8 1:9 2:6 3:5 5:5 
1.439286517666042 2:6 3:-5 4:1 5:2 
-6.834443536522499 2:6 3:-5 4:1 5:4 
-8 1:-2 2:9 3:4 5:1 
0.05857120378771163 1:-2 2:9 3:4 5:3 
8 1:-2 2:9 3:4 5:4 
8 1:-2 2:9 3:4 5:5 
-8 1:-2 2:3 3:-4 5:1 
8 1:-2 2:3 3:-4 5:3 
8 1:-2 2:3 3:-4 5:4 
8 1:-2 2:3 3:-4 5:5 
-8 1:10 2:6 3:2 4:2 5:1 
8 1:10 2:6 3:2 4:2 5:3 
8 1:10 2:6 3:2 4:2 5:4 
8 1:10 2:6 3:2 4:2 5:5 
8 1:6 3:3 5:1 
-8 1:6 3:3 5:3 
-8 1:6 3:3 5:4 
-8 1:6 3:3 5:5 
8 1:-9 2:-4 3:5 4:2 5:1 
8 1:-9 2:-4 3:5 4:2 5:2 
-8 1:-9 2:-4 3:5 4:2 5:3 
-8 1:-9 2:-4 3:5 4:2 5:4 
-8 1:-9 2:-4 3:5 4:2 5:5 
8 1:-7 2:7 3:2 4:1 5:1 
8 1:-7 2:7 3:2 4:1 5:2 
8 1:-7 2:7 3:2 4:1 5:3 
8 1:-7 2:7 3:2 4:1 5:4 
8 1:-7 2:7 3:2 4:1 5:5 
-8 1:3 2:9 3:-1 4:-3 5:1 
-8 1:3 2:9 3:-1 4:-3 5:2 
8 1:3 2:9 3:-1 4:-3 5:5 
-8 2:-3 3:-3 4:3 5:5 
-8 1:-9 2:10 3:-5 4:-2 5:1 
8 1:-9 2:10 3:-5 4:-2 5:3 
8 1:-9 2:10 3:-5 4:-2 5:4 
8 1:-9 2:10 3:-5 4:-2 5:5 
-4.932840662995281 1:6 2:-2 3:-2 4:-3 5:1 
-8 1:6 2:-2 3:-2 4:-3 5:2 
-3.274075313563849 1:6 2:-2 3:-2 4:-3 5:3 
-8 1:-1 2:9 3:-3 5:3 
-8 1:-1 2:9 3:-3 5:4 
8 1:-1 2:9 3:-3 5:5 
-8 1:9 2:-2 3:-3 4:2 5:1 
7.049403284577981 1:9 2:-2 3:-3 4:2 5:2 
8 1:9 2:-2 3:-3 4:2 5:3 
8 1:9 2:-2 3:-3 4:2 5:4 
8 1:9 2:-2 3:-3 4:2 5:5 
-8 1:6 2:-10 3:3 4:2 5:2 
7.756876947146546 1:6 2:-10 3:3 4:2 5:3 
8 1:6 2:-10 3:3 4:2 5:4 
8 1:6 2:-10 3:3 4:2 5:5 
-8 1:-10 3:-4 4:-3 5:1 
8 1:-10 3:-4 4:-3 5:2 
2.833558960816054 1:-10 3:-4 4:-3 5:3 
-8 1:-10 3:-4 4:-3 5:4 
-8 1:-10 3:-4 4:-3 5:5 
8 1:9 2:-4 3:1 4:-1 5:1 
8 1:9 2:-4 3:1 4:-1 5:2 
8 1:9 2:-4 3:1 4:-1 5:3 
-0.2507729946835617 1:9 2:-4 3:1 4:-1 5:4 
-8 1:9 2:-4 3:1 4:-1 5:5 
-8 1:-3 3:-2 4:-1 5:1 
-8 1:-3 3:-2 4:-1 5:2 
-8 1:-3 3:-2 4:-1 5:3 
8 1:-3 3:-2 4:-1 5:5 
8 1:-10 2:-10 3:-3 4:3 5:1 
-8 1:-10 2:-10 3:-3 4:3 5:2 
-8 1:-10 2:-10 3:-3 4:3 5:3 
-8 1:-10 2:-10 3:-3 4:3 5:4 
-8 1:-10 2:-10 3:-3 4:3 5:5 
8 1:6 2:-9 3:3 4:-3 5:1 
-8 1:6 2:-9 3:3 4:-3 5:2 
8 1:6 2:-9 3:3 4:-3 5:3 
8 1:6 2:-9 3:3 4:-3 5:4 
8 1:6 2:-5 3:-5 4:1 5:1 
-8 1:6 2:-5 3:-5 4:1 5:2 
-8 1:6 2:-5 3:-5 4:1 5:3 
-8 1:6 2:-5 3:-5 4:1 5:4 
-8 1:6 2:-5 3:-5 4:1 5:5 
-8 1:8 2:5 3:3 4:3 5:1 
8 1:8 2:5 3:3 4:3 5:2 
8 1:8 2:5 3:3 4:3 5:3 
8 1:8 2:5 3:3 4:3 5:4 
8 1:8 2:5 3:3 4:3 5:5 
-8 1:-9 2:3 3:4 4:-1 5:1 
8 1:-9 2:3 3:4 4:-1 5:5 
-8 1:-9 2:-3 3:-3 5:1 
8 1:-9 2:-3 3:-3 5:2 
8 1:-9 2:-3 3:-3 5:3 
8 1:-9 2:-3 3:-3 5:4 
8 1:-9 2:-3 3:-3 5:5 
8 1:2 2:-4 3:2 4:-2 5:3 
8 1:2 2:-4 3:2 4:-2 5:4 
8 1:2 2:-4 3:2 4:-2 5:5 
-8 1:5 2:-7 3:-1 4:-3 5:1 
-8 1:5 2:-7 3:-1 4:-3 5:2 
-8 1:5 2:-7 3:-1 4:-3 5:3 
-8 1:5 2:-7 3:-1 4:-3 5:5 
-8 1:2 2:-8 3:-2 4:3 5:1 
-8 1:2 2:-8 3:-2 4:3 5:2 
8 1:2 2:-8 3:-2 4:3 5:3 
8 1:2 2:-8 3:-2 4:3 5:4 
8 1:2 2:-8 3:-2 4:3 5:5 
-8 1:4 2:-2 3:-1 4:-3 5:2 
-8 1:4 2:-2 3:-1 4:-3 5:5 
8 1:-6 2:-6 3:2 4:-3 5:1 
8 1:-6 2:-6 3:2 4:-3 5:2 
8 1:-6 2:-6 3:2 4:-3 5:3 
-4.360133834484207 1:-6 2:-6 3:2 4:-3 5:4 
-8 1:-6 2:-6 3:2 4:-3 5:5 
8 1:-3 2:-1 3:-4 4:3 5:1 
8 1:-3 2:-1 3:-4 4:3 5:2 
-8 1:-3 2:-1 3:-4 4:3 5:3 
-8 1:-3 2:-1 3:-4 4:3 5:4 
-8 1:-3 2:-1 3:-4 4:3 5:5 
8 1:6 2:5 3:5 4:-1 5:1 
8 1:6 2:5 3:5 4:-1 5:2 
-8 1:6 2:5 3:5 4:-1 5:4 
-8 1:6 2:5 3:5 4:-1 5:5 
8 1:5 2:10 3:-3 4:-2 5:1 
1.935550889922446 1:5 2:10 3:-3 4:-2 5:2 
8 1:5 2:10 3:-3 4:-2 5:3 
8 1:5 2:10 3:-3 4:-2 5:4 
8 1:5 2:10 3:-3 4:-2 5:5 
8 1:8 2:-9 3:3 5:1 
-2.665352098641943 1:8 2:-9 3:3 5:2 
-8 1:8 2:-9 3:3 5:3 
-8 1:8 2:-9 3:3 5:4 
-8 1:8 2:-9 3:3 5:5 
8 1:-5 2:4 3:3 4:-3 5:2 
-8 1:-5 2:4 3:3 4:-3 5:4 
8 1:-8 2:-1 3:-2 4:3 5:1 
-8 1:-8 2:-1 3:-2 4:3 5:2 
-8 1:-8 2:-1 3:-2 4:3 5:3 
-8 1:-8 2:-1 3:-2 4:3 5:4 
-8 1:-8 2:-1 3:-2 4:3 5:5 
-8 1:6 2:7 3:4 4:2 5:1 
-8 1:6 2:7 3:4 4:2 5:2 
8 1:6 2:7 3:4 4:2 5:3 
8 1:6 2:7 3:4 4:2 5:4 
8 1:6 2:7 3:4 4:2 5:5 
-8 1:9 2:-3 3:1 4:3 5:1 
8 1:9 2:-3 3:1 4:3 5:2 
8 1:9 2:-3 3:1 4:3 5:3 
8 1:9 2:-3 3:1 4:3 5:4 
8 1:9 2:-3 3:1 4:3 5:5 
-8 1:-7 2:-4 3:3 4:-1 5:1 
-8 1:-7 2:-4 3:3 4:-1 5:2 
-8 1:-7 2:-4 3:3 4:-1 5:3 
8 1:-7 2:-4 3:3 4:-1 5:5 
7.077756659278009 1:-7 2:9 3:-3 4:1 5:2 
8 1:-7 2:9 3:-3 4:1 5:3 
8 1:-7 2:9 3:-3 4:1 5:4 
8 1:-7 2:9 3:-3 4:1 5:5 
-8 1:2 2:10 3:2 4:2 5:1 
-8 1:2 2:10 3:2 4:2 5:2 
8 1:2 2:10 3:2 4:2 5:3 
8 1:2 2:10 3:2 4:2 5:4 
8 1:2 2:10 3:2 4:2 5:5 
8 1:-5 2:-1 3:-4 4:2 5:1 
8 1:-5 2:-1 3:-4 4:2 5:2 
8 1:-5 2:-1 3:-4 4:2 5:3 
-8 1:-5 2:-1 3:-4 4:2 5:4 
-8 1:-5 2:-1 3:-4 4:2 5:5 
-8 2:10 3:3 4:-2 5:3 
-4.408342384313137 2:10 3:3 4:-2 5:4 
8 2:10 3:3 4:-2 5:5 
-8 1:-10 2:1 4:-1 5:1 
8 1:-10 2:1 4:-1 5:4 
8 1:-10 2:1 4:-1 5:5 
8 1:9 2:6 3:-2 4:-2 5:1 
-8 1:9 2:6 3:-2 4:-2 5:2 
8 1:9 2:6 3:-2 4:-2 5:4 
8 1:9 2:6 3:-2 4:-2 5:5 
-8 1:-10 2:4 4:-2 5:1 
8 1:-10 2:4 4:-2 5:2 
-8 1:-10 2:4 4:-2 5:4 
-8 1:-10 2:4 4:-2 5:5 
8 1:-2 2:10 3:-5 4:2 5:1 
1.464679504943819 1:-2 2:10 3:-5 4:2 5:2 
-8 1:-2 2:10 3:-5 4:2 5:3 
-8 1:-2 2:10 3:-5 4:2 5:4 
-8 1:-2 2:10 3:-5 4:2 5:5 
8 1:6 2:-7 3:-2 5:1 
-8 1:6 2:-7 3:-2 5:3 
-8 1:6 2:-7 3:-2 5:4 
-8 1:6 2:-7 3:-2 5:5 
-1.399646406227653 1:3 2:9 3:4 4:1 5:2 
-8 1:3 2:9 3:4 4:1 5:3 
-8 1:3 2:9 3:4 4:1 5:4 
-8 1:3 2:9 3:4 4:1 5:5 
-8 1:8 2:4 3:1 4:2 5:1 
-8 1:8 2:4 3:1 4:2 5:2 
8 1:8 2:4 3:1 4:2 5:3 
8 1:8 2:4 3:1 4:2 5:4 
8 1:8 2:4 3:1 4:2 5:5 
8 1:-3 2:10 3:5 4:3 5:1 
-2.689881476511834 1:-3 2:10 3:5 4:3 5:2 
-8 1:-3 2:10 3:5 4:3 5:3 
-8 1:-3 2:10 3:5 4:3 5:4 
-8 1:-3 2:10 3:5 4:3 5:5 
-8 1:1 2:-9 3:-5 4:3 5:1 
-2.424995847708325 1:1 2:-9 3:-5 4:3 5:2 
8 1:1 2:-9 3:-5 4:3 5:3 
8 1:1 2:-9 3:-5 4:3 5:4 
8 1:1 2:-9 3:-5 4:3 5:5 
-6.487075198281731 1:-6 2:6 3:5 5:1 
8 1:-6 2:6 3:5 5:3 
8 1:-6 2:6 3:5 5:4 
8 1:-6 2:6 3:5 5:5 
-8 1:8 2:2 3:1 4:2 5:1 
-8 1:8 2:2 3:1 4:2 5:2 
8 1:8 2:2 3:1 4:2 5:3 
8 1:8 2:2 3:1 4:2 5:4 
8 1:8 2:2 3:1 4:2 5:5 
-8 2:6 3:4 4:-2 5:4 
-8 1:10 2:-8 3:4 4:2 5:1 
-8 1:10 2:-8 3:4 4:2 5:2 
8 1:10 2:-8 3:4 4:2 5:3 
8 1:10 2:-8 3:4 4:2 5:4 
8 1:10 2:-8 3:4 4:2 5:5 
-8 1:-7 2:8 3:-5 4:-3 5:1 
8 1:-7 2:8 3:-5 4:-3 5:2 
-8 1:-7 2:8 3:-5 4:-3 5:4 
7.412950313880416 2:-9 5:4 
-8 2:-9 5:5 
-8 1:-8 2:-7 3:-3 4:-2 5:1 
-8 1:-8 2:-7 3:-3 4:-2 5:3 
-8 1:-8 2:-7 3:-3 4:-2 5:4 
-8 1:-8 2:-7 3:-3 4:-2 5:5 
-8 1:-9 2:8 3:2 5:1 
4.44678710791291 1:-9 2:8 3:2 5:2 
8 1:-9 2:8 3:2 5:3 
8 1:-9 2:8 3:2 5:4 
8 1:-9 2:8 3:2 5:5 
-8 1:-8 2:-4 3:-2 4:-1 5:1 
-8 1:-8 2:-4 3:-2 4:-1 5:2 
-8 1:-8 2:-4 3:-2 4:-1 5:3 
8 1:-8 2:-4 3:-2 4:-1 5:4 
8 1:-8 2:-4 3:-2 4:-1 5:5 
8 1:-10 2:9 3:3 4:3 5:1 
-8 1:-10 2:9 3:3 4:3 5:2 
-8 1:-10 2:9 3:3 4:3 5:3 
-8 1:-10 2:9 3:3 4:3 5:4 
-8 1:-10 2:9 3:3 4:3 5:5 
8 1:4 2:-6 3:2 4:-2 5:3 
8 1:4 2:-6 3:2 4:-2 5:4 
8 1:4 2:-6 3:2 4:-2 5:5 
-8 1:7 2:7 3:-4 4:1 5:1 
-8 1:7 2:7 3:-4 4:1 5:2 
-8 1:7 2:7 3:-4 4:1 5:3 
-8 1:7 2:7 3:-4 4:1 5:4 
-8 1:7 2:7 3:-4 4:1 5:5 
-4.094947141625965 1:-2 2:-4 3:-5 4:-1 5:1 
2.065866713012181 1:-2 2:-4 3:-5 4:-1 5:5 
8 1:-5 2:-9 3:1 4:3 5:1 
4.42564980937357 1:-5 2:-9 3:1 4:3 5:2 
-8 1:-5 2:-9 3:1 4:3 5:3 
-8 1:-5 2:-9 3:1 4:3 5:4 
-8 1:-5 2:-9 3:1 4:3 5:5 
-8 1:-2 2:-3 3:3 4:1 5:1 
8 1:-2 2:-3 3:3 4:1 5:3 
8 1:-2 2:-3 3:3 4:1 5:4 
8 1:-2 2:-3 3:3 4:1 5:5 
-8 1:-9 2:6 3:3 4:-1 5:1 
-8 1:-9 2:6 3:3 4:-1 5:3 
-8 1:-9 2:6 3:3 4:-1 5:4 
-8 1:8 2:8 3:-2 4:-3 5:1 
-8 1:8 2:8 3:-2 4:-3 5:2 
-8 1:8 2:8 3:-2 4:-3 5:3 
-8 1:8 2:8 3:-2 4:-3 5:4 
-8 1:8 2:-7 3:1 4:-3 5:1 
-8 1:8 2:-7 3:1 4:-3 5:2 
8 1:8 2:-7 3:1 4:-3 5:4 
8 1:8 2:-7 3:1 4:-3 5:5 
-8 1:-8 3:5 4:-2 5:1 
8 1:-8 3:5 4:-2 5:2 
-8 1:-8 3:5 4:-2 5:4 
-8 1:-8 3:5 4:-2 5:5 
8 1:-5 2:9 3:3 4:-3 5:2 
-8 1:-5 2:9 3:3 4:-3 5:4 
-8 1:1 2:-10 3:-1 4:3 5:2 
8 1:1 2:-10 3:-1 4:3 5:3 
8 1:1 2:-10 3:-1 4:3 5:4 
8 1:1 2:-10 3:-1 4:3 5:5 
8 1:6 2:-6 3:-4 4:-1 5:1 
8 1:6 2:-6 3:-4 4:-1 5:2 
8 1:6 2:-6 3:-4 4:-1 5:3 
8 1:6 2:-6 3:-4 4:-1 5:4 
-8 1:6 2:-6 3:-4 4:-1 5:5 
-8 1:3 2:-3 3:-4 4:3 5:1 
0.8592900294994023 1:3 2:-3 3:-4 4:3 5:2 
8 1:3 2:-3 3:-4 4:3 5:3 
8 1:3 2:-3 3:-4 4:3 5:4 
8 1:3 2:-3 3:-4 4:3 5:5 
8 2:-8 3:-3 4:1 5:1 
-2.858069510160891 2:-8 3:-3 4:1 5:4 
-8 2:-8 3:-3 4:1 5:5 
-4.267929529283991 1:-4 2:-4 3:4 4:-1 5:1 
-8 1:-4 2:-4 3:4 4:-1 5:2 
-8 1:-4 2:-4 3:4 4:-1 5:3 
-8 1:-4 2:-4 3:4 4:-1 5:4 
-8 1:-4 2:-4 3:4 4:-1 5:5 
-8 1:-3 2:-4 4:2 5:1 
8 1:-3 2:-4 4:2 5:2 
8 1:-3 2:-4 4:2 5:3 
-8 1:-3 2:-4 4:2 5:5 
5.380667015480027 2:-3 3:-2 5:1 
-8 2:-3 3:-2 5:5 
8 1:-2 2:-3 3:4 4:3 5:1 
-8 1:-2 2:-3 3:4 4:3 5:2 
-8 1:-2 2:-3 3:4 4:3 5:3 
-8 1:-2 2:-3 3:4 4:3 5:4 
-8 1:-2 2:-3 3:4 4:3 5:5 
0.3456721577725609 1:2 2:-1 3:-4 4:-2 5:3 
8 1:2 2:-1 3:-4 4:-2 5:4 
3.460593510838958 1:2 2:-1 3:-4 4:-2 5:5 
-8 1:6 2:10 3:-4 4:-3 5:2 
-8 1:6 2:10 3:-4 4:-3 5:3 
8 1:6 2:10 3:-4 4:-3 5:5 
8 1:-6 2:6 3:3 4:-3 5:1 
8 1:-6 2:6 3:3 4:-3 5:2 
0.1631238512608633 1:-6 2:6 3:3 4:-3 5:3 
-8 1:-6 2:6 3:3 4:-3 5:4 
7.321232722277021 1:-1 3:-3 4:-2 5:1 
-8 1:-1 3:-3 4:-2 5:4 
-0.6291488001442134 1:-1 3:-3 4:-2 5:5 
8 1:-1 2:7 3:-4 4:3 5:1 
1.672142562573677 1:-1 2:7 3:-4 4:3 5:2 
-8 1:-1 2:7 3:-4 4:3 5:3 
-8 1:-1 2:7 3:-4 4:3 5:4 
-8 1:-1 2:7 3:-4 4:3 5:5 
8 1:3 2:-9 3:-5 4:1 5:1 
-4.265112403184958 1:3 2:-9 3:-5 4:1 5:2 
-8 1:3 2:-9 3:-5 4:1 5:3 
-8 1:3 2:-9 3:-5 4:1 5:4 
-8 1:3 2:-9 3:-5 4:1 5:5 
8 1:-8 2:-3 3:4 4:1 5:1 
8 1:-8 2:-3 3:4 4:1 5:2 
8 1:-8 2:-3 3:4 4:1 5:3 
8 1:-8 2:-3 3:4 4:1 5:4 
8 1:-8 2:-3 3:4 4:1 5:5 
-8 1:6 2:7 3:-5 4:3 5:1 
8 1:6 2:7 3:-5 4:3 5:2 
8 1:6 2:7 3:-5 4:3 5:3 
8 1:6 2:7 3:-5 4:3 5:4 
8 1:6 2:7 3:-5 4:3 5:5 
8 1:-4 2:-10 3:1 4:2 5:1 
8 1:-4 2:-10 3:1 4:2 5:2 
-8 1:-4 2:-10 3:1 4:2 5:3 
-8 1:-4 2:-10 3:1 4:2 5:4 
-8 1:-4 2:-10 3:1 4:2 5:5 
-8 1:-3 2:9 3:-3 5:1 
8 1:-3 2:9 3:-3 5:4 
8 1:-3 2:9 3:-3 5:5 
-8 1:-6 3:-3 4:1 5:1 
8 1:-6 3:-3 4:1 5:2 
8 1:-6 3:-3 4:1 5:3 
8 1:-6 3:-3 4:1 5:4 
8 1:-6 3:-3 4:1 5:5 
-8 1:-6 2:5 3:2 4:1 5:1 
8 1:-6 2:5 3:2 4:1 5:2 
8 1:-6 2:5 3:2 4:1 5:3 
8 1:-6 2:5 3:2 4:1 5:4 
8 1:-6 2:5 3:2 4:1 5:5 
6.153723469499468 1:9 2:10 3:-5 4:-3 5:1 
-8 1:9 2:10 3:-5 4:-3 5:2 
8 1:9 2:10 3:-5 4:-3 5:4 
8 1:9 2:10 3:-5 4:-3 5:5 
-8 1:2 2:-5 3:-4 4:2 5:2 
8 1:2 2:-5 3:-4 4:2 5:4 
8 1:2 2:-5 3:-4 4:2 5:5 
-8 1:-2 2:-8 3:-2 4:1 5:1 
8 1:-2 2:-8 3:-2 4:1 5:3 
8 1:-2 2:-8 3:-2 4:1 5:4 
8 1:-2 2:-8 3:-2 4:1 5:5 
8 1:5 3:-3 4:-2 5:1 
8 1:5 3:-3 4:-2 5:3 
8 1:5 3:-3 4:-2 5:4 
-3.24721380478097 1:6 2:-7 3:-1 4:-2 5:2 
8 1:6 2:-7 3:-1 4:-2 5:3 
8 1:6 2:-7 3:-1 4:-2 5:4 
8 1:6 2:-7 3:-1 4:-2 5:5 
-8 1:-7 2:-3 3:4 5:1 
8 1:-7 2:-3 3:4 5:3 
8 1:-7 2:-3 3:4 5:4 
8 1:-7 2:-3 3:4 5:5 
8 1:7 2:-9 3:4 4:-2 5:1 
8 1:7 2:-9 3:4 4:-2 5:2 
8 1:7 2:-9 3:4 4:-2 5:3 
8 1:7 2:-9 3:4 4:-2 5:4 
-8 1:7 2:-9 3:4 4:-2 5:5 
8 1:2 2:2 3:-3 5:1 
1.949599146354616 1:2 2:2 3:-3 5:2 
-8 1:2 2:2 3:-3 5:3 
-8 1:2 2:2 3:-3 5:4 
-8 1:2 2:2 3:-3 5:5 
8 1:-7 2:-6 3:-5 4:3 5:1 
-8 1:-7 2:-6 3:-5 4:3 5:2 
-8 1:-7 2:-6 3:-5 4:3 5:3 
-8 1:-7 2:-6 3:-5 4:3 5:4 
-8 1:-7 2:-6 3:-5 4:3 5:5 
-8 1:-10 2:8 3:5 5:1 
8 1:-10 2:8 3:5 5:2 
8 1:-10 2:8 3:5 5:3 
8 1:-10 2:8 3:5 5:4 
8 1:-10 2:8 3:5 5:5 
8 1:-2 2:-10 3:1 4:-3 5:1 
8 1:-2 2:-10 3:1 4:-3 5:2 
-8 1:-2 2:-10 3:1 4:-3 5:4 
-8 1:-2 2:-10 3:1 4:-3 5:5 
-8 1:-6 2:8 3:2 4:-1 5:1 
-8 1:-6 2:8 3:2 4:-1 5:2 
-8 1:-6 2:8 3:2 4:-1 5:3 
-8 1:-6 2:8 3:2 4:-1 5:4 
-8 1:-6 2:8 3:2 4:-1 5:5 
-1.697127706396328 1:-2 2:-10 3:2 4:-2 5:2 
-8 1:-2 2:-10 3:2 4:-2 5:4 
-8 1:-2 2:-10 3:2 4:-2 5:5 
8 1:-6 2:-8 3:-4 4:2 5:1 
8 1:-6 2:-8 3:-4 4:2 5:2 
-8 1:-6 2:-8 3:-4 4:2 5:3 
-8 1:-6 2:-8 3:-4 4:2 5:4 
-8 1:-6 2:-8 3:-4 4:2 5:5 
8 1:4 2:6 3:-1 4:1 5:1 
-8 1:4 2:6 3:-1 4:1 5:3 
-8 1:4 2:6 3:-1 4:1 5:4 
-8 1:4 2:6 3:-1 4:1 5:5 
-8 1:-2 2:-2 3:-2 4:1 5:1 
8 1:-2 2:-2 3:-2 4:1 5:3 
8 1:-2 2:-2 3:-2 4:1 5:4 
8 1:-2 2:-2 3:-2 4:1 5:5 
8 1:9 2:2 3:4 4:-2 5:1 
-8 1:9 2:2 3:4 4:-2 5:5 
-8 1:10 2:-7 3:-5 4:1 5:1 
-5.310350352131272 1:10 2:-7 3:-5 4:1 5:2 
8 1:10 2:-7 3:-5 4:1 5:3 
8 1:10 2:-7 3:-5 4:1 5:4 
8 1:10 2:-7 3:-5 4:1 5:5 
-2.887231808559948 1:-7 2:-10 3:-3 4:-2 5:1 
8 1:-7 2:-10 3:-3 4:-2 5:2 
-0.4032115979235957 1:-7 2:-10 3:-3 4:-2 5:3 
-8 1:-7 2:-10 3:-3 4:-2 5:4 
-8 1:-7 2:-10 3:-3 4:-2 5:5 
8 1:7 2:9 3:-3 5:1 
2.796727268482261 1:7 2:9 3:-3 5:2 
-8 1:7 2:9 3:-3 5:3 
-8 1:7 2:9 3:-3 5:4 
-8 1:7 2:9 3:-3 5:5 
-8 1:-2 3:-1 4:2 5:1 
8 1:-2 3:-1 4:2 5:2 
8 1:-2 3:-1 4:2 5:3 
8 1:-2 3:-1 4:2 5:4 
-8 1:-2 3:-1 4:2 5:5 
-8 1:4 2:5 3:4 4:2 5:1 
-8 1:4 2:5 3:4 4:2 5:2 
8 1:4 2:5 3:4 4:2 5:3 
8 1:4 2:5 3:4 4:2 5:4 
8 1:4 2:5 3:4 4:2 5:5 
8 1:-7 2:-8 3:1 4:2 5:1 
8 1:-7 2:-8 3:1 4:2 5:2 
-8 1:-7 2:-8 3:1 4:2 5:3 
-8 1:-7 2:-8 3:1 4:2 5:4 
-8 1:-7 2:-8 3:1 4:2 5:5 
8 1:-5 2:-7 3:3 4:3 5:1 
8 1:-5 2:-7 3:3 4:3 5:2 
-8 1:-5 2:-7 3:3 4:3 5:3 
-8 1:-5 2:-7 3:3 4:3 5:4 
-8 1:-5 2:-7 3:3 4:3 5:5 
-8 1:-6 2:-4 3:3 4:1 5:1 
8 1:-6 2:-4 3:3 4:1 5:2 
8 1:-6 2:-4 3:3 4:1 5:3 
8 1:-6 2:-4 3:3 4:1 5:4 
8 1:-6 2:-4 3:3 4:1 5:5 
8 1:6 2:-10 3:5 4:-2 5:1 
8 1:6 2:-10 3:5 4:-2 5:2 
-8 1:6 2:-10 3:5 4:-2 5:4 
-8 1:6 2:-10 3:5 4:-2 5:5 
8 1:3 2:-3 3:-2 4:2 5:1 
-8 1:3 2:-3 3:-2 4:2 5:2 
-8 1:3 2:-3 3:-2 4:2 5:3 
7.927745052171481 1:3 2:-3 3:-2 4:2 5:4 
8 1:3 2:-3 3:-2 4:2 5:5 
8 1:-1 2:-2 3:5 4:1 5:4 
8 1:-1 2:-2 3:5 4:1 5:5 
-8 1:-7 2:-7 3:1 5:1 
-8 1:-7 2:-7 3:1 5:2 
8 1:-7 2:-7 3:1 5:3 
8 1:-7 2:-7 3:1 5:4 
8 1:-7 2:-7 3:1 5:5 
8 1:-9 2:2 3:-3 4:3 5:1 
-8 1:-9 2:2 3:-3 4:3 5:2 
-8 1:-9 2:2 3:-3 4:3 5:3 
-8 1:-9 2:2 3:-3 4:3 5:4 
-8 1:-9 2:2 3:-3 4:3 5:5 
8 1:7 2:-7 3:-4 5:1 
-8 1:7 2:-7 3:-4 5:3 
-8 1:7 2:-7 3:-4 5:4 
-8 1:7 2:-7 3:-4 5:5 
8 1:5 2:-2 3:-1 4:-2 5:1 
7.760400369865822 1:5 2:-2 3:-1 4:-2 5:2 
8 1:5 2:-2 3:-1 4:-2 5:3 
8 1:5 2:-2 3:-1 4:-2 5:4 
-8 1:10 2:4 3:1 4:-3 5:2 
-8 1:10 2:4 3:1 4:-3 5:3 
8 1:10 2:4 3:1 4:-3 5:5 
-8 1:2 2:-3 3:5 4:-3 5:1 
-8 1:2 2:-3 3:5 4:-3 5:2 
5.337708724912698 1:2 2:-3 3:5 4:-3 5:4 
2.534522894344165 1:2 2:-3 3:5 4:-3 5:5 
-8 1:-3 2:2 3:1 4:1 5:1 
8 1:-3 2:2 3:1 4:1 5:3 
8 1:-3 2:2 3:1 4:1 5:4 
8 1:-3 2:2 3:1 4:1 5:5 
8 1:-3 2:-10 4:2 5:2 
-8 1:-3 2:-10 4:2 5:3 
-8 1:-3 2:-10 4:2 5:4 
-8 1:-3 2:-10 4:2 5:5 
-8 1:9 2:-2 3:1 4:-2 5:2 
8 1:9 2:-2 3:1 4:-2 5:3 
8 1:9 2:-2 3:1 4:-2 5:4 
8 1:9 2:-2 3:1 4:-2 5:5 
8 1:-8 2:9 3:2 4:3 5:1 
-8 1:-8 2:9 3:2 4:3 5:2 
-8 1:-8 2:9 3:2 4:3 5:3 
-8 1:-8 2:9 3:2 4:3 5:4 
-8 1:-8 2:9 3:2 4:3 5:5 
8 1:1 2:-9 4:2 5:1 
-8 1:1 2:-9 4:2 5:2 
-8 1:1 2:-9 4:2 5:3 
-8 1:1 2:-9 4:2 5:4 
-8 1:1 2:-9 4:2 5:5 
-8 1:-8 2:-5 3:4 5:1 
8 1:-8 2:-5 3:4 5:3 
8 1:-8 2:-5 3:4 5:4 
8 1:-8 2:-5 3:4 5:5 
8 1:9 2:6 3:-4 4:-2 5:1 
-8 1:9 2:6 3:-4 4:-2 5:2 
6.991474140284798 1:9 2:6 3:-4 4:-2 5:4 
8 1:9 2:6 3:-4 4:-2 5:5 
8 1:-5 2:-3 3:-2 4:2 5:2 
8 1:-5 2:-3 3:-2 4:2 5:3 
-8 1:-5 2:-3 3:-2 4:2 5:4 
-8 1:-5 2:-3 3:-2 4:2 5:5 
-8 1:8 2:-4 3:3 4:2 5:1 
-8 1:8 2:-4 3:3 4:2 5:2 
8 1:8 2:-4 3:3 4:2 5:3 
8 1:8 2:-4 3:3 4:2 5:4 
8 1:8 2:-4 3:3 4:2 5:5 
7.848921258844399 1:-2 2:-3 3:2 4:-3 5:1 
8 1:-2 2:-3 3:2 4:-3 5:2 
8 1:-10 2:9 3:-5 4:2 5:1 
-8 1:-10 2:9 3:-5 4:2 5:2 
-8 1:-10 2:9 3:-5 4:2 5:3 
-8 1:-10 2:9 3:-5 4:2 5:4 
-8 1:-10 2:9 3:-5 4:2 5:5 
8 1:8 2:9 3:-4 4:-2 5:1 
-8 1:8 2:9 3:-4 4:-2 5:2 
-8 1:8 2:9 3:-4 4:-2 5:3 
8 1:8 2:9 3:-4 4:-2 5:5 
8 2:-9 3:-4 4:2 5:1 
-8 2:-9 3:-4 4:2 5:3 
-8 2:-9 3:-4 4:2 5:4 
-8 2:-9 3:-4 4:2 5:5 
8 1:4 2:7 3:-4 4:-1 5:1 
8 1:4 2:7 3:-4 4:-1 5:2 
-8 1:4 2:7 3:-4 4:-1 5:4 
-8 1:4 2:7 3:-4 4:-1 5:5 
-8 1:-10 2:10 3:4 4:-2 5:1 
8 1:-10 2:10 3:4 4:-2 5:3 
8 1:-10 2:10 3:4 4:-2 5:4 
8 1:-10 2:10 3:4 4:-2 5:5 
8 1:-3 2:-5 4:-3 5:1 
8 1:-3 2:-5 4:-3 5:2 
-3.600573952247982 1:-3 2:-5 4:-3 5:4 
-8 1:-3 2:-5 4:-3 5:5 
8 1:-6 2:-7 3:1 4:-3 5:1 
8 1:-6 2:-7 3:1 4:-3 5:2 
8 1:-6 2:-7 3:1 4:-3 5:3 
-8 1:-6 2:-7 3:1 4:-3 5:4 
-8 1:-6 2:-7 3:1 4:-3 5:5 
8 1:-6 2:-4 3:-5 4:2 5:1 
8 1:-6 2:-4 3:-5 4:2 5:2 
-8 1:-6 2:-4 3:-5 4:2 5:3 
-8 1:-6 2:-4 3:-5 4:2 5:4 
-8 1:-6 2:-4 3:-5 4:2 5:5 
-8 1:-7 3:-1 4:-2 5:1 
-8 1:-7 3:-1 4:-2 5:3 
-8 1:-7 3:-1 4:-2 5:4 
-8 1:-7 3:-1 4:-2 5:5 
-8 1:2 2:4 3:-3 4:3 5:1 
-8 1:2 2:4 3:-3 4:3 5:2 
8 1:2 2:4 3:-3 4:3 5:3 
8 1:2 2:4 3:-3 4:3 5:4 
8 1:2 2:4 3:-3 4:3 5:5 
-6.920332710273367 1:-2 2:-8 3:5 4:-1 5:1 
1.351446239882488 1:-2 2:-8 3:5 4:-1 5:3 
8 1:-2 2:-8 3:5 4:-1 5:4 
3.845194643765395 2:-4 3:2 4:3 5:1 
4.079648571970603 2:-4 3:2 4:3 5:2 
4.568739989954786 2:-4 3:2 4:3 5:3 
-8 2:-4 3:2 4:3 5:5 
-0.4391921628334284 1:-8 2:1 3:2 4:1 5:1 
8 1:-8 2:1 3:2 4:1 5:2 
8 1:-8 2:1 3:2 4:1 5:3 
8 1:-8 2:1 3:2 4:1 5:4 
8 1:-8 2:1 3:2 4:1 5:5 
-4.681812746541258 2:5 4:2 5:3 
-8 2:5 4:2 5:4 
-8 2:5 4:2 5:5 
8 1:8 2:7 3:-3 5:1 
-8 1:8 2:7 3:-3 5:3 
-8 1:8 2:7 3:-3 5:4 
-8 1:8 2:7 3:-3 5:5 
8 1:-5 2:7 3:2 4:1 5:2 
8 1:-5 2:7 3:2 4:1 5:3 
8 1:-5 2:7 3:2 4:1 5:4 
8 1:-5 2:7 3:2 4:1 5:5 
8 1:-9 2:6 3:-3 4:3 5:1 
-8 1:-9 2:6 3:-3 4:3 5:2 
-8 1:-9 2:6 3:-3 4:3 5:3 
-8 1:-9 2:6 3:-3 4:3 5:4 
-8 1:-9 2:6 3:-3 4:3 5:5 
-8 1:6 2:8 3:2 4:2 5:1 
-8 1:6 2:8 3:2 4:2 5:2 
8 1:6 2:8 3:2 4:2 5:3 
8 1:6 2:8 3:2 4:2 5:4 
8 1:6 2:8 3:2 4:2 5:5 
8 1:-2 2:2 3:-1 4:-3 5:1 
8 1:-2 2:2 3:-1 4:-3 5:2 
-8 1:2 2:7 3:-5 4:3 5:1 
-8 1:2 2:7 3:-5 4:3 5:2 
8 1:2 2:7 3:-5 4:3 5:3 
8 1:2 2:7 3:-5 4:3 5:4 
8 1:2 2:7 3:-5 4:3 5:5 
-8 1:-4 2:3 3:-4 4:1 5:1 
8 1:-4 2:3 3:-4 4:1 5:2 
8 1:-4 2:3 3:-4 4:1 5:3 
8 1:-4 2:3 3:-4 4:1 5:4 
8 1:-4 2:3 3:-4 4:1 5:5 
8 1:9 2:7 3:-2 4:-2 5:1 
-8 1:9 2:7 3:-2 4:-2 5:2 
8 2:-9 3:-2 4:2 5:1 
-6.672979294424508 2:-9 3:-2 4:2 5:2 
-8 2:-9 3:-2 4:2 5:3 
-8 2:-9 3:-2 4:2 5:4 
-8 2:-9 3:-2 4:2 5:5 
-8 2:9 3:-4 5:3 
-8 2:9 3:-4 5:4 
8 1:-8 2:9 3:4 4:3 5:1 
-8 1:-8 2:9 3:4 4:3 5:2 
-8 1:-8 2:9 3:4 4:3 5:3 
-8 1:-8 2:9 3:4 4:3 5:4 
-8 1:-8 2:9 3:4 4:3 5:5 
8 1:6 2:5 3:-4 5:1 
-8 1:6 2:5 3:-4 5:3 
-8 1:6 2:5 3:-4 5:4 
-8 1:6 2:5 3:-4 5:5 
-8 1:-3 2:5 3:-4 5:1 
8 1:-3 2:5 3:-4 5:3 
8 1:-3 2:5 3:-4 5:4 
8 1:-3 2:5 3:-4 5:5 
-2.284786247559178 1:9 2:7 3:-5 5:2 
-8 1:9 2:7 3:-5 5:3 
-8 1:9 2:7 3:-5 5:4 
-8 1:9 2:7 3:-5 5:5 
-8 1:-10 2:3 3:-1 5:1 
8 1:-10 2:3 3:-1 5:3 
8 1:-10 2:3 3:-1 5:4 
8 1:-10 2:3 3:-1 5:5 
-8 1:2 2:10 3:-5 4:2 5:1 
-8 1:2 2:10 3:-5 4:2 5:2 
8 1:2 2:10 3:-5 4:2 5:3 
8 1:2 2:10 3:-5 4:2 5:4 
8 1:2 2:10 3:-5 4:2 5:5 
-8 1:9 2:4 3:5 4:3 5:1 
8 1:9 2:4 3:5 4:3 5:2 
8 1:9 2:4 3:5 4:3 5:3 
8 1:9 2:4 3:5 4:3 5:4 
8 1:9 2:4 3:5 4:3 5:5 
8 1:-7 2:-10 3:-5 4:-2 5:2 
-8 1:-7 2:-10 3:-5 4:-2 5:3 
-8 1:-7 2:-10 3:-5 4:-2 5:4 
-8 1:-7 2:-10 3:-5 4:-2 5:5 
-8 1:-7 2:-10 3:1 4:-1 5:1 
-8 1:-7 2:-10 3:1 4:-1 5:2 
8 1:-7 2:-10 3:1 4:-1 5:4 
8 1:-7 2:-10 3:1 4:-1 5:5 
8 1:3 2:-6 3:1 4:2 5:1 
-8 1:3 2:-6 3:1 4:2 5:2 
-8 1:3 2:-6 3:1 4:2 5:3 
-8 1:3 2:-6 3:1 4:2 5:4 
8 1:3 2:-6 3:1 4:2 5:5 
8 1:4 2:4 3:1 5:1 
8 1:4 2:4 3:1 5:2 
-8 1:4 2:4 3:1 5:3 
-8 1:4 2:4 3:1 5:4 
-8 1:4 2:4 3:1 5:5 
8 1:-10 2:-8 4:1 5:1 
8 1:-10 2:-8 4:1 5:2 
8 1:-10 2:-8 4:1 5:3 
8 1:-10 2:-8 4:1 5:4 
-8 1:-10 2:-8 4:1 5:5 
-8 1:-2 2:6 3:-1 4:1 5:1 
8 1:-2 2:6 3:-1 4:1 5:2 
8 1:-2 2:6 3:-1 4:1 5:3 
8 1:-2 2:6 3:-1 4:1 5:4 
8 1:-2 2:6 3:-1 4:1 5:5 
8 2:-8 3:2 4:3 5:1 
-8 2:-8 3:2 4:3 5:4 
-8 2:-8 3:2 4:3 5:5 
8 1:-4 2:10 3:-3 4:-3 5:2 
8 1:-4 2:10 3:-3 4:-3 5:3 
8 1:-4 2:10 3:-3 4:-3 5:5 
6.953759079858408 2:-5 3:-2 4:3 5:1 
-6.888718501415426 2:-5 3:-2 4:3 5:3 
-8 2:-5 3:-2 4:3 5:4 
-8 2:-5 3:-2 4:3 5:5 
-8 1:5 2:-5 3:5 4:3 5:1 
8 1:5 2:-5 3:5 4:3 5:2 
8 1:5 2:-5 3:5 4:3 5:3 
8 1:5 2:-5 3:5 4:3 5:4 
8 1:5 2:-5 3:5 4:3 5:5 
8 1:-8 2:-8 3:1 4:3 5:1 
-8 1:-8 2:-8 3:1 4:3 5:2 
-8 1:-8 2:-8 3:1 4:3 5:3 
-8 1:-8 2:-8 3:1 4:3 5:4 
-8 1:-8 2:-8 3:1 4:3 5:5 
-8 1:2 2:-4 3:3 4:-3 5:1 
-8 1:2 2:-4 3:3 4:-3 5:2 
-8 1:5 3:3 4:3 5:1 
-8 1:5 3:3 4:3 5:2 
8 1:5 3:3 4:3 5:3 
8 1:5 3:3 4:3 5:4 
8 1:5 3:3 4:3 5:5 
-8 1:-6 2:-10 3:-4 5:1 
-8 1:-6 2:-10 3:-4 5:2 
8 1:-6 2:-10 3:-4 5:3 
8 1:-6 2:-10 3:-4 5:4 
-8 1:-5 3:-4 5:1 
-8 1:-5 3:-4 5:2 
8 1:-5 3:-4 5:3 
8 1:-5 3:-4 5:4 
8 1:-5 3:-4 5:5 
-8 1:9 2:9 3:4 4:3 5:1 
8 1:9 2:9 3:4 4:3 5:2 
8 1:9 2:9 3:4 4:3 5:3 
8 1:9 2:9 3:4 4:3 5:4 
8 1:9 2:9 3:4 4:3 5:5 
8 1:3 2:-1 3:1 5:1 
8 1:3 2:-1 3:1 5:2 
-8 1:3 2:-1 3:1 5:3 
-8 1:3 2:-1 3:1 5:4 
-8 1:3 2:-1 3:1 5:5 
-8 1:-9 3:-1 4:-1 5:1 
-8 1:-9 3:-1 4:-1 5:2 
3.756144879359945 1:-9 3:-1 4:-1 5:3 
8 1:-9 3:-1 4:-1 5:4 
8 1:-9 3:-1 4:-1 5:5 
8 1:2 2:5 3:3 5:1 
8 1:2 2:5 3:3 5:2 
-8 1:2 2:5 3:3 5:3 
-8 1:2 2:5 3:3 5:4 
-8 1:2 2:5 3:3 5:5 
-8 1:3 2:3 3:4 4:3 5:1 
1.265791479254115 1:3 2:3 3:4 4:3 5:2 
8 1:3 2:3 3:4 4:3 5:3 
8 1:3 2:3 3:4 4:3 5:4 
8 1:3 2:3 3:4 4:3 5:5 
8 1:6 2:4 3:-2 4:-1 5:1 
8 1:6 2:4 3:-2 4:-1 5:2 
8 1:6 2:4 3:-2 4:-1 5:3 
-8 1:6 2:4 3:-2 4:-1 5:4 
-8 1:6 2:4 3:-2 4:-1 5:5 
8 1:-2 3:-5 4:3 5:1 
-5.260738512267887 1:-2 3:-5 4:3 5:2 
-8 1:-2 3:-5 4:3 5:3 
-8 1:-2 3:-5 4:3 5:4 
-8 1:-2 3:-5 4:3 5:5 
8 1:2 2:1 3:-2 4:-2 5:3 
8 1:2 2:1 3:-2 4:-2 5:4 
-8 1:4 2:9 3:-5 4:-3 5:2 
8 1:4 2:9 3:-5 4:-3 5:4 
8 1:4 2:9 3:-5 4:-3 5:5 
-8 1:5 2:-10 3:-1 4:3 5:1 
-4.131715106948606 1:5 2:-10 3:-1 4:3 5:2 
8 1:5 2:-10 3:-1 4:3 5:3 
8 1:5 2:-10 3:-1 4:3 5:4 
8 1:5 2:-10 3:-1 4:3 5:5 
8 1:-2 2:5 3:-3 4:2 5:2 
8 1:-2 2:5 3:-3 4:2 5:3 
-8 1:-2 2:5 3:-3 4:2 5:4 
-8 1:-2 2:5 3:-3 4:2 5:5 
-8 1:-2 2:8 5:1 
8 1:-2 2:8 5:3 
8 1:-2 2:8 5:4 
8 1:-2 2:8 5:5 
8 1:3 2:-6 3:-2 4:2 5:1 
-8 1:3 2:-6 3:-2 4:2 5:2 
-8 1:3 2:-6 3:-2 4:2 5:3 
8 1:3 2:-6 3:-2 4:2 5:4 
8 1:3 2:-6 3:-2 4:2 5:5 
8 1:-10 2:6 3:-2 4:3 5:1 
-8 1:-10 2:6 3:-2 4:3 5:2 
-8 1:-10 2:6 3:-2 4:3 5:3 
-8 1:-10 2:6 3:-2 4:3 5:4 
-8 1:-10 2:6 3:-2 4:3 5:5 
-8 1:2 2:-5 3:5 4:-2 5:2 
8 1:2 2:-5 3:5 4:-2 5:3 
8 1:2 2:-5 3:5 4:-2 5:4 
8 1:2 2:-5 3:5 4:-2 5:5 
-2.508231267089021 1:2 2:-1 3:3 4:-3 5:1 
-8 1:2 2:-1 3:3 4:-3 5:2 
8 1:2 2:-1 3:3 4:-3 5:4 
3.969672546207314 1:2 2:-1 3:3 4:-3 5:5 
-8 1:-5 2:3 3:2 5:1 
-8 1:-5 2:3 3:2 5:2 
8 1:-5 2:3 3:2 5:4 
8 1:-5 2:3 3:2 5:5 
8 1:7 2:-10 3:1 4:1 5:1 
-8 1:7 2:-10 3:1 4:1 5:2 
-8 1:7 2:-10 3:1 4:1 5:3 
-8 1:7 2:-10 3:1 4:1 5:4 
-8 1:7 2:-10 3:1 4:1 5:5 
-8 1:1 2:8 3:2 4:3 5:1 
-5.73831991858283 1:1 2:8 3:2 4:3 5:2 
8 1:1 2:8 3:2 4:3 5:3 
8 1:1 2:8 3:2 4:3 5:4 
8 1:1 2:8 3:2 4:3 5:5 
8 1:-6 2:-1 3:-1 4:3 5:1 
8 1:-6 2:-1 3:-1 4:3 5:2 
-8 1:-6 2:-1 3:-1 4:3 5:3 
-8 1:-6 2:-1 3:-1 4:3 5:4 
-8 1:-6 2:-1 3:-1 4:3 5:5 
0.9396897272111233 1:-3 2:4 3:-5 4:2 5:1 
8 1:-3 2:4 3:-5 4:2 5:2 
-8 1:-3 2:4 3:-5 4:2 5:3 
-8 1:-3 2:4 3:-5 4:2 5:4 
-8 1:-3 2:4 3:-5 4:2 5:5 
-8 1:-1 2:-10 4:-2 5:5 
2.996954781762634 2:-1 3:-5 4:-1 5:4 
8 1:-1 2:3 3:3 4:-2 5:2 
-8 1:-1 2:3 3:3 4:-2 5:4 
-5.519801540709132 1:-1 2:3 3:3 4:-2 5:5 
-8 1:-3 2:6 5:1 
-5.376233756763004 1:-3 2:6 5:2 
8 1:-3 2:6 5:3 
8 1:-3 2:6 5:4 
8 1:-3 2:6 5:5 
-8 1:-5 2:2 3:-3 4:1 5:1 
8 1:-5 2:2 3:-3 4:1 5:2 
8 1:-5 2:2 3:-3 4:1 5:3 
8 1:-5 2:2 3:-3 4:1 5:4 
8 1:-5 2:2 3:-3 4:1 5:5 
-8 1:6 2:-8 3:-4 4:2 5:1 
-8 1:6 2:-8 3:-4 4:2 5:2 
8 1:6 2:-8 3:-4 4:2 5:3 
8 1:6 2:-8 3:-4 4:2 5:4 
8 1:6 2:-8 3:-4 4:2 5:5 
-8 1:-2 2:-3 3:1 4:1 5:1 
4.918535341989718 1:-2 2:-3 3:1 4:1 5:2 
8 1:-2 2:-3 3:1 4:1 5:3 
8 1:-2 2:-3 3:1 4:1 5:4 
8 1:-2 2:-3 3:1 4:1 5:5 
-8 1:7 2:-9 3:5 4:2 5:1 
-8 1:7 2:-9 3:5 4:2 5:2 
8 1:7 2:-9 3:5 4:2 5:3 
8 1:7 2:-9 3:5 4:2 5:4 
8 1:7 2:-9 3:5 4:2 5:5 
3.673624886310739 1:-4 2:-1 3:-5 4:-2 5:2 
-8 1:-4 2:-1 3:-5 4:-2 5:4 
-2.59682480706996 1:-4 2:-1 3:-5 4:-2 5:5 
-8 1:4 2:-2 3:4 4:3 5:1 
8 1:4 2:-2 3:4 4:3 5:3 
8 1:4 2:-2 3:4 4:3 5:4 
8 1:4 2:-2 3:4 4:3 5:5 
-8 1:7 2:-5 3:-1 4:3 5:1 
6.037850690037689 1:7 2:-5 3:-1 4:3 5:2 
8 1:7 2:-5 3:-1 4:3 5:3 
8 1:7 2:-5 3:-1 4:3 5:4 
8 1:7 2:-5 3:-1 4:3 5:5 
-8 1:-7 2:2 3:5 4:-1 5:1 
-8 1:-7 2:2 3:5 4:-1 5:3 
-6.9327276438761 1:-7 2:2 3:5 4:-1 5:4 
8 1:-7 2:2 3:5 4:-1 5:5 
-8 1:2 2:-5 3:-4 4:3 5:1 
8 1:2 2:-5 3:-4 4:3 5:3 
8 1:2 2:-5 3:-4 4:3 5:4 
8 1:2 2:-5 3:-4 4:3 5:5 
8 1:-4 2:6 3:-2 4:2 5:1 
8 1:-4 2:6 3:-2 4:2 5:2 
-5.341815801624564 1:-4 2:6 3:-2 4:2 5:3 
-8 1:-4 2:6 3:-2 4:2 5:4 
-8 1:-4 2:6 3:-2 4:2 5:5 
-8 1:-6 2:10 3:-3 5:1 
-8 1:-6 2:10 3:-3 5:2 
8 1:-6 2:10 3:-3 5:4 
8 1:-6 2:10 3:-3 5:5 
-8 1:9 2:5 3:4 4:2 5:1 
-8 1:9 2:5 3:4 4:2 5:2 
8 1:9 2:5 3:4 4:2 5:3 
8 1:9 2:5 3:4 4:2 5:4 
8 1:9 2:5 3:4 4:2 5:5 
-8 1:4 2:4 3:-1 4:3 5:1 
-8 1:4 2:4 3:-1 4:3 5:2 
8 1:4 2:4 3:-1 4:3 5:3 
8 1:4 2:4 3:-1 4:3 5:4 
8 1:4 2:4 3:-1 4:3 5:5 
-8 1:-9 2:-4 3:2 4:-1 5:1 
-8 1:-9 2:-4 3:2 4:-1 5:2 
-8 1:-9 2:-4 3:2 4:-1 5:3 
8 1:-9 2:-4 3:2 4:-1 5:4 
8 1:-9 2:-4 3:2 4:-1 5:5 
-8 1:1 2:2 3:-5 4:3 5:1 
8 1:1 2:2 3:-5 4:3 5:3 
8 1:1 2:2 3:-5 4:3 5:4 
8 1:1 2:2 3:-5 4:3 5:5 
-8 1:-5 2:-6 3:-3 5:1 
-8 1:-5 2:-6 3:-3 5:2 
8 1:-5 2:-6 3:-3 5:3 
8 1:-5 2:-6 3:-3 5:4 
8 1:-5 2:-6 3:-3 5:5 
8 1:5 2:6 3:4 4:1 5:1 
-8 1:5 2:6 3:4 4:1 5:2 
-8 1:5 2:6 3:4 4:1 5:3 
-8 1:5 2:6 3:4 4:1 5:4 
-8 1:5 2:6 3:4 4:1 5:5 
8 1:-7 2:1 3:4 4:2 5:1 
8 1:-7 2:1 3:4 4:2 5:2 
-8 1:-7 2:1 3:4 4:2 5:3 
-8 1:-7 2:1 3:4 4:2 5:4 
-8 1:-7 2:1 3:4 4:2 5:5 
8 1:-7 3:-1 4:3 5:1 
-2.640783263883602 1:-7 3:-1 4:3 5:2 
-8 1:-7 3:-1 4:3 5:3 
-8 1:-7 3:-1 4:3 5:4 
-8 1:-7 3:-1 4:3 5:5 
8 1:-10 2:-9 3:2 4:2 5:1 
-8 1:-10 2:-9 3:2 4:2 5:2 
-8 1:-10 2:-9 3:2 4:2 5:3 
-8 1:-10 2:-9 3:2 4:2 5:4 
-8 1:-10 2:-9 3:2 4:2 5:5 
-8 1:9 2:6 3:4 4:1 5:1 
-8 1:9 2:6 3:4 4:1 5:2 
-8 1:9 2:6 3:4 4:1 5:3 
-8 1:9 2:6 3:4 4:1 5:4 
-5.24147895013413 1:-8 2:-2 4:-2 5:1 
8 1:-8 2:-2 4:-2 5:2 
-8 1:-8 2:-2 4:-2 5:3 
-8 1:-8 2:-2 4:-2 5:4 
-8 1:-8 2:-2 4:-2 5:5 
-8 2:-4 3:-5 4:3 5:4 
-8 2:-4 3:-5 4:3 5:5 
-8 1:-6 2:8 3:4 5:1 
8 1:-6 2:8 3:4 5:2 
8 1:-6 2:8 3:4 5:3 
8 1:-6 2:8 3:4 5:4 
8 1:-6 2:8 3:4 5:5 
-2.425307799672022 1:10 2:-4 4:1 5:1 
-8 1:10 2:-4 4:1 5:2 
-8 1:10 2:-4 4:1 5:3 
-8 1:10 2:-4 4:1 5:4 
-8 1:10 2:-4 4:1 5:5 
-8 1:9 2:3 3:-4 4:1 5:1 
-8 1:9 2:3 3:-4 4:1 5:2 
-8 1:9 2:3 3:-4 4:1 5:3 
-3.092811037194442 1:9 2:3 3:-4 4:1 5:4 
8 1:9 2:3 3:-4 4:1 5:5 
-8 1:-7 3:-2 5:1 
-1.515821202958813 1:-7 3:-2 5:2 
8 1:-7 3:-2 5:3 
8 1:-7 3:-2 5:4 
8 1:-7 3:-2 5:5 
8 1:7 2:-9 3:-3 4:-2 5:1 
8 1:7 2:-9 3:-3 4:-2 5:3 
8 1:7 2:-9 3:-3 4:-2 5:4 
5.624474465851151 1:7 2:-9 3:-3 4:-2 5:5 
-8 1:1 2:8 3:-4 4:2 5:1 
-8 1:1 2:8 3:-4 4:2 5:2 
-8 1:1 2:8 3:-4 4:2 5:3 
8 1:1 2:8 3:-4 4:2 5:4 
8 1:1 2:8 3:-4 4:2 5:5 
-8 1:-9 2:-8 3:3 4:-1 5:1 
8 1:-9 2:-8 3:3 4:-1 5:2 
8 1:-9 2:-8 3:3 4:-1 5:3 
8 1:-9 2:-8 3:3 4:-1 5:4 
8 1:-9 2:-8 3:3 4:-1 5:5 
-8 1:-1 2:-1 3:-2 5:1 
-8 1:-1 2:-1 3:-2 5:2 
7.102344431483084 1:-1 2:-1 3:-2 5:3 
8 1:-1 2:-1 3:-2 5:4 
8 1:-1 2:-1 3:-2 5:5 
-8 1:-4 2:1 3:-5 4:-1 5:1 
-8 1:-4 2:1 3:-5 4:-1 5:2 
8 1:-4 2:1 3:-5 4:-1 5:4 
8 1:-4 2:1 3:-5 4:-1 5:5 
3.159850426943866 1:-1 2:-10 3:-5 5:1 
-8 1:-1 2:-10 3:-5 5:4 
-8 1:-1 2:-10 3:-5 5:5 
-8 1:-3 2:-10 3:-2 4:1 5:1 
8 1:-3 2:-10 3:-2 4:1 5:3 
8 1:-3 2:-10 3:-2 4:1 5:4 
8 1:-3 2:-10 3:-2 4:1 5:5 
8 1:3 2:-2 3:4 4:-1 5:1 
8 1:3 2:-2 3:4 4:-1 5:2 
8 1:3 2:-2 3:4 4:-1 5:3 
-8 1:3 2:-2 3:4 4:-1 5:5 
8 1:1 2:7 4:-2 5:2 
8 1:1 2:7 4:-2 5:3 
8 1:1 2:7 4:-2 5:5 
-8 1:3 2:-6 3:4 4:3 5:1 
-8 1:3 2:-6 3:4 4:3 5:2 
8 1:3 2:-6 3:4 4:3 5:3 
8 1:3 2:-6 3:4 4:3 5:4 
8 1:3 2:-6 3:4 4:3 5:5 
8 1:-2 2:9 3:-1 4:2 5:1 
8 1:-2 2:9 3:-1 4:2 5:2 
-8 1:-2 2:9 3:-1 4:2 5:3 
-8 1:-2 2:9 3:-1 4:2 5:4 
-8 1:-2 2:9 3:-1 4:2 5:5 
-8 1:3 2:-8 3:5 4:-3 5:2 
8 1:3 2:-8 3:5 4:-3 5:4 
-8 1:3 2:-8 3:5 4:-3 5:5 
8 1:4 2:-7 3:3 4:-1 5:1 
8 1:4 2:-7 3:3 4:-1 5:2 
8 1:4 2:-7 3:3 4:-1 5:3 
-8 1:4 2:-7 3:3 4:-1 5:4 
-8 1:4 2:-7 3:3 4:-1 5:5 
3.267202251421749 1:6 2:3 3:-4 4:-2 5:1 
8 1:6 2:3 3:-4 4:-2 5:3 
8 1:6 2:3 3:-4 4:-2 5:4 
8 1:6 2:3 3:-4 4:-2 5:5 
4.389476525073956 1:-4 2:1 3:1 4:-3 5:1 
8 1:-4 2:1 3:1 4:-3 5:2 
8 1:-7 3:1 4:2 5:1 
8 1:-7 3:1 4:2 5:2 
-8 1:-7 3:1 4:2 5:3 
-8 1:-7 3:1 4:2 5:4 
-8 1:-7 3:1 4:2 5:5 
-8 1:5 2:4 3:2 4:3 5:1 
-8 1:5 2:4 3:2 4:3 5:2 
8 1:5 2:4 3:2 4:3 5:3 
8 1:5 2:4 3:2 4:3 5:4 
8 1:5 2:4 3:2 4:3 5:5 
8 1:1 2:-4 3:-1 4:2 5:1 
-8 1:1 2:-4 3:-1 4:2 5:3 
-8 1:1 2:-4 3:-1 4:2 5:4 
8 1:1 2:-4 3:-1 4:2 5:5 
-8 1:10 2:-7 3:-4 4:2 5:1 
8 1:10 2:-7 3:-4 4:2 5:2 
8 1:10 2:-7 3:-4 4:2 5:3 
8 1:10 2:-7 3:-4 4:2 5:4 
8 1:10 2:-7 3:-4 4:2 5:5 
4.374232573205878 1:-4 2:1 3:2 4:-3 5:1 
8 1:-4 2:1 3:2 4:-3 5:2 
-1.06406534271496 1:-4 2:1 3:2 4:-3 5:4 
-8 2:-7 3:5 5:5 
8 1:4 2:6 3:5 5:1 
8 1:4 2:6 3:5 5:2 
-8 1:4 2:6 3:5 5:3 
-8 1:4 2:6 3:5 5:4 
-8 1:4 2:6 3:5 5:5 
8 1:-5 2:-2 3:1 4:-2 5:1 
-8 1:-5 2:-2 3:1 4:-2 5:3 
-8 1:-5 2:-2 3:1 4:-2 5:4 
-8 1:-5 2:-2 3:1 4:-2 5:5 
-8 1:8 2:-8 3:1 4:2 5:1 
-8 1:8 2:-8 3:1 4:2 5:2 
8 1:8 2:-8 3:1 4:2 5:3 
8 1:8 2:-8 3:1 4:2 5:4 
8 1:8 2:-8 3:1 4:2 5:5 
-8 1:6 3:2 4:3 5:1 
-8 1:6 3:2 4:3 5:2 
8 1:6 3:2 4:3 5:3 
8 1:6 3:2 4:3 5:4 
8 1:6 3:2 4:3 5:5 
-8 1:2 2:-3 3:-5 4:-1 5:5 
-8 1:8 2:-9 4:3 5:1 
8 1:8 2:-9 4:3 5:2 
8 1:8 2:-9 4:3 5:3 
8 1:8 2:-9 4:3 5:4 
8 1:8 2:-9 4:3 5:5 
8 1:1 2:1 3:-2 4:-1 5:1 
-8 1:1 2:1 3:-2 4:-1 5:4 
-8 1:1 2:1 3:-2 4:-1 5:5 
-8 1:-7 2:4 3:-1 4:-1 5:1 
-8 1:-7 2:4 3:-1 4:-1 5:2 
-8 1:-7 2:4 3:-1 4:-1 5:3 
8 1:-7 2:4 3:-1 4:-1 5:5 
-8 1:9 2:-6 3:5 4:2 5:1 
-8 1:9 2:-6 3:5 4:2 5:2 
8 1:9 2:-6 3:5 4:2 5:3 
8 1:9 2:-6 3:5 4:2 5:4 
8 1:9 2:-6 3:5 4:2 5:5 
-8 1:7 2:10 3:3 4:2 5:1 
0.3025218934054258 1:7 2:10 3:3 4:2 5:2 
8 1:7 2:10 3:3 4:2 5:3 
8 1:7 2:10 3:3 4:2 5:4 
8 1:7 2:10 3:3 4:2 5:5 
8 1:9 2:3 3:4 4:-3 5:1 
-8 1:9 2:3 3:4 4:-3 5:2 
-8 1:9 2:3 3:4 4:-3 5:3 
8 1:9 2:3 3:4 4:-3 5:4 
8 1:9 2:3 3:4 4:-3 5:5 
-8 1:5 2:3 3:-1 4:-3 5:1 
-8 1:5 2:3 3:-1 4:-3 5:2 
-3.802505858903278 1:5 2:3 3:-1 4:-3 5:3 
-8 1:-7 2:6 3:-4 4:-1 5:1 
-8 1:-7 2:6 3:-4 4:-1 5:2 
-8 1:-7 2:6 3:-4 4:-1 5:3 
-7.884925690632492 1:-7 2:6 3:-4 4:-1 5:4 
8 1:-7 2:6 3:-4 4:-1 5:5 
-8 1:-8 2:9 3:2 4:-2 5:1 
-8 1:-8 2:9 3:2 4:-2 5:3 
-8 1:-8 2:9 3:2 4:-2 5:4 
-8 1:-8 2:9 3:2 4:-2 5:5 
4.543097073078802 1:-6 2:6 3:5 4:-3 5:1 
8 1:-6 2:6 3:5 4:-3 5:2 
6.718390709196896 1:-6 2:6 3:5 4:-3 5:3 
-8 1:-6 2:6 3:5 4:-3 5:4 
1.468001043509879 1:-6 2:6 3:5 4:-3 5:5 
-8 1:-10 2:-3 4:-1 5:1 
-8 1:-10 2:-3 4:-1 5:2 
-8 1:-10 2:-3 4:-1 5:3 
8 1:-10 2:-3 4:-1 5:5 
-8 1:-3 2:-4 3:5 4:1 5:1 
-8 1:-3 2:-4 3:5 4:1 5:2 
5.233432488881556 1:-3 2:-4 3:5 4:1 5:3 
8 1:-3 2:-4 3:5 4:1 5:4 
8 1:-3 2:-4 3:5 4:1 5:5 
8 1:-4 2:-3 3:2 4:-2 5:1 
8 1:-4 2:-3 3:2 4:-2 5:2 
-8 1:-4 2:-3 3:2 4:-2 5:3 
-8 1:-4 2:-3 3:2 4:-2 5:4 
-8 1:-4 2:-3 3:2 4:-2 5:5 
-8 1:-6 2:-4 3:1 4:-1 5:1 
-8 1:-6 2:-4 3:1 4:-1 5:2 
-8 1:-6 2:-4 3:1 4:-1 5:3 
8 1:-6 2:-4 3:1 4:-1 5:5 
6.871668469850713 1:8 3:4 4:1 5:1 
-8 1:8 3:4 4:1 5:2 
-8 1:8 3:4 4:1 5:3 
-8 1:8 3:4 4:1 5:4 
-8 1:8 3:4 4:1 5:5 
-8 1:7 2:9 3:3 4:2 5:1 
-8 1:7 2:9 3:3 4:2 5:2 
8 1:7 2:9 3:3 4:2 5:3 
8 1:7 2:9 3:3 4:2 5:4 
8 1:7 2:9 3:3 4:2 5:5 
6.149329493190706 1:10 2:9 3:-4 4:-3 5:1 
-8 1:10 2:9 3:-4 4:-3 5:2 
-8 1:10 2:9 3:-4 4:-3 5:3 
8 1:10 2:9 3:-4 4:-3 5:4 
8 1:10 2:9 3:-4 4:-3 5:5 
-8 1:-4 2:-2 3:-3 5:1 
-8 1:-4 2:-2 3:-3 5:2 
8 1:-4 2:-2 3:-3 5:3 
8 1:-4 2:-2 3:-3 5:4 
8 1:-4 2:-2 3:-3 5:5 
-8 1:10 2:-7 3:-5 4:1 5:1 
8 1:10 2:-7 3:-5 4:1 5:3 
8 1:10 2:-7 3:-5 4:1 5:4 
8 1:10 2:-7 3:-5 4:1 5:5 
8 1:-2 2:-8 3:-5 4:-3 5:1 
8 1:-2 2:-8 3:-5 4:-3 5:2 
-8 1:-2 2:-8 3:-5 4:-3 5:4 
-8 1:-2 2:-8 3:-5 4:-3 5:5 
8 1:-9 2:-3 3:4 4:3 5:1 
-8 1:-9 2:-3 3:4 4:3 5:2 
-8 1:-9 2:-3 3:4 4:3 5:3 
-8 1:-9 2:-3 3:4 4:3 5:4 
-8 1:-9 2:-3 3:4 4:3 5:5 
-8 1:-9 2:-5 3:4 4:-2 5:1 
7.24808823349779 1:-9 2:-5 3:4 4:-2 5:2 
-8 1:-9 2:-5 3:4 4:-2 5:3 
-8 1:-9 2:-5 3:4 4:-2 5:4 
-8 1:-9 2:-5 3:4 4:-2 5:5 
-8 1:9 2:-7 3:-1 4:-3 5:1 
-8 1:9 2:-7 3:-1 4:-3 5:2 
-8 1:9 2:-7 3:-1 4:-3 5:3 
8 1:9 2:-7 3:-1 4:-3 5:4 
8 1:9 2:-7 3:-1 4:-3 5:5 
8 1:9 2:-4 3:1 4:-1 5:1 
8 1:9 2:-4 3:1 4:-1 5:2 
8 1:9 2:-4 3:1 4:-1 5:3 
-7.863284054560509 1:9 2:-4 3:1 4:-1 5:4 
-8 1:9 2:-4 3:1 4:-1 5:5 
8 1:9 2:4 3:-3 5:1 
-8 1:9 2:4 3:-3 5:3 
-8 1:9 2:4 3:-3 5:4 
-8 1:9 2:4 3:-3 5:5 
1.71884876389139 1:8 2:-6 3:4 4:-3 5:1 
-8 1:8 2:-6 3:4 4:-3 5:2 
8 1:8 2:-6 3:4 4:-3 5:3 
8 1:8 2:-6 3:4 4:-3 5:4 
8 1:8 2:-6 3:4 4:-3 5:5 
8 1:2 2:-5 3:5 5:1 
-8 1:2 2:-5 3:5 5:3 
-8 1:2 2:-5 3:5 5:4 
-8 1:2 2:-5 3:5 5:5 
4.723870470564139 2:5 3:-1 5:2 
8 1:1 2:3 3:-1 4:-1 5:2 
-8 1:1 2:3 3:-1 4:-1 5:4 
-8 1:1 2:3 3:-1 4:-1 5:5 
8 1:-9 2:-7 3:-5 4:1 5:1 
8 1:-9 2:-7 3:-5 4:1 5:2 
8 1:-9 2:-7 3:-5 4:1 5:3 
-6.154254580079345 1:-9 2:-7 3:-5 4:1 5:4 
-8 1:-9 2:-7 3:-5 4:1 5:5 
8 1:-3 2:-7 3:-5 4:2 5:1 
8 1:-3 2:-7 3:-5 4:2 5:2 
-8 1:-3 2:-7 3:-5 4:2 5:3 
-8 1:-3 2:-7 3:-5 4:2 5:4 
-8 1:-3 2:-7 3:-5 4:2 5:5 
8 1:2 2:7 3:-4 4:-1 5:1 
8 1:2 2:7 3:-4 4:-1 5:2 
-8 1:2 2:7 3:-4 4:-1 5:4 
-8 1:2 2:7 3:-4 4:-1 5:5 
8 1:-6 2:7 3:4 4:-3 5:1 
8 1:-6 2:7 3:4 4:-3 5:2 
-8 1:-6 2:7 3:4 4:-3 5:4 
-8 1:-6 2:7 3:4 4:-3 5:5 
8 1:-7 2:-5 3:-5 4:3 5:1 
-8 1:-7 2:-5 3:-5 4:3 5:2 
-8 1:-7 2:-5 3:-5 4:3 5:3 
-8 1:-7 2:-5 3:-5 4:3 5:4 
-8 1:-7 2:-5 3:-5 4:3 5:5 
8 2:-9 3:-2 4:-3 5:1 
8 2:-9 3:-2 4:-3 5:4 
-8 2:-9 3:-2 4:-3 5:5 
-8 1:6 2:2 3:5 4:2 5:1 
-8 1:6 2:2 3:5 4:2 5:2 
8 1:6 2:2 3:5 4:2 5:3 
8 1:6 2:2 3:5 4:2 5:4 
8 1:6 2:2 3:5 4:2 5:5 
-8 1:4 2:-10 3:-1 4:3 5:1 
-8 1:4 2:-10 3:-1 4:3 5:2 
8 1:4 2:-10 3:-1 4:3 5:3 
8 1:4 2:-10 3:-1 4:3 5:4 
8 1:4 2:-10 3:-1 4:3 5:5 
-2.833731170928567 1:-9 2:-10 3:-3 4:-3 5:1 
8 1:-9 2:-10 3:-3 4:-3 5:2 
-8 1:-9 2:-10 3:-3 4:-3 5:4 
-8 1:-9 2:-10 3:-3 4:-3 5:5 
-8 2:3 3:3 5:4 
-8 2:3 3:3 5:5 
8 1:-1 2:9 3:5 4:2 5:1 
8 1:-1 2:9 3:5 4:2 5:2 
-8 1:-1 2:9 3:5 4:2 5:4 
-8 1:-1 2:9 3:5 4:2 5:5 
8 1:1 2:2 3:1 4:2 5:1 
-8 1:1 2:2 3:1 4:2 5:2 
-8 1:1 2:2 3:1 4:2 5:3 
-8 1:1 2:2 3:1 4:2 5:4 
8 1:1 2:2 3:1 4:2 5:5 
8 1:-7 2:-7 3:-1 4:-3 5:1 
8 1:-7 2:-7 3:-1 4:-3 5:2 
8 1:-7 2:-7 3:-1 4:-3 5:3 
-8 1:-7 2:-7 3:-1 4:-3 5:5 
-8 1:-3 2:-10 3:4 4:-1 5:1 
-8 1:-3 2:-10 3:4 4:-1 5:2 
8 1:-3 2:-10 3:4 4:-1 5:4 
-8 1:6 2:4 3:-5 4:-3 5:1 
-8 1:6 2:4 3:-5 4:-3 5:2 
-8 1:6 2:4 3:-5 4:-3 5:3 
4.853499831441418 1:6 2:4 3:-5 4:-3 5:4 
8 1:6 2:4 3:-5 4:-3 5:5 
8 1:10 2:9 3:4 4:-2 5:1 
-8 1:10 2:9 3:4 4:-2 5:2 
8 1:10 2:9 3:4 4:-2 5:3 
8 1:10 2:9 3:4 4:-2 5:4 
8 1:10 2:9 3:4 4:-2 5:5 
-8 1:-2 2:10 3:-4 4:-3 5:1 
8 1:-2 2:10 3:-4 4:-3 5:2 
2.613525850711704 1:-2 2:10 3:-4 4:-3 5:4 
8 1:-2 2:10 3:-4 4:-3 5:5 
-8 1:9 2:6 3:-5 4:2 5:1 
8 1:9 2:6 3:-5 4:2 5:2 
8 1:9 2:6 3:-5 4:2 5:3 
8 1:9 2:6 3:-5 4:2 5:4 
8 1:9 2:6 3:-5 4:2 5:5 
-8 1:-9 2:-6 3:4 4:-1 5:1 
-5.348445479318727 1:-9 2:-6 3:4 4:-1 5:2 
8 1:-9 2:-6 3:4 4:-1 5:3 
8 1:-9 2:-6 3:4 4:-1 5:4 
8 1:-9 2:-6 3:4 4:-1 5:5 
8 1:2 2:-4 3:-5 5:1 
-8 1:2 2:-4 3:-5 5:3 
-8 1:2 2:-4 3:-5 5:4 
-8 1:2 2:-4 3:-5 5:5 
8 1:-2 2:3 3:-5 4:2 5:2 
-8 1:-2 2:3 3:-5 4:2 5:3 
-8 1:-2 2:3 3:-5 4:2 5:4 
-8 1:-2 2:3 3:-5 4:2 5:5 
0.3345485707014806 1:3 2:5 3:5 4:-1 5:1 
8 1:3 2:5 3:5 4:-1 5:2 
-8 1:4 2:-6 3:-3 4:-3 5:1 
-8 1:4 2:-6 3:-3 4:-3 5:2 
6.358325530563267 1:4 2:-6 3:-3 4:-3 5:4 
-0.7487382648925497 1:4 2:-6 3:-3 4:-3 5:5 
8 1:9 2:-1 4:-1 5:1 
8 1:9 2:-1 4:-1 5:2 
-2.655945437045723 1:9 2:-1 4:-1 5:3 
-8 1:9 2:-1 4:-1 5:4 
-8 1:9 2:-1 4:-1 5:5 
8 1:6 3:5 4:-2 5:1 
8 1:6 3:5 4:-2 5:3 
8 1:6 3:5 4:-2 5:4 
-2.476552716815284 1:6 3:5 4:-2 5:5 
8 2:-10 3:4 4:3 5:1 
-8 2:-10 3:4 4:3 5:3 
-8 2:-10 3:4 4:3 5:4 
-8 2:-10 3:4 4:3 5:5 
8 1:-4 2:-1 3:1 4:3 5:1 
8 1:-4 2:-1 3:1 4:3 5:2 
-8 1:-4 2:-1 3:1 4:3 5:3 
-8 1:-4 2:-1 3:1 4:3 5:4 
-8 1:-4 2:-1 3:1 4:3 5:5 
-8 1:-9 2:-7 3:-3 4:-2 5:1 
-7.628638740186609 1:-9 2:-7 3:-3 4:-2 5:3 
-8 1:-9 2:-7 3:-3 4:-2 5:4 
-8 1:-9 2:-7 3:-3 4:-2 5:5 
-8 2:3 3:-1 4:1 5:3 
-8 2:3 3:-1 4:1 5:4 
-8 2:3 3:-1 4:1 5:5 
-8 1:10 2:-10 3:-5 4:1 5:1 
-1.254254518138325 1:10 2:-10 3:-5 4:1 5:2 
-0.9931581228051137 1:10 2:-10 3:-5 4:1 5:4 
-8 1:10 2:-10 3:-5 4:1 5:5 
-8 1:9 2:-10 3:4 4:2 5:1 
-8 1:9 2:-10 3:4 4:2 5:2 
8 1:9 2:-10 3:4 4:2 5:3 
8 1:9 2:-10 3:4 4:2 5:4 
8 1:9 2:-10 3:4 4:2 5:5 
8 1:-7 2:10 4:3 5:1 
-8 1:-7 2:10 4:3 5:2 
-8 1:-7 2:10 4:3 5:3 
-8 1:-7 2:10 4:3 5:4 
-8 1:-7 2:10 4:3 5:5 
8 1:-7 2:-7 3:5 4:-3 5:2 
8 1:-7 2:-7 3:5 4:-3 5:3 
-4.012409042884471 1:-7 2:-7 3:5 4:-3 5:4 
-8 1:-7 2:-7 3:5 4:-3 5:5 
-8 1:-10 2:-1 3:-1 5:1 
8 1:-10 2:-1 3:-1 5:3 
8 1:-10 2:-1 3:-1 5:4 
8 1:-10 2:-1 3:-1 5:5 
-8 1:-10 2:-2 3:5 4:-3 5:1 
8 1:-10 2:-2 3:5 4:-3 5:2 
8 1:-10 2:-2 3:5 4:-3 5:3 
-8 1:-10 2:-2 3:5 4:-3 5:5 
8 1:7 2:4 3:-2 4:-2 5:3 
8 1:7 2:4 3:-2 4:-2 5:4 
8 1:7 2:4 3:-2 4:-2 5:5 
8 1:3 2:-7 3:-1 4:1 5:1 
-8 1:3 2:-7 3:-1 4:1 5:2 
-8 1:3 2:-7 3:-1 4:1 5:3 
-8 1:3 2:-7 3:-1 4:1 5:4 
-8 1:3 2:-7 3:-1 4:1 5:5 
8 1:5 2:9 4:1 5:1 
-8 1:5 2:9 4:1 5:2 
-8 1:5 2:9 4:1 5:3 
-8 1:5 2:9 4:1 5:4 
-8 1:5 2:9 4:1 5:5 
8 1:7 2:-4 3:-5 5:1 
8 1:7 2:-4 3:-5 5:2 
-8 1:7 2:-4 3:-5 5:3 
-8 1:7 2:-4 3:-5 5:4 
-8 1:7 2:-4 3:-5 5:5 
8 1:-3 2:7 3:-1 4:3 5:1 
8 1:-3 2:7 3:-1 4:3 5:2 
-8 1:-3 2:7 3:-1 4:3 5:3 
-8 1:-3 2:7 3:-1 4:3 5:4 
-8 1:-3 2:7 3:-1 4:3 5:5 
8 1:-8 2:6 3:-3 4:3 5:1 
-8 1:-8 2:6 3:-3 4:3 5:2 
-8 1:-8 2:6 3:-3 4:3 5:3 
-8 1:-8 2:6 3:-3 4:3 5:4 
-8 1:-8 2:6 3:-3 4:3 5:5 
8 1:8 2:2 3:-3 5:1 
-8 1:8 2:2 3:-3 5:3 
-8 1:8 2:2 3:-3 5:4 
-8 1:8 2:2 3:-3 5:5 
8 1:-6 2:-7 3:-1 4:3 5:1 
8 1:-6 2:-7 3:-1 4:3 5:2 
-8 1:-6 2:-7 3:-1 4:3 5:3 
-8 1:-6 2:-7 3:-1 4:3 5:4 
-8 1:-6 2:-7 3:-1 4:3 5:5 
8 1:-8 2:6 3:-5 4:2 5:1 
-8 1:-8 2:6 3:-5 4:2 5:2 
-8 1:-8 2:6 3:-5 4:2 5:3 
-8 1:-8 2:6 3:-5 4:2 5:4 
-8 1:-8 2:6 3:-5 4:2 5:5 
-8 1:-3 2:-8 3:4 4:1 5:1 
8 1:-3 2:-8 3:4 4:1 5:2 
8 1:-3 2:-8 3:4 4:1 5:3 
8 1:-3 2:-8 3:4 4:1 5:4 
8 1:-3 2:-8 3:4 4:1 5:5 
8 1:9 2:-4 5:1 
-8 1:9 2:-4 5:2 
-8 1:9 2:-4 5:3 
-8 1:9 2:-4 5:4 
-8 1:9 2:-4 5:5 
8 1:-8 2:10 3:1 4:2 5:1 
8 1:-8 2:10 3:1 4:2 5:2 
-8 1:-8 2:10 3:1 4:2 5:3 
-8 1:-8 2:10 3:1 4:2 5:4 
-8 1:-8 2:10 3:1 4:2 5:5 
7.934930456747647 1:8 2:2 3:2 4:1 5:1 
-8 1:8 2:2 3:2 4:1 5:2 
-8 1:8 2:2 3:2 4:1 5:3 
-8 1:8 2:2 3:2 4:1 5:4 
-8 1:8 2:2 3:2 4:1 5:5 
8 1:-3 2:6 3:5 4:1 5:2 
8 1:-3 2:6 3:5 4:1 5:3 
8 1:-3 2:6 3:5 4:1 5:4 
8 1:-3 2:6 3:5 4:1 5:5 
-8 1:-5 2:2 3:-4 4:-1 5:1 
-8 1:-5 2:2 3:-4 4:-1 5:2 
-8 1:-5 2:2 3:-4 4:-1 5:3 
8 1:-5 2:2 3:-4 4:-1 5:4 
8 1:-5 2:2 3:-4 4:-1 5:5 
8 1:4 2:7 3:-2 4:-2 5:2 
8 1:4 2:7 3:-2 4:-2 5:3 
8 1:4 2:7 3:-2 4:-2 5:4 
8 1:4 2:7 3:-2 4:-2 5:5 
-8 1:-4 2:1 3:-1 4:-1 5:1 
-8 1:-4 2:1 3:-1 4:-1 5:2 
-8 1:-4 2:1 3:-1 4:-1 5:3 
8 1:-4 2:1 3:-1 4:-1 5:5 
8 1:-1 2:3 3:2 4:2 5:2 
-8 1:-1 2:3 3:2 4:2 5:4 
-8 1:-1 2:3 3:2 4:2 5:5 
8 1:8 2:9 3:2 5:1 
-8 1:8 2:9 3:2 5:2 
-8 1:8 2:9 3:2 5:3 
-8 1:8 2:9 3:2 5:4 
-8 1:8 2:9 3:2 5:5 
-8 1:4 2:7 3:-1 4:-3 5:1 
-8 1:4 2:7 3:-1 4:-3 5:2 
8 1:10 2:-6 3:-1 4:-1 5:1 
8 1:10 2:-6 3:-1 4:-1 5:2 
8 1:10 2:-6 3:-1 4:-1 5:3 
8 1:10 2:-6 3:-1 4:-1 5:4 
-8 1:10 2:-6 3:-1 4:-1 5:5 
8 2:-8 4:-1 5:4 
8 1:9 2:-6 3:3 5:1 
-8 1:9 2:-6 3:3 5:2 
-8 1:9 2:-6 3:3 5:3 
-8 1:9 2:-6 3:3 5:4 
-8 1:9 2:-6 3:3 5:5 
-8 1:-3 2:-4 3:-5 4:-2 5:3 
-8 1:-3 2:-4 3:-5 4:-2 5:4 
-8 1:-3 2:-4 3:-5 4:-2 5:5 
8 1:-4 2:6 3:-2 4:3 5:1 
8 1:-4 2:6 3:-2 4:3 5:2 
-8 1:-4 2:6 3:-2 4:3 5:3 
-8 1:-4 2:6 3:-2 4:3 5:4 
-8 1:-4 2:6 3:-2 4:3 5:5 
-8 1:-3 2:-9 3:-4 4:-1 5:1 
8 1:-3 2:-9 3:-4 4:-1 5:4 
-8 1:-3 2:-9 3:-4 4:-1 5:5 
-8 1:-10 2:6 3:3 4:-1 5:1 
8 1:-10 2:6 3:3 4:-1 5:5 
-8 1:-7 2:-5 5:1 
-8 1:-7 2:-5 5:2 
8 1:-7 2:-5 5:3 
8 1:-7 2:-5 5:4 
8 1:-7 2:-5 5:5 
-1.526015677684701 1:8 2:7 3:4 4:-3 5:1 
-8 1:8 2:7 3:4 4:-3 5:2 
-8 1:8 2:7 3:4 4:-3 5:3 
8 1:8 2:7 3:4 4:-3 5:4 
8 1:8 2:7 3:4 4:-3 5:5 
8 1:-3 2:-9 3:1 4:2 5:2 
8 1:-3 2:-9 3:1 4:2 5:3 
-8 1:-3 2:-9 3:1 4:2 5:4 
-8 1:-3 2:-9 3:1 4:2 5:5 
8 1:3 2:-1 3:2 4:2 5:1 
-8 1:3 2:-1 3:2 4:2 5:2 
-8 1:3 2:-1 3:2 4:2 5:3 
8 1:3 2:-1 3:2 4:2 5:5 
-8 1:8 2:-9 3:1 4:2 5:1 
-8 1:8 2:-9 3:1 4:2 5:2 
8 1:8 2:-9 3:1 4:2 5:3 
8 1:8 2:-9 3:1 4:2 5:4 
8 1:8 2:-9 3:1 4:2 5:5 
-8 1:4 2:-6 3:1 4:3 5:1 
-8 1:4 2:-6 3:1 4:3 5:2 
8 1:4 2:-6 3:1 4:3 5:3 
8 1:4 2:-6 3:1 4:3 5:4 
8 1:4 2:-6 3:1 4:3 5:5 
8 1:9 2:10 3:-4 4:-2 5:1 
-8 1:9 2:10 3:-4 4:-2 5:2 
8 1:9 2:10 3:-4 4:-2 5:4 
8 1:9 2:10 3:-4 4:-2 5:5 
-8 1:-8 2:9 3:1 5:1 
8 1:-8 2:9 3:1 5:3 
8 1:-8 2:9 3:1 5:4 
8 1:-8 2:9 3:1 5:5 
-8 1:2 2:9 3:1 4:2 5:1 
-8 1:2 2:9 3:1 4:2 5:2 
8 1:2 2:9 3:1 4:2 5:4 
8 1:2 2:9 3:1 4:2 5:5 
-8 1:-4 2:-9 3:3 4:1 5:1 
8 1:-4 2:-9 3:3 4:1 5:2 
8 1:-4 2:-9 3:3 4:1 5:3 
8 1:-4 2:-9 3:3 4:1 5:4 
8 1:-4 2:-9 3:3 4:1 5:5 
-2.337285005813046 2:-7 3:1 4:-3 5:2 
8 1:10 2:2 4:-1 5:1 
8 1:10 2:2 4:-1 5:2 
-8 1:10 2:2 4:-1 5:4 
-8 1:10 2:2 4:-1 5:5 
-8 1:-3 2:3 3:3 4:-1 5:1 
-8 1:-3 2:3 3:3 4:-1 5:2 
-8 1:-3 2:3 3:3 4:-1 5:3 
-8 1:-3 2:3 3:3 4:-1 5:4 
-8 1:-3 2:3 3:3 4:-1 5:5 
8 1:9 2:2 3:-5 4:-2 5:1 
-8 1:9 2:2 3:-5 4:-2 5:2 
8 1:9 2:2 3:-5 4:-2 5:4 
8 1:9 2:2 3:-5 4:-2 5:5 
8 1:-7 2:4 3:-2 4:2 5:1 
8 1:-7 2:4 3:-2 4:2 5:2 
-8 1:-7 2:4 3:-2 4:2 5:3 
-8 1:-7 2:4 3:-2 4:2 5:4 
-8 1:-7 2:4 3:-2 4:2 5:5 
8 1:-3 2:-10 3:3 4:3 5:1 
-8 1:-3 2:-10 3:3 4:3 5:2 
-8 1:-3 2:-10 3:3 4:3 5:3 
-8 1:-3 2:-10 3:3 4:3 5:4 
-8 1:-3 2:-10 3:3 4:3 5:5 
-8 1:-7 2:-9 3:-2 5:1 
-8 1:-7 2:-9 3:-2 5:2 
8 1:-7 2:-9 3:-2 5:3 
8 1:-7 2:-9 3:-2 5:4 
8 1:-7 2:-9 3:-2 5:5 
-8 1:-4 2:-1 3:1 4:2 5:1 
8 1:-4 2:-1 3:1 4:2 5:2 
8 1:-4 2:-1 3:1 4:2 5:3 
-8 1:-4 2:-1 3:1 4:2 5:4 
-8 1:-4 2:-1 3:1 4:2 5:5 
8 2:-4 3:-5 4:1 5:3 
3.211606010133219 2:-4 3:-5 4:1 5:4 
-8 2:-4 3:-5 4:1 5:5 
8 1:5 2:6 3:3 4:-2 5:3 
8 1:5 2:6 3:3 4:-2 5:4 
8 1:5 2:6 3:3 4:-2 5:5 
8 1:-4 2:-9 3:2 4:2 5:1 
8 1:-4 2:-9 3:2 4:2 5:2 
8 1:-4 2:-9 3:2 4:2 5:3 
-8 1:-4 2:-9 3:2 4:2 5:4 
-8 1:-4 2:-9 3:2 4:2 5:5 
-8 1:1 2:-8 3:-1 4:3 5:2 
8 1:1 2:-8 3:-1 4:3 5:3 
8 1:1 2:-8 3:-1 4:3 5:4 
8 1:1 2:-8 3:-1 4:3 5:5 
-8 1:-5 2:4 3:1 5:1 
-8 1:-5 2:4 3:1 5:2 
8 1:-5 2:4 3:1 5:3 
8 1:-5 2:4 3:1 5:4 
8 1:-5 2:4 3:1 5:5 
-8 1:10 2:-4 4:2 5:1 
8 1:10 2:-4 4:2 5:3 
8 1:10 2:-4 4:2 5:4 
8 1:10 2:-4 4:2 5:5 
-8 1:-9 2:-10 3:4 4:-1 5:1 
3.454422796345943 1:-9 2:-10 3:4 4:-1 5:2 
8 1:-9 2:-10 3:4 4:-1 5:3 
8 1:-9 2:-10 3:4 4:-1 5:4 
-3.058432726890734 1:-9 2:-10 3:4 4:-1 5:5 
-2.813740249510572 1:1 2:4 3:2 4:-2 5:1 
8 1:1 2:4 3:2 4:-2 5:3 
8 1:1 2:4 3:2 4:-2 5:4 
8 1:1 2:4 3:2 4:-2 5:5 
-4.416566223059494 1:-3 2:-10 3:4 4:1 5:1 
8 1:-3 2:-10 3:4 4:1 5:2 
8 1:-3 2:-10 3:4 4:1 5:3 
8 1:-3 2:-10 3:4 4:1 5:4 
8 1:-3 2:-10 3:4 4:1 5:5 
8 1:-7 2:-10 3:5 4:-3 5:2 
-8 1:-7 2:-10 3:5 4:-3 5:3 
-8 1:-7 2:-10 3:5 4:-3 5:4 
-8 1:-7 2:-10 3:5 4:-3 5:5 
-8 1:1 2:5 3:-3 4:-3 5:1 
0.9485349378978262 1:1 2:5 3:-3 4:-3 5:5 
-8 1:9 2:-3 3:2 4:2 5:1 
-8 1:9 2:-3 3:2 4:2 5:2 
8 1:9 2:-3 3:2 4:2 5:3 
8 1:9 2:-3 3:2 4:2 5:4 
8 1:9 2:-3 3:2 4:2 5:5 
-2.651144909206198 1:3 2:4 3:-3 4:-2 5:1 
8 1:3 2:4 3:-3 4:-2 5:3 
8 1:3 2:4 3:-3 4:-2 5:4 
8 1:3 2:4 3:-3 4:-2 5:5 
-8 1:5 2:-10 3:4 4:2 5:2 
8 1:5 2:-10 3:4 4:2 5:4 
8 1:5 2:-10 3:4 4:2 5:5 
-8 1:6 3:4 4:2 5:1 
-8 1:6 3:4 4:2 5:2 
-8 1:6 3:4 4:2 5:3 
8 1:6 3:4 4:2 5:4 
8 1:6 3:4 4:2 5:5 
-8 1:-8 2:-9 3:-1 5:1 
-8 1:-8 2:-9 3:-1 5:2 
8 1:-8 2:-9 3:-1 5:3 
8 1:-8 2:-9 3:-1 5:4 
8 1:-8 2:-9 3:-1 5:5 
8 1:-5 2:-8 4:2 5:1 
8 1:-5 2:-8 4:2 5:2 
8 1:-5 2:-8 4:2 5:3 
-8 1:-5 2:-8 4:2 5:4 
-8 1:-5 2:-8 4:2 5:5 
-8 1:-8 2:4 3:-2 4:-2 5:1 
1.421197140709803 1:-8 2:4 3:-2 4:-2 5:2 
-8 1:-8 2:4 3:-2 4:-2 5:3 
-8 1:-8 2:4 3:-2 4:-2 5:4 
-8 1:-8 2:4 3:-2 4:-2 5:5 
-8 1:7 2:5 3:1 4:-3 5:1 
-8 1:7 2:5 3:1 4:-3 5:2 
-8 1:7 2:5 3:1 4:-3 5:3 
-8 1:4 2:-1 3:4 4:3 5:1 
8 1:4 2:-1 3:4 4:3 5:3 
8 1:4 2:-1 3:4 4:3 5:4 
8 1:4 2:-1 3:4 4:3 5:5 
-8 1:-6 2:8 3:-5 4:-3 5:1 
8 1:-6 2:8 3:-5 4:-3 5:2 
-8 1:-6 2:8 3:-5 4:-3 5:4 
8 1:-6 2:8 3:-5 4:-3 5:5 
-8 1:4 2:6 3:-1 4:3 5:1 
-8 1:4 2:6 3:-1 4:3 5:2 
8 1:4 2:6 3:-1 4:3 5:3 
8 1:4 2:6 3:-1 4:3 5:4 
8 1:4 2:6 3:-1 4:3 5:5 
-8 1:-2 2:-6 3:4 4:1 5:1 
8 1:-2 2:-6 3:4 4:1 5:3 
8 1:-2 2:-6 3:4 4:1 5:4 
8 1:-2 2:-6 3:4 4:1 5:5 
-8 1:2 2:-8 3:-1 4:-3 5:2 
8 1:2 2:-8 3:-1 4:-3 5:4 
-8 1:2 2:-8 3:-1 4:-3 5:5 
-8 1:-3 2:-5 3:-4 4:1 5:1 
8 1:-3 2:-5 3:-4 4:1 5:3 
8 1:-3 2:-5 3:-4 4:1 5:4 
8 1:-3 2:-5 3:-4 4:1 5:5 
8 1:10 2:-10 3:-4 5:1 
-8 1:10 2:-10 3:-4 5:3 
-8 1:10 2:-10 3:-4 5:4 
-8 1:10 2:-10 3:-4 5:5 
8 1:1 2:-8 3:3 4:2 5:1 
-8 1:1 2:-8 3:3 4:2 5:2 
-8 1:1 2:-8 3:3 4:2 5:3 
8 1:1 2:-8 3:3 4:2 5:5 
-8 1:-8 2:-4 3:-2 4:1 5:1 
8 1:-8 2:-4 3:-2 4:1 5:2 
8 1:-8 2:-4 3:-2 4:1 5:3 
8 1:-8 2:-4 3:-2 4:1 5:4 
8 1:-8 2:-4 3:-2 4:1 5:5 
0.1642000214452494 1:4 2:1 3:-1 4:-2 5:2 
8 1:4 2:1 3:-1 4:-2 5:3 
8 1:4 2:1 3:-1 4:-2 5:4 
0.9720268411962477 1:4 2:1 3:-1 4:-2 5:5 
8 1:-10 2:7 3:-4 4:3 5:1 
-8 1:-10 2:7 3:-4 4:3 5:2 
-8 1:-10 2:7 3:-4 4:3 5:3 
-8 1:-10 2:7 3:-4 4:3 5:4 
-8 1:-10 2:7 3:-4 4:3 5:5 
-8 1:3 2:9 3:2 4:3 5:1 
8 1:3 2:9 3:2 4:3 5:2 
8 1:3 2:9 3:2 4:3 5:3 
8 1:3 2:9 3:2 4:3 5:4 
8 1:3 2:9 3:2 4:3 5:5 
8 1:8 2:-6 3:4 4:-1 5:1 
8 1:8 2:-6 3:4 4:-1 5:2 
-8 1:8 2:-6 3:4 4:-1 5:4 
-8 1:8 2:-6 3:4 4:-1 5:5 
8 1:-8 2:6 3:5 4:2 5:1 
8 1:-8 2:6 3:5 4:2 5:2 
-8 1:-8 2:6 3:5 4:2 5:3 
-8 1:-8 2:6 3:5 4:2 5:4 
-8 1:-8 2:6 3:5 4:2 5:5 
-8 1:6 2:-3 3:-1 4:2 5:1 
-8 1:6 2:-3 3:-1 4:2 5:2 
-8 1:6 2:-3 3:-1 4:2 5:3 
8 1:6 2:-3 3:-1 4:2 5:4 
8 1:6 2:-3 3:-1 4:2 5:5 
-8 2:7 3:1 4:2 5:3 
-8 2:7 3:1 4:2 5:4 
-8 2:7 3:1 4:2 5:5 
-8 1:-4 2:-6 3:-2 4:-2 5:1 
-8 1:-4 2:-6 3:-2 4:-2 5:2 
-8 1:-4 2:-6 3:-2 4:-2 5:3 
-8 1:-4 2:-6 3:-2 4:-2 5:4 
-8 1:-4 2:-6 3:-2 4:-2 5:5 
-8 1:-5 2:9 3:5 4:-1 5:1 
8 1:-5 2:9 3:5 4:-1 5:5 
-8 1:4 2:-5 3:-3 4:3 5:1 
8 1:4 2:-5 3:-3 4:3 5:3 
8 1:4 2:-5 3:-3 4:3 5:4 
8 1:4 2:-5 3:-3 4:3 5:5 
-8 1:8 2:-4 3:3 4:3 5:1 
6.595895741037156 1:8 2:-4 3:3 4:3 5:2 
8 1:8 2:-4 3:3 4:3 5:3 
8 1:8 2:-4 3:3 4:3 5:4 
8 1:8 2:-4 3:3 4:3 5:5 
8 1:-2 2:-6 3:4 4:-3 5:1 
8 1:-2 2:-6 3:4 4:-3 5:2 
8 1:-2 2:-6 3:4 4:-3 5:3 
8 1:-2 2:-6 3:4 4:-3 5:4 
8 1:-5 2:1 3:-3 4:3 5:1 
8 1:-5 2:1 3:-3 4:3 5:2 
-8 1:-5 2:1 3:-3 4:3 5:3 
-8 1:-5 2:1 3:-3 4:3 5:4 
-8 1:-5 2:1 3:-3 4:3 5:5 
8 1:-5 2:-4 3:1 4:-3 5:1 
8 1:-5 2:-4 3:1 4:-3 5:2 
8 1:-5 2:-4 3:1 4:-3 5:3 
-1.303216702481948 1:-5 2:-4 3:1 4:-3 5:5 
-8 2:-8 3:2 5:1 
-0.6670534212327184 2:-8 3:2 5:2 
3.72268700953921 2:-8 3:2 5:3 
8 2:-8 3:2 5:4 
-8 1:6 2:-2 3:-2 4:3 5:1 
-8 1:6 2:-2 3:-2 4:3 5:2 
8 1:6 2:-2 3:-2 4:3 5:3 
8 1:6 2:-2 3:-2 4:3 5:4 
8 1:6 2:-2 3:-2 4:3 5:5 
8 1:-10 2:5 4:1 5:1 
8 1:-10 2:5 4:1 5:2 
8 1:-10 2:5 4:1 5:3 
8 1:-10 2:5 4:1 5:4 
-8 1:-10 2:5 4:1 5:5 
-8 1:-8 2:10 3:-2 4:-3 5:1 
8 1:-8 2:10 3:-2 4:-3 5:2 
8 1:-8 2:10 3:-2 4:-3 5:5 
8 1:3 2:6 3:-4 5:1 
-8 1:3 2:6 3:-4 5:3 
-8 1:3 2:6 3:-4 5:4 
-8 1:3 2:6 3:-4 5:5 
-8 1:-3 2:-7 3:5 4:1 5:1 
8 1:-3 2:-7 3:5 4:1 5:3 
8 1:-3 2:-7 3:5 4:1 5:4 
8 1:-3 2:-7 3:5 4:1 5:5 
2.621460030355697 1:-5 2:2 3:5 4:-3 5:1 
8 1:-5 2:2 3:5 4:-3 5:2 
-2.766461742305255 1:-5 2:2 3:5 4:-3 5:4 
-8 1:-8 2:2 3:4 4:-2 5:1 
0.3227577535890077 1:-8 2:2 3:4 4:-2 5:2 
-8 1:-8 2:2 3:4 4:-2 5:3 
-8 1:-8 2:2 3:4 4:-2 5:4 
-8 1:-8 2:2 3:4 4:-2 5:5 
-8 1:7 2:6 3:-2 4:1 5:2 
-8 1:7 2:6 3:-2 4:1 5:3 
-8 1:7 2:6 3:-2 4:1 5:4 
-8 1:7 2:6 3:-2 4:1 5:5 
-8 1:9 2:5 3:4 4:1 5:1 
-8 1:9 2:5 3:4 4:1 5:2 
-8 1:9 2:5 3:4 4:1 5:3 
-8 1:9 2:5 3:4 4:1 5:4 
-8 1:9 2:5 3:4 4:1 5:5 
5.114669408178778 1:6 2:10 3:4 4:-2 5:1 
-8 1:6 2:10 3:4 4:-2 5:2 
0.9656183714062977 1:6 2:10 3:4 4:-2 5:3 
8 1:6 2:10 3:4 4:-2 5:4 
8 1:6 2:10 3:4 4:-2 5:5 
-8 1:-7 2:2 3:-1 4:1 5:1 
8 1:-7 2:2 3:-1 4:1 5:2 
8 1:-7 2:2 3:-1 4:1 5:3 
8 1:-7 2:2 3:-1 4:1 5:4 
8 1:-7 2:2 3:-1 4:1 5:5 
-8 1:-2 2:7 3:-5 4:-1 5:1 
-0.5990240643894946 1:-2 2:7 3:-5 4:-1 5:3 
-8 1:-2 2:7 3:-5 4:-1 5:4 
8 1:-2 2:7 3:-5 4:-1 5:5 
8 1:-10 2:-6 3:3 4:1 5:1 
8 1:-10 2:-6 3:3 4:1 5:2 
8 1:-10 2:-6 3:3 4:1 5:3 
8 1:-10 2:-6 3:3 4:1 5:4 
-8 1:-10 2:-6 3:3 4:1 5:5 
-8 1:5 2:-4 3:2 4:-3 5:1 
-8 1:5 2:-4 3:2 4:-3 5:2 
-8 1:5 2:-4 3:2 4:-3 5:3 
8 1:5 2:-4 3:2 4:-3 5:4 
-8 1:8 2:3 4:2 5:1 
-8 1:8 2:3 4:2 5:2 
8 1:8 2:3 4:2 5:3 
8 1:8 2:3 4:2 5:4 
8 1:8 2:3 4:2 5:5 
8 1:10 2:6 3:5 4:-3 5:1 
-8 1:10 2:6 3:5 4:-3 5:2 
1.581300358396413 1:10 2:6 3:5 4:-3 5:3 
8 1:10 2:6 3:5 4:-3 5:4 
8 1:10 2:6 3:5 4:-3 5:5 
8 1:-8 2:-5 3:-2 4:-3 5:1 
8 1:-8 2:-5 3:-2 4:-3 5:2 
8 1:-8 2:-5 3:-2 4:-3 5:3 
-8 1:-8 2:-5 3:-2 4:-3 5:4 
-8 1:-8 2:-5 3:-2 4:-3 5:5 
8 1:6 2:-2 3:3 4:1 5:1 
-8 1:6 2:-2 3:3 4:1 5:2 
-8 1:6 2:-2 3:3 4:1 5:3 
-8 1:6 2:-2 3:3 4:1 5:4 
-8 1:6 2:-2 3:3 4:1 5:5 
8 1:5 2:2 3:-4 4:-1 5:1 
8 1:5 2:2 3:-4 4:-1 5:2 
-3.769877998489447 1:5 2:2 3:-4 4:-1 5:3 
-8 1:5 2:2 3:-4 4:-1 5:4 
-8 1:5 2:2 3:-4 4:-1 5:5 
-8 1:-2 3:3 5:1 
-8 1:-2 3:3 5:2 
8 1:-2 3:3 5:3 
8 1:-2 3:3 5:4 
8 1:-2 3:3 5:5 
-8 1:5 2:9 3:1 4:-3 5:1 
-8 1:5 2:9 3:1 4:-3 5:2 
-4.764600730383756 1:5 2:9 3:1 4:-3 5:3 
8 1:5 2:9 3:1 4:-3 5:5 
-8 1:-7 2:-9 4:1 5:1 
8 1:-7 2:-9 4:1 5:2 
8 1:-7 2:-9 4:1 5:3 
8 1:-7 2:-9 4:1 5:4 
8 1:-7 2:-9 4:1 5:5 
8 1:7 2:9 3:-3 4:-2 5:1 
8 1:7 2:9 3:-3 4:-2 5:5 
-8 1:2 2:-6 3:1 4:3 5:2 
8 1:2 2:-6 3:1 4:3 5:3 
8 1:2 2:-6 3:1 4:3 5:4 
8 1:2 2:-6 3:1 4:3 5:5 
8 1:10 2:2 3:-1 5:1 
8 1:10 2:2 3:-1 5:2 
-8 1:10 2:2 3:-1 5:3 
-8 1:10 2:2 3:-1 5:4 
-8 1:10 2:2 3:-1 5:5 
8 1:-4 2:5 3:-3 4:2 5:1 
8 1:-4 2:5 3:-3 4:2 5:2 
-8 1:-4 2:5 3:-3 4:2 5:4 
-8 1:-4 2:5 3:-3 4:2 5:5 
8 1:-3 2:8 4:2 5:1 
8 1:-3 2:8 4:2 5:2 
-8 1:-3 2:8 4:2 5:3 
-8 1:-3 2:8 4:2 5:4 
-8 1:-3 2:8 4:2 5:5 
8 1:-7 2:7 3:1 4:3 5:1 
-8 1:-7 2:7 3:1 4:3 5:2 
-8 1:-7 2:7 3:1 4:3 5:3 
-8 1:-7 2:7 3:1 4:3 5:4 
-8 1:-7 2:7 3:1 4:3 5:5 
8 1:-3 2:-3 3:-2 4:3 5:1 
8 1:-3 2:-3 3:-2 4:3 5:2 
-8 1:-3 2:-3 3:-2 4:3 5:3 
-8 1:-3 2:-3 3:-2 4:3 5:4 
-8 1:-3 2:-3 3:-2 4:3 5:5 
8 1:7 2:7 3:-3 4:-1 5:1 
8 1:7 2:7 3:-3 4:-1 5:2 
8 1:7 2:7 3:-3 4:-1 5:3 
-8 1:7 2:7 3:-3 4:-1 5:4 
-8 1:7 2:7 3:-3 4:-1 5:5 
-8 1:-6 2:9 3:3 5:1 
7.745700364026713 1:-6 2:9 3:3 5:2 
8 1:-6 2:9 3:3 5:3 
8 1:-6 2:9 3:3 5:4 
8 1:-6 2:9 3:3 5:5 
8 1:-4 2:-3 3:1 4:-3 5:1 
8 1:-4 2:-3 3:1 4:-3 5:2 
8 1:-4 2:-3 3:1 4:-3 5:3 
1.8225650797037 2:10 3:-1 4:-2 5:2 
-5.729704189632701 2:10 3:-1 4:-2 5:4 
8 2:10 3:-1 4:-2 5:5 
8 1:9 2:1 3:1 4:-2 5:1 
-8 1:9 2:1 3:1 4:-2 5:2 
8 1:9 2:1 3:1 4:-2 5:3 
8 1:9 2:1 3:1 4:-2 5:4 
8 1:9 2:1 3:1 4:-2 5:5 
8 1:9 2:1 3:5 4:-3 5:1 
-8 1:9 2:1 3:5 4:-3 5:2 
8 1:9 2:1 3:5 4:-3 5:4 
8 1:9 2:1 3:5 4:-3 5:5 
-8 1:2 2:-6 3:2 4:3 5:1 
-8 1:2 2:-6 3:2 4:3 5:2 
8 1:2 2:-6 3:2 4:3 5:3 
8 1:2 2:-6 3:2 4:3 5:4 
8 1:2 2:-6 3:2 4:3 5:5 
-8 1:-10 2:2 3:-2 4:-2 5:1 
8 1:-10 2:2 3:-2 4:-2 5:2 
-8 1:-10 2:2 3:-2 4:-2 5:4 
-3.653767547963537 1:-10 2:2 3:-2 4:-2 5:5 
-8 1:-8 2:8 5:1 
-8 1:-8 2:8 5:2 
8 1:-8 2:8 5:3 
8 1:-8 2:8 5:4 
8 1:-8 2:8 5:5 
-8 1:-2 2:-7 3:1 4:2 5:1 
8 1:-2 2:-7 3:1 4:2 5:2 
8 1:-2 2:-7 3:1 4:2 5:3 
-8 1:-2 2:-7 3:1 4:2 5:5 
8 1:-3 2:10 4:-3 5:2 
8 1:-3 2:10 4:-3 5:3 
8 1:-3 2:10 4:-3 5:5 
8 1:-9 2:-8 4:2 5:1 
8 1:-9 2:-8 4:2 5:2 
-8 1:-9 2:-8 4:2 5:3 
-8 1:-9 2:-8 4:2 5:4 
-8 1:-9 2:-8 4:2 5:5 
-8 1:-6 2:-7 3:-2 4:1 5:1 
8 1:-6 2:-7 3:-2 4:1 5:2 
8 1:-6 2:-7 3:-2 4:1 5:3 
8 1:-6 2:-7 3:-2 4:1 5:4 
8 1:-6 2:-7 3:-2 4:1 5:5 
-8 1:-5 2:4 4:-1 5:1 
-8 1:-5 2:4 4:-1 5:2 
-8 1:-5 2:4 4:-1 5:3 
-8 1:-5 2:4 4:-1 5:4 
8 1:-5 2:4 4:-1 5:5 
8 1:7 2:-9 3:5 5:1 
-8 1:7 2:-9 3:5 5:2 
-8 1:7 2:-9 3:5 5:3 
-8 1:7 2:-9 3:5 5:4 
-8 1:7 2:-9 3:5 5:5 
8 1:-7 2:10 3:3 4:2 5:1 
8 1:-7 2:10 3:3 4:2 5:2 
-8 1:-7 2:10 3:3 4:2 5:3 
-8 1:-7 2:10 3:3 4:2 5:4 
-8 1:-7 2:10 3:3 4:2 5:5 
8 1:-7 2:4 3:1 4:-3 5:1 
8 1:-7 2:4 3:1 4:-3 5:2 
8 1:-7 2:4 3:1 4:-3 5:3 
5.757302793496141 1:9 2:-5 3:-5 4:-3 5:1 
-8 1:9 2:-5 3:-5 4:-3 5:2 
-8 1:9 2:-5 3:-5 4:-3 5:3 
-8 1:9 2:-5 3:-5 4:-3 5:5 
-8 1:-9 2:-10 3:-5 4:-1 5:1 
-8 1:-9 2:-10 3:-5 4:-1 5:4 
-8 1:-9 2:-10 3:-5 4:-1 5:5 
-8 1:8 2:-3 3:-4 4:3 5:1 
8 1:8 2:-3 3:-4 4:3 5:2 
8 1:8 2:-3 3:-4 4:3 5:3 
8 1:8 2:-3 3:-4 4:3 5:4 
8 1:8 2:-3 3:-4 4:3 5:5 
-6.770975270032072 1:8 2:2 3:-3 4:1 5:1 
-8 1:8 2:2 3:-3 4:1 5:2 
-8 1:8 2:2 3:-3 4:1 5:3 
-8 1:8 2:2 3:-3 4:1 5:4 
-8 1:8 2:2 3:-3 4:1 5:5 
-8 1:7 2:-3 3:1 4:3 5:1 
-8 1:7 2:-3 3:1 4:3 5:2 
8 1:7 2:-3 3:1 4:3 5:3 
8 1:7 2:-3 3:1 4:3 5:4 
8 1:7 2:-3 3:1 4:3 5:5 
8 1:5 3:5 4:-1 5:1 
8 1:5 3:5 4:-1 5:2 
-8 1:5 3:5 4:-1 5:3 
-8 1:5 3:5 4:-1 5:4 
-8 1:5 3:5 4:-1 5:5 
-8 1:10 2:-10 4:3 5:1 
8 1:10 2:-10 4:3 5:2 
8 1:10 2:-10 4:3 5:3 
8 1:10 2:-10 4:3 5:4 
8 1:10 2:-10 4:3 5:5 
8 1:7 2:-10 3:-2 4:-2 5:1 
-8 1:7 2:-10 3:-2 4:-2 5:2 
-8 1:7 2:-10 3:-2 4:-2 5:5 
-8 1:-5 2:-5 3:1 5:1 
-8 1:-5 2:-5 3:1 5:2 
8 1:-5 2:-5 3:1 5:3 
8 1:-5 2:-5 3:1 5:4 
8 1:-5 2:-5 3:1 5:5 
8 1:3 2:-5 3:4 4:-1 5:1 
7.475220344457786 1:3 2:-5 3:4 4:-1 5:2 
8 1:3 2:-5 3:4 4:-1 5:3 
-8 1:3 2:-5 3:4 4:-1 5:5 
-8 1:-6 2:6 3:-4 4:-1 5:1 
-8 1:-6 2:6 3:-4 4:-1 5:2 
-8 1:-6 2:6 3:-4 4:-1 5:3 
-8 1:-6 2:6 3:-4 4:-1 5:4 
8 1:-6 2:6 3:-4 4:-1 5:5 
-8 1:4 2:-10 3:2 4:3 5:1 
-3.914771241532027 1:4 2:-10 3:2 4:3 5:2 
8 1:4 2:-10 3:2 4:3 5:3 
8 1:4 2:-10 3:2 4:3 5:4 
8 1:4 2:-10 3:2 4:3 5:5 
-8 1:-2 2:-7 3:-5 5:1 
-8 1:-2 2:-7 3:-5 5:2 
8 1:-2 2:-7 3:-5 5:3 
8 1:-2 2:-7 3:-5 5:4 
8 1:-2 2:-7 3:-5 5:5 
-8 1:-4 2:3 4:1 5:1 
-2.27105981237944 1:-4 2:3 4:1 5:2 
8 1:-4 2:3 4:1 5:3 
8 1:-4 2:3 4:1 5:4 
8 1:-4 2:3 4:1 5:5 
8 1:-3 2:1 4:3 5:1 
8 1:-3 2:1 4:3 5:2 
-8 1:-3 2:1 4:3 5:3 
-8 1:-3 2:1 4:3 5:4 
-8 1:-3 2:1 4:3 5:5 
8 1:8 2:-5 3:5 4:-1 5:1 
8 1:8 2:-5 3:5 4:-1 5:2 
-8 1:8 2:-5 3:5 4:-1 5:3 
-8 1:8 2:-5 3:5 4:-1 5:4 
-8 1:8 2:-5 3:5 4:-1 5:5 
8 1:3 2:10 3:-2 4:-3 5:4 
8 1:3 2:10 3:-2 4:-3 5:5 
8 1:9 2:-8 3:3 4:-1 5:1 
8 1:9 2:-8 3:3 4:-1 5:2 
-8 1:9 2:-8 3:3 4:-1 5:3 
-8 1:9 2:-8 3:3 4:-1 5:4 
-8 1:9 2:-8 3:3 4:-1 5:5 
8 1:-4 2:8 3:-4 4:-3 5:1 
8 1:-4 2:8 3:-4 4:-3 5:2 
0.1476325279590861 1:-4 2:8 3:-4 4:-3 5:3 
-8 1:-4 2:8 3:-4 4:-3 5:4 
-8 1:10 2:-9 3:3 4:3 5:1 
8 1:10 2:-9 3:3 4:3 5:2 
8 1:10 2:-9 3:3 4:3 5:3 
8 1:10 2:-9 3:3 4:3 5:4 
8 1:10 2:-9 3:3 4:3 5:5 
-8 1:-2 2:-5 3:1 4:-1 5:1 
-8 1:-2 2:-5 3:1 4:-1 5:2 
-8 1:-2 2:-5 3:1 4:-1 5:3 
6.899669871372454 1:-2 2:-5 3:1 4:-1 5:5 
-8 1:-4 2:5 3:-3 4:-1 5:1 
-2.703889597544079 1:-4 2:5 3:-3 4:-1 5:2 
-8 1:-4 2:5 3:-3 4:-1 5:3 
8 1:-4 2:5 3:-3 4:-1 5:5 
8 1:4 2:2 4:-2 5:3 
8 1:4 2:2 4:-2 5:4 
8 1:4 2:2 4:-2 5:5 
8 1:-5 2:8 3:1 4:3 5:1 
2.497336310450976 1:-5 2:8 3:1 4:3 5:2 
-8 1:-5 2:8 3:1 4:3 5:3 
-8 1:-5 2:8 3:1 4:3 5:4 
-8 1:-5 2:8 3:1 4:3 5:5 
8 1:-5 2:10 3:-2 4:-2 5:2 
-8 1:-5 2:10 3:-2 4:-2 5:3 
-8 1:-5 2:10 3:-2 4:-2 5:4 
-8 1:-5 2:10 3:-2 4:-2 5:5 
-8 1:3 3:3 4:-3 5:2 
8 1:3 3:3 4:-3 5:4 
3.267618920798104 1:3 3:3 4:-3 5:5 
8 1:10 2:-3 3:1 4:-1 5:1 
-8 1:10 2:-3 3:1 4:-1 5:5 
-8 1:-9 2:-4 3:3 4:-2 5:1 
8 1:-9 2:-4 3:3 4:-2 5:2 
-8 1:-9 2:-4 3:3 4:-2 5:3 
-8 1:-9 2:-4 3:3 4:-2 5:4 
-8 1:-9 2:-4 3:3 4:-2 5:5 
-8 1:-7 2:-8 3:-1 4:-1 5:1 
-8 1:-7 2:-8 3:-1 4:-1 5:2 
-8 1:-7 2:-8 3:-1 4:-1 5:3 
8 1:-7 2:-8 3:-1 4:-1 5:4 
8 1:-7 2:-8 3:-1 4:-1 5:5 
-8 1:6 2:-10 3:-4 4:2 5:1 
-8 1:6 2:-10 3:-4 4:2 5:2 
8 1:6 2:-10 3:-4 4:2 5:3 
8 1:6 2:-10 3:-4 4:2 5:4 
8 1:6 2:-10 3:-4 4:2 5:5 
0.8815405417275602 1:-3 2:10 3:-3 4:1 5:2 
8 1:-3 2:10 3:-3 4:1 5:3 
8 1:-3 2:10 3:-3 4:1 5:4 
8 1:-3 2:10 3:-3 4:1 5:5 
-8 1:-2 2:-9 3:1 4:-1 5:1 
-8 1:-2 2:-9 3:1 4:-1 5:2 
8 1:-2 2:-9 3:1 4:-1 5:4 
8 1:-2 2:-9 3:1 4:-1 5:5 
8 2:-9 3:2 5:3 
8 2:-9 3:2 5:4 
-8 1:6 2:-6 3:-2 4:-3 5:1 
-8 1:6 2:-6 3:-2 4:-3 5:2 
-8 1:6 2:-6 3:-2 4:-3 5:3 
8 1:6 2:-6 3:-2 4:-3 5:4 
-8 1:-2 2:-5 3:-5 4:-1 5:1 
-8 1:-2 2:-5 3:-5 4:-1 5:2 
8 1:9 2:-6 3:1 5:1 
-6.599486452450028 1:9 2:-6 3:1 5:2 
-8 1:9 2:-6 3:1 5:3 
-8 1:9 2:-6 3:1 5:4 
-8 1:9 2:-6 3:1 5:5 
8 1:-3 2:-3 3:1 4:-2 5:1 
-8 1:-3 2:-3 3:1 4:-2 5:3 
-8 1:-3 2:-3 3:1 4:-2 5:4 
-8 1:-3 2:-3 3:1 4:-2 5:5 
8 1:-1 2:-8 3:4 4:-3 5:1 
2.94032834018617 1:-1 2:-8 3:4 4:-3 5:3 
-8 1:-1 2:-8 3:4 4:-3 5:5 
8 1:-5 2:2 3:-2 4:-3 5:1 
8 1:-5 2:2 3:-2 4:-3 5:2 
3.360893358102194 1:-5 2:2 3:-2 4:-3 5:3 
-8 1:-5 2:2 3:-2 4:-3 5:4 
-8 1:-3 2:-6 3:5 4:-1 5:2 
-8 1:-3 2:-6 3:5 4:-1 5:3 
-1.586118167837431 1:-3 2:-6 3:5 4:-1 5:5 
-8 1:-1 2:-2 3:-3 5:1 
8 1:-1 2:-2 3:-3 5:3 
8 1:-1 2:-2 3:-3 5:4 
8 1:-1 2:-2 3:-3 5:5 
8 1:9 2:-7 3:2 4:1 5:1 
-8 1:9 2:-7 3:2 4:1 5:2 
-8 1:9 2:-7 3:2 4:1 5:3 
-8 1:9 2:-7 3:2 4:1 5:4 
-8 1:9 2:-7 3:2 4:1 5:5 
-8 1:-10 2:-4 3:4 5:1 
5.222945788090755 1:-10 2:-4 3:4 5:2 
8 1:-10 2:-4 3:4 5:3 
8 1:-10 2:-4 3:4 5:4 
8 1:-10 2:-4 3:4 5:5 
8 1:9 2:-6 3:-1 4:-1 5:1 
8 1:9 2:-6 3:-1 4:-1 5:2 
8 1:9 2:-6 3:-1 4:-1 5:3 
-8 1:9 2:-6 3:-1 4:-1 5:5 
8 1:-5 2:10 3:3 4:1 5:1 
8 1:-5 2:10 3:3 4:1 5:2 
8 1:-5 2:10 3:3 4:1 5:3 
8 1:-5 2:10 3:3 4:1 5:4 
8 1:-5 2:10 3:3 4:1 5:5 
8 2:4 3:-2 4:3 5:1 
-8 2:4 3:-2 4:3 5:4 
-8 1:5 2:-3 3:-2 4:-3 5:1 
-8 1:5 2:-3 3:-2 4:-3 5:2 
-8 1:5 2:-3 3:-2 4:-3 5:5 
-8 1:-9 2:-8 4:-2 5:1 
-8 1:-9 2:-8 4:-2 5:3 
-8 1:-9 2:-8 4:-2 5:4 
-8 1:-9 2:-8 4:-2 5:5 
-8 1:-10 2:-5 3:3 4:-1 5:1 
-8 1:-10 2:-5 3:3 4:-1 5:2 
8 1:-10 2:-5 3:3 4:-1 5:4 
8 1:-10 2:-5 3:3 4:-1 5:5 
-4.472522693112934 1:-5 3:5 4:-1 5:1 
-8 1:-5 3:5 4:-1 5:2 
-8 1:-5 3:5 4:-1 5:3 
-8 1:-5 3:5 4:-1 5:4 
-8 1:-5 3:5 4:-1 5:5 
8 1:-4 2:-7 3:3 4:3 5:1 
8 1:-4 2:-7 3:3 4:3 5:2 
-8 1:-4 2:-7 3:3 4:3 5:3 
-8 1:-4 2:-7 3:3 4:3 5:4 
-8 1:-4 2:-7 3:3 4:3 5:5 
-8 1:-3 2:1 3:-3 4:2 5:1 
8 1:-3 2:1 3:-3 4:2 5:2 
8 1:-3 2:1 3:-3 4:2 5:3 
-8 1:-3 2:1 3:-3 4:2 5:4 
-8 1:-3 2:1 3:-3 4:2 5:5 
7.871021563487492 1:1 2:-8 3:-5 5:1 
8 1:1 2:-8 3:-5 5:2 
8 1:1 2:-8 3:-5 5:3 
8 1:1 2:-8 3:-5 5:4 
-8 1:1 2:-8 3:-5 5:5 
8 1:3 2:-7 3:3 4:-1 5:1 
8 1:3 2:-7 3:3 4:-1 5:2 
8 1:3 2:-7 3:3 4:-1 5:3 
-8 1:3 2:-7 3:3 4:-1 5:5 
-8 1:-3 2:10 3:1 4:-1 5:1 
-8 1:-3 2:10 3:1 4:-1 5:3 
-8 1:-3 2:10 3:1 4:-1 5:4 
8 1:-3 2:10 3:1 4:-1 5:5 
-8 1:4 2:5 3:-2 4:2 5:1 
-8 1:4 2:5 3:-2 4:2 5:2 
-8 1:4 2:5 3:-2 4:2 5:3 
8 1:4 2:5 3:-2 4:2 5:4 
8 1:4 2:5 3:-2 4:2 5:5 
8 1:-7 2:-5 3:-1 4:-3 5:1 
8 1:-7 2:-5 3:-1 4:-3 5:2 
-8 1:-7 2:-5 3:-1 4:-3 5:4 
-8 1:-7 2:-5 3:-1 4:-3 5:5 
8 1:-9 2:-4 3:2 4:3 5:1 
-8 1:-9 2:-4 3:2 4:3 5:2 
-8 1:-9 2:-4 3:2 4:3 5:3 
-8 1:-9 2:-4 3:2 4:3 5:4 
-8 1:-9 2:-4 3:2 4:3 5:5 
-8 1:3 2:-8 3:-4 4:3 5:1 
8 1:3 2:-8 3:-4 4:3 5:3 
8 1:3 2:-8 3:-4 4:3 5:4 
8 1:3 2:-8 3:-4 4:3 5:5 
-8 1:-2 2:-9 3:-1 4:-2 5:5 
8 1:6 3:-2 4:1 5:1 
-8 1:6 3:-2 4:1 5:2 
-8 1:6 3:-2 4:1 5:3 
-8 1:6 3:-2 4:1 5:4 
-8 1:6 3:-2 4:1 5:5 
-8 1:1 2:-8 3:-5 4:-3 5:1 
-8 1:1 2:-8 3:-5 4:-3 5:2 
-8 1:1 2:-8 3:-5 4:-3 5:5 
8 1:1 2:9 3:-4 5:1 
-8 1:1 2:9 3:-4 5:3 
-8 1:1 2:9 3:-4 5:4 
-8 1:1 2:9 3:-4 5:5 
8 1:-8 2:7 3:5 4:3 5:1 
-8 1:-8 2:7 3:5 4:3 5:2 
-8 1:-8 2:7 3:5 4:3 5:3 
-8 1:-8 2:7 3:5 4:3 5:4 
-8 1:-8 2:7 3:5 4:3 5:5 
8 2:-8 3:-3 5:3 
8 2:-8 3:-3 5:4 
-8 2:-8 3:-3 5:5 
8 1:-6 2:1 3:-2 4:2 5:2 
8 1:-6 2:1 3:-2 4:2 5:3 
-8 1:-6 2:1 3:-2 4:2 5:4 
-8 1:-6 2:1 3:-2 4:2 5:5 
-8 1:-3 2:5 3:1 4:-1 5:1 
-8 1:-3 2:5 3:1 4:-1 5:2 
-8 1:-3 2:5 3:1 4:-1 5:3 
-8 1:-3 2:5 3:1 4:-1 5:4 
8 1:-3 2:5 3:1 4:-1 5:5 
-8 1:9 2:-10 3:-1 4:2 5:1 
-8 1:9 2:-10 3:-1 4:2 5:2 
8 1:9 2:-10 3:-1 4:2 5:3 
8 1:9 2:-10 3:-1 4:2 5:4 
8 1:9 2:-10 3:-1 4:2 5:5 
2.245801303244418 1:-1 2:6 3:2 4:1 5:2 
8 1:-1 2:6 3:2 4:1 5:3 
8 1:-1 2:6 3:2 4:1 5:4 
8 1:-1 2:6 3:2 4:1 5:5 
-8 1:4 2:10 3:3 4:3 5:1 
8 1:4 2:10 3:3 4:3 5:2 
8 1:4 2:10 3:3 4:3 5:3 
8 1:4 2:10 3:3 4:3 5:4 
8 1:4 2:10 3:3 4:3 5:5 
-8 1:6 2:4 3:-5 4:3 5:1 
8 1:6 2:4 3:-5 4:3 5:2 
8 1:6 2:4 3:-5 4:3 5:3 
8 1:6 2:4 3:-5 4:3 5:4 
8 1:6 2:4 3:-5 4:3 5:5 
-5.630786553350031 1:5 2:10 3:-1 4:1 5:1 
-8 1:5 2:10 3:-1 4:1 5:2 
-8 1:5 2:10 3:-1 4:1 5:3 
-8 1:5 2:10 3:-1 4:1 5:4 
-1.68847429907702 1:5 2:10 3:-1 4:1 5:5 
8 1:2 2:-2 3:3 5:1 
8 1:2 2:-2 3:3 5:2 
-8 1:2 2:-2 3:3 5:3 
-8 1:2 2:-2 3:3 5:4 
-8 1:2 2:-2 3:3 5:5 
8 1:-1 2:-10 3:-1 4:-1 5:4 
-8 1:-1 2:-10 3:-1 4:-1 5:5 
8 1:8 2:-9 3:-3 5:1 
-8 1:8 2:-9 3:-3 5:3 
-8 1:8 2:-9 3:-3 5:4 
-8 1:8 2:-9 3:-3 5:5 
-8 1:-6 2:-1 4:-2 5:3 
-8 1:-6 2:-1 4:-2 5:4 
-8 1:-6 2:-1 4:-2 5:5 
8 1:-5 2:4 3:4 4:-3 5:2 
-8 1:-5 2:4 3:4 4:-3 5:4 
-8 1:-8 2:-8 3:1 5:1 
8 1:-8 2:-8 3:1 5:2 
8 1:-8 2:-8 3:1 5:3 
8 1:-8 2:-8 3:1 5:4 
8 1:-8 2:-8 3:1 5:5 
-8 1:8 2:-9 3:2 4:2 5:1 
-8 1:8 2:-9 3:2 4:2 5:2 
8 1:8 2:-9 3:2 4:2 5:3 
8 1:8 2:-9 3:2 4:2 5:4 
8 1:8 2:-9 3:2 4:2 5:5 
-0.5566420785082081 1:-6 2:1 4:2 5:1 
8 1:-6 2:1 4:2 5:2 
8 1:-6 2:1 4:2 5:3 
-8 1:-6 2:1 4:2 5:4 
-8 1:-6 2:1 4:2 5:5 
6.592150493209566 1:-1 2:-3 3:5 5:4 
-8 1:2 2:4 3:-2 4:-2 5:1 
8 1:2 2:4 3:-2 4:-2 5:3 
8 1:2 2:4 3:-2 4:-2 5:4 
8 1:2 2:4 3:-2 4:-2 5:5 
8 1:-1 2:-6 3:-5 4:-3 5:1 
-8 1:-1 2:-6 3:-5 4:-3 5:5 
4.532291573302563 1:3 2:-8 3:2 4:-2 5:1 
8 1:3 2:-8 3:2 4:-2 5:3 
8 1:3 2:-8 3:2 4:-2 5:4 
8 1:3 2:-8 3:2 4:-2 5:5 
8 1:5 2:5 4:-1 5:1 
8 1:5 2:5 4:-1 5:2 
8 1:5 2:5 4:-1 5:3 
8 1:5 2:5 4:-1 5:4 
-8 1:5 2:5 4:-1 5:5 
8 1:-3 3:5 4:3 5:1 
-8 1:-3 3:5 4:3 5:2 
-8 1:-3 3:5 4:3 5:3 
-8 1:-3 3:5 4:3 5:4 
-8 1:-3 3:5 4:3 5:5 
8 1:-8 2:-5 3:-2 4:3 5:1 
-8 1:-8 2:-5 3:-2 4:3 5:2 
-8 1:-8 2:-5 3:-2 4:3 5:3 
-8 1:-8 2:-5 3:-2 4:3 5:4 
-8 1:-8 2:-5 3:-2 4:3 5:5 
-8 1:-6 2:4 3:2 5:1 
-8 1:-6 2:4 3:2 5:2 
8 1:-6 2:4 3:2 5:3 
8 1:-6 2:4 3:2 5:4 
8 1:-6 2:4 3:2 5:5 
8 1:3 3:-5 5:1 
-8 1:3 3:-5 5:3 
-8 1:3 3:-5 5:4 
-8 1:3 3:-5 5:5 
-3.488369754536301 1:-7 2:7 3:-5 4:1 5:1 
8 1:-7 2:7 3:-5 4:1 5:2 
8 1:-7 2:7 3:-5 4:1 5:3 
8 1:-7 2:7 3:-5 4:1 5:4 
8 1:-7 2:7 3:-5 4:1 5:5 
-8 1:10 2:-9 3:-4 4:2 5:1 
8 1:10 2:-9 3:-4 4:2 5:2 
8 1:10 2:-9 3:-4 4:2 5:3 
8 1:10 2:-9 3:-4 4:2 5:4 
8 1:10 2:-9 3:-4 4:2 5:5 
8 1:-1 2:-2 3:-4 4:-3 5:2 
3.908241556309851 1:-1 2:-2 3:-4 4:-3 5:3 
6.915871524323398 1:-1 2:-2 3:-4 4:-3 5:4 
4.040770482396319 1:1 2:-10 3:-5 4:2 5:1 
-8 1:1 2:-10 3:-5 4:2 5:2 
-8 1:1 2:-10 3:-5 4:2 5:3 
8 1:1 2:-10 3:-5 4:2 5:5 
8 1:-10 2:8 3:-3 4:1 5:1 
-2.859667038330006 1:-10 2:8 3:-3 4:1 5:4 
-8 1:-10 2:8 3:-3 4:1 5:5 
8 1:5 3:5 4:1 5:1 
-8 1:5 3:5 4:1 5:2 
-8 1:5 3:5 4:1 5:3 
-8 1:5 3:5 4:1 5:4 
-8 1:5 3:5 4:1 5:5 
-8 1:-10 2:-3 3:-1 4:-1 5:1 
-8 1:-10 2:-3 3:-1 4:-1 5:2 
-8 1:-10 2:-3 3:-1 4:-1 5:3 
8 1:-10 2:-3 3:-1 4:-1 5:4 
8 1:-10 2:-3 3:-1 4:-1 5:5 
-8 1:-3 2:6 3:3 4:-1 5:3 
-8 1:-3 2:6 3:3 4:-1 5:4 
-8 1:-3 2:6 3:3 4:-1 5:5 
-8 1:-9 2:-9 3:-4 5:1 
8 1:-9 2:-9 3:-4 5:2 
8 1:-9 2:-9 3:-4 5:3 
8 1:-9 2:-9 3:-4 5:4 
8 1:-9 2:-9 3:-4 5:5 
-8 1:2 2:-5 3:-5 4:-2 5:1 
-8 1:2 2:-5 3:-5 4:-2 5:2 
5.48566534222573 1:2 2:-5 3:-5 4:-2 5:3 
8 1:2 2:-5 3:-5 4:-2 5:4 
8 1:2 2:-5 3:-5 4:-2 5:5 
-2.679930234391225 1:4 2:3 3:4 4:-2 5:1 
-8 1:4 2:3 3:4 4:-2 5:2 
5.002765484052353 1:4 2:3 3:4 4:-2 5:3 
8 1:4 2:3 3:4 4:-2 5:4 
8 1:4 2:3 3:4 4:-2 5:5 
-8 1:-4 2:1 3:-3 5:1 
-8 1:-4 2:1 3:-3 5:2 
8 1:-4 2:1 3:-3 5:3 
8 1:-4 2:1 3:-3 5:4 
8 1:-4 2:1 3:-3 5:5 
-8 1:-5 2:10 3:1 4:-1 5:1 
-3.704823532964713 1:-5 2:10 3:1 4:-1 5:3 
8 1:-5 2:10 3:1 4:-1 5:5 
8 1:10 2:-8 3:-4 4:-2 5:1 
8 1:10 2:-8 3:-4 4:-2 5:3 
8 1:10 2:-8 3:-4 4:-2 5:4 
-8 1:10 2:-8 3:-4 4:-2 5:5 
8 1:3 2:1 3:3 4:2 5:1 
-8 1:3 2:1 3:3 4:2 5:2 
-8 1:3 2:1 3:3 4:2 5:3 
8 1:3 2:1 3:3 4:2 5:4 
8 1:3 2:1 3:3 4:2 5:5 
-8 1:-7 2:10 3:-3 5:1 
-8 1:-7 2:10 3:-3 5:2 
8 1:-7 2:10 3:-3 5:3 
8 1:-7 2:10 3:-3 5:4 
8 1:-7 2:10 3:-3 5:5 
-8 2:9 3:-3 4:-3 5:1 
-8 2:9 3:-3 4:-3 5:4 
5.186647526218852 2:9 3:-3 4:-3 5:5 
-8 1:6 2:-6 3:-3 4:-2 5:2 
8 1:6 2:-6 3:-3 4:-2 5:3 
8 1:6 2:-6 3:-3 4:-2 5:4 
8 1:6 2:-6 3:-3 4:-2 5:5 
8 1:-8 2:-9 3:-3 4:-3 5:1 
8 1:-8 2:-9 3:-3 4:-3 5:2 
8 1:-8 2:-9 3:-3 4:-3 5:3 
-8 1:-8 2:-9 3:-3 4:-3 5:5 
-8 1:6 3:5 4:2 5:1 
-8 1:6 3:5 4:2 5:2 
8 1:6 3:5 4:2 5:4 
8 1:6 3:5 4:2 5:5 
-8 1:10 2:-6 3:4 4:3 5:1 
8 1:10 2:-6 3:4 4:3 5:2 
8 1:10 2:-6 3:4 4:3 5:3 
8 1:10 2:-6 3:4 4:3 5:4 
8 1:10 2:-6 3:4 4:3 5:5 
-8 1:6 2:2 3:1 4:3 5:1 
-8 1:6 2:2 3:1 4:3 5:2 
8 1:6 2:2 3:1 4:3 5:3 
8 1:6 2:2 3:1 4:3 5:4 
8 1:6 2:2 3:1 4:3 5:5 
8 1:8 2:-10 3:4 4:1 5:1 
-8 1:8 2:-10 3:4 4:1 5:2 
-8 1:8 2:-10 3:4 4:1 5:3 
-8 1:8 2:-10 3:4 4:1 5:4 
-8 1:8 2:-10 3:4 4:1 5:5 
8 1:1 2:3 3:-3 4:2 5:1 
-8 1:1 2:3 3:-3 4:2 5:2 
-8 1:1 2:3 3:-3 4:2 5:3 
8 1:1 2:3 3:-3 4:2 5:5 
-8 1:-1 2:-8 3:-1 4:-1 5:1 
-8 1:-1 2:-8 3:-1 4:-1 5:2 
8 1:-1 2:-8 3:-1 4:-1 5:4 
8 1:-1 2:-8 3:-1 4:-1 5:5 
8 1:6 2:1 3:-1 4:-2 5:1 
8 1:6 2:1 3:-1 4:-2 5:3 
8 1:6 2:1 3:-1 4:-2 5:4 
8 1:-9 2:-8 3:4 4:3 5:1 
-8 1:-9 2:-8 3:4 4:3 5:2 
-8 1:-9 2:-8 3:4 4:3 5:3 
-8 1:-9 2:-8 3:4 4:3 5:4 
-8 1:-9 2:-8 3:4 4:3 5:5 
-8 1:8 2:1 4:3 5:1 
8 1:8 2:1 4:3 5:2 
8 1:8 2:1 4:3 5:3 
8 1:8 2:1 4:3 5:4 
8 1:8 2:1 4:3 5:5 
8 1:7 2:4 4:-1 5:1 
8 1:7 2:4 4:-1 5:2 
8 1:7 2:4 4:-1 5:3 
-8 1:7 2:4 4:-1 5:4 
-8 1:7 2:4 4:-1 5:5 
-8 1:-6 3:-5 4:1 5:1 
8 1:-6 3:-5 4:1 5:2 
8 1:-6 3:-5 4:1 5:3 
8 1:-6 3:-5 4:1 5:4 
8 1:-6 3:-5 4:1 5:5 
-3.84131160518917 1:-2 2:-10 3:-2 4:-1 5:1 
-2.19165910262939 1:-2 2:-10 3:-2 4:-1 5:2 
8 1:-2 2:-10 3:-2 4:-1 5:4 
-5.417039053585453 1:-2 2:-10 3:-2 4:-1 5:5 
8 1:-6 2:7 3:-4 4:-3 5:1 
8 1:-6 2:7 3:-4 4:-3 5:2 
-8 1:-6 2:7 3:-4 4:-3 5:4 
-8 1:-6 2:7 3:-4 4:-3 5:5 
-8 1:-8 2:-8 3:-3 5:1 
8 1:-8 2:-8 3:-3 5:3 
8 1:-8 2:-8 3:-3 5:4 
8 1:-8 2:-8 3:-3 5:5 
-0.5423388874702693 1:-2 2:2 3:-3 4:-1 5:1 
-8 1:-2 2:2 3:-3 4:-1 5:2 
-8 1:-2 2:2 3:-3 4:-1 5:3 
-6.320009280317571 1:-2 2:2 3:-3 4:-1 5:4 
8 1:-2 2:2 3:-3 4:-1 5:5 
8 1:10 2:1 3:2 5:1 
-8 1:10 2:1 3:2 5:2 
-8 1:10 2:1 3:2 5:3 
-8 1:10 2:1 3:2 5:4 
-8 1:10 2:1 3:2 5:5 
8 1:3 2:-5 3:5 4:-1 5:1 
8 1:3 2:-5 3:5 4:-1 5:3 
-8 1:3 2:-5 3:5 4:-1 5:5 
-8 1:4 2:-7 3:1 4:-3 5:1 
-8 1:4 2:-7 3:1 4:-3 5:2 
8 1:4 2:-7 3:1 4:-3 5:4 
-8 1:-3 2:-1 5:1 
-8 1:-3 2:-1 5:2 
8 1:-3 2:-1 5:3 
8 1:-3 2:-1 5:4 
8 1:-3 2:-1 5:5 
-8 1:9 2:-1 3:-5 4:2 5:1 
8 1:9 2:-1 3:-5 4:2 5:2 
8 1:9 2:-1 3:-5 4:2 5:3 
8 1:9 2:-1 3:-5 4:2 5:4 
8 1:9 2:-1 3:-5 4:2 5:5 
8 1:-1 2:-6 3:-1 4:-3 5:1 
-8 1:-1 2:-6 3:-1 4:-3 5:5 
8 1:7 2:8 3:4 5:1 
-8 1:7 2:8 3:4 5:3 
-8 1:7 2:8 3:4 5:4 
-8 1:7 2:8 3:4 5:5 
-8 1:-10 2:-5 3:-3 4:-3 5:1 
8 1:-10 2:-5 3:-3 4:-3 5:2 
8 1:-10 2:-5 3:-3 4:-3 5:3 
-8 1:-10 2:-5 3:-3 4:-3 5:4 
-8 1:-10 2:-5 3:-3 4:-3 5:5 
-8 1:8 2:6 3:-2 4:3 5:1 
8 1:8 2:6 3:-2 4:3 5:2 
8 1:8 2:6 3:-2 4:3 5:3 
8 1:8 2:6 3:-2 4:3 5:4 
8 1:8 2:6 3:-2 4:3 5:5 
8 1:9 2:-8 3:5 4:-3 5:1 
-8 1:9 2:-8 3:5 4:-3 5:2 
-0.6237387320178563 1:9 2:-8 3:5 4:-3 5:4 
-8 1:9 2:-8 3:5 4:-3 5:5 
-8 1:6 3:-4 4:-3 5:2 
-8 1:5 2:-7 3:-3 4:-3 5:1 
-8 1:5 2:-7 3:-3 4:-3 5:2 
-8 1:5 2:-7 3:-3 4:-3 5:3 
8 1:5 2:-7 3:-3 4:-3 5:4 
8 1:-4 2:-7 3:-1 4:3 5:1 
8 1:-4 2:-7 3:-1 4:3 5:2 
-8 1:-4 2:-7 3:-1 4:3 5:3 
-8 1:-4 2:-7 3:-1 4:3 5:4 
-8 1:-4 2:-7 3:-1 4:3 5:5 
8 1:-6 2:1 3:-1 4:2 5:2 
8 1:-6 2:1 3:-1 4:2 5:3 
-8 1:-6 2:1 3:-1 4:2 5:4 
-8 1:-6 2:1 3:-1 4:2 5:5 
8 1:-4 2:-7 3:-1 4:3 5:1 
8 1:-4 2:-7 3:-1 4:3 5:2 
-8 1:-4 2:-7 3:-1 4:3 5:3 
-8 1:-4 2:-7 3:-1 4:3 5:4 
-8 1:-4 2:-7 3:-1 4:3 5:5 
8 1:7 2:7 3:-3 4:-2 5:1 
8 1:7 2:7 3:-3 4:-2 5:3 
8 1:7 2:7 3:-3 4:-2 5:4 
8 1:7 2:7 3:-3 4:-2 5:5 
0.5029387894597634 1:3 2:-9 3:-2 4:-2 5:1 
8 1:3 2:-9 3:-2 4:-2 5:3 
8 1:3 2:-9 3:-2 4:-2 5:4 
-8 1:9 2:-7 3:2 4:-3 5:2 
0.3282406328806972 1:9 2:-7 3:2 4:-3 5:3 
8 1:9 2:-7 3:2 4:-3 5:4 
8 1:9 2:-7 3:2 4:-3 5:5 
-8 1:-10 2:2 3:-5 4:-1 5:1 
-8 1:-10 2:2 3:-5 4:-1 5:2 
8 1:-10 2:2 3:-5 4:-1 5:3 
8 1:-10 2:2 3:-5 4:-1 5:4 
8 1:-10 2:2 3:-5 4:-1 5:5 
8 1:-2 2:6 3:-3 4:-2 5:1 
8 1:-2 2:6 3:-3 4:-2 5:2 
-8 1:-2 2:6 3:-3 4:-2 5:3 
-8 1:-2 2:6 3:-3 4:-2 5:4 
-8 1:-2 2:6 3:-3 4:-2 5:5 
-8 1:9 2:10 3:-1 4:3 5:1 
8 1:9 2:10 3:-1 4:3 5:2 
8 1:9 2:10 3:-1 4:3 5:3 
8 1:9 2:10 3:-1 4:3 5:4 
8 1:9 2:10 3:-1 4:3 5:5 
8 1:9 2:-3 3:-2 4:1 5:1 
-8 1:9 2:-3 3:-2 4:1 5:2 
-8 1:9 2:-3 3:-2 4:1 5:3 
-8 1:9 2:-3 3:-2 4:1 5:4 
-8 1:9 2:-3 3:-2 4:1 5:5 
8 1:-2 2:-3 3:4 4:-2 5:1 
8 1:-2 2:-3 3:4 4:-2 5:2 
-8 1:-2 2:-3 3:4 4:-2 5:4 
-8 1:-2 2:-3 3:4 4:-2 5:5 
-8 1:-5 2:6 3:-1 4:1 5:1 
8 1:-5 2:6 3:-1 4:1 5:2 
8 1:-5 2:6 3:-1 4:1 5:3 
8 1:-5 2:6 3:-1 4:1 5:4 
8 1:-5 2:6 3:-1 4:1 5:5 
8 1:-8 2:-3 3:-2 4:2 5:1 
8 1:-8 2:-3 3:-2 4:2 5:2 
-8 1:-8 2:-3 3:-2 4:2 5:3 
-8 1:-8 2:-3 3:-2 4:2 5:4 
-8 1:-8 2:-3 3:-2 4:2 5:5 
-8 1:-6 2:7 4:-1 5:1 
-8 1:-6 2:7 4:-1 5:2 
-8 1:-6 2:7 4:-1 5:3 
-8 1:-6 2:7 4:-1 5:4 
8 1:1 2:8 3:-1 5:1 
8 1:1 2:8 3:-1 5:2 
-8 1:1 2:8 3:-1 5:3 
-8 1:1 2:8 3:-1 5:4 
-8 1:1 2:8 3:-1 5:5 
-8 1:-10 2:-3 3:4 4:-2 5:1 
8 1:-10 2:-3 3:4 4:-2 5:2 
-8 1:-10 2:-3 3:4 4:-2 5:4 
-8 1:-10 2:-3 3:4 4:-2 5:5 
-8 1:-3 2:7 5:1 
8 1:-3 2:7 5:3 
8 1:-3 2:7 5:4 
8 1:-3 2:7 5:5 
8 1:-4 2:-1 3:5 4:1 5:2 
8 1:-4 2:-1 3:5 4:1 5:3 
8 1:-4 2:-1 3:5 4:1 5:4 
8 1:-4 2:-1 3:5 4:1 5:5 
8 1:5 2:-4 3:-2 4:-1 5:1 
8 1:5 2:-4 3:-2 4:-1 5:2 
8 1:5 2:-4 3:-2 4:-1 5:3 
-8 1:5 2:-4 3:-2 4:-1 5:4 
-8 1:5 2:-4 3:-2 4:-1 5:5 
-8 1:-8 2:10 3:4 5:1 
8 1:-8 2:10 3:4 5:2 
8 1:-8 2:10 3:4 5:3 
8 1:-8 2:10 3:4 5:4 
8 1:-8 2:10 3:4 5:5 
8 1:-8 2:5 3:-3 4:1 5:2 
8 1:-8 2:5 3:-3 4:1 5:3 
8 1:-8 2:5 3:-3 4:1 5:4 
8 1:-8 2:5 3:-3 4:1 5:5 
8 1:-6 4:3 5:1 
8 1:-6 4:3 5:2 
-8 1:-6 4:3 5:3 
-8 1:-6 4:3 5:4 
-8 1:-6 4:3 5:5 
-8 1:-2 2:-1 3:1 5:1 
-8 1:-2 2:-1 3:1 5:2 
8 1:-2 2:-1 3:1 5:3 
8 1:-2 2:-1 3:1 5:4 
8 1:-2 2:-1 3:1 5:5 
-8 1:-4 2:3 4:2 5:1 
8 1:-4 2:3 4:2 5:2 
8 1:-4 2:3 4:2 5:3 
-8 1:-4 2:3 4:2 5:4 
-8 1:-4 2:3 4:2 5:5 
8 1:-1 2:6 3:3 4:1 5:5 
8 1:-7 2:8 3:2 4:1 5:1 
8 1:-7 2:8 3:2 4:1 5:2 
8 1:-7 2:8 3:2 4:1 5:3 
8 1:-7 2:8 3:2 4:1 5:4 
8 1:-7 2:8 3:2 4:1 5:5 
8 1:-2 2:5 4:-2 5:2 
-8 1:-2 2:5 4:-2 5:3 
-8 1:-2 2:5 4:-2 5:4 
-8 1:-2 2:5 4:-2 5:5 
8 1:-2 2:8 3:2 4:3 5:1 
-8 1:-2 2:8 3:2 4:3 5:3 
-8 1:-2 2:8 3:2 4:3 5:4 
-8 1:-2 2:8 3:2 4:3 5:5 
-8 1:7 2:2 3:-1 4:3 5:1 
2.828527363200934 1:7 2:2 3:-1 4:3 5:2 
8 1:7 2:2 3:-1 4:3 5:3 
8 1:7 2:2 3:-1 4:3 5:4 
8 1:7 2:2 3:-1 4:3 5:5 
8 1:9 2:2 3:-3 4:-2 5:1 
-8 1:9 2:2 3:-3 4:-2 5:2 
8 1:9 2:2 3:-3 4:-2 5:3 
8 1:9 2:2 3:-3 4:-2 5:4 
8 1:9 2:2 3:-3 4:-2 5:5 
-8 1:9 2:-8 3:1 4:-3 5:2 
-8 1:9 2:-8 3:1 4:-3 5:3 
8 1:9 2:-8 3:1 4:-3 5:4 
-8 1:-5 2:-5 3:4 4:-1 5:1 
-8 1:-5 2:-5 3:4 4:-1 5:2 
-8 1:-5 2:-5 3:4 4:-1 5:3 
-8 1:6 2:1 3:3 4:-3 5:2 
-8 1:-8 2:6 3:4 4:-1 5:1 
-8 1:-8 2:6 3:4 4:-1 5:2 
-8 1:-8 2:6 3:4 4:-1 5:3 
-8 1:-8 2:6 3:4 4:-1 5:4 
-6.909125528014447 1:-8 2:6 3:4 4:-1 5:5 
-8 1:5 2:-2 3:2 4:-3 5:1 
-8 1:5 2:-2 3:2 4:-3 5:2 
8 1:5 2:-2 3:2 4:-3 5:4 
-8 1:-10 2:1 3:2 4:-2 5:1 
8 1:-10 2:1 3:2 4:-2 5:2 
-8 1:-10 2:1 3:2 4:-2 5:4 
-8 1:-10 2:1 3:2 4:-2 5:5 
-8 1:-4 2:2 3:2 4:-2 5:3 
-8 1:-4 2:2 3:2 4:-2 5:4 
-8 1:-4 2:2 3:2 4:-2 5:5 
-8 1:-3 2:-6 3:1 5:1 
-8 1:-3 2:-6 3:1 5:2 
8 1:-3 2:-6 3:1 5:3 
8 1:-3 2:-6 3:1 5:4 
8 1:-3 2:-6 3:1 5:5 
-3.901159040771867 1:-2 2:-7 3:-2 4:2 5:1 
8 1:-2 2:-7 3:-2 4:2 5:2 
8 1:-2 2:-7 3:-2 4:2 5:3 
-8 1:-2 2:-7 3:-2 4:2 5:4 
-8 1:-2 2:-7 3:-2 4:2 5:5 
8 1:8 2:-7 3:-1 4:1 5:1 
-8 1:8 2:-7 3:-1 4:1 5:2 
-8 1:8 2:-7 3:-1 4:1 5:3 
-8 1:8 2:-7 3:-1 4:1 5:4 
-8 1:8 2:-7 3:-1 4:1 5:5 
-8 1:-2 2:10 3:3 4:-1 5:1 
-8 1:-2 2:10 3:3 4:-1 5:3 
8 1:-2 2:10 3:3 4:-1 5:5 
-8 1:-9 2:8 5:1 
-8 1:-9 2:8 5:2 
8 1:-9 2:8 5:3 
8 1:-9 2:8 5:4 
8 1:-9 2:8 5:5 
-8 1:-3 2:-10 3:-1 4:-2 5:3 
-8 1:-3 2:-10 3:-1 4:-2 5:4 
-8 1:-3 2:-10 3:-1 4:-2 5:5 
-8 1:-4 2:-7 3:5 4:-2 5:4 
-8 1:-4 2:-7 3:5 4:-2 5:5 
-8 1:-5 2:2 3:3 5:1 
-8 1:-5 2:2 3:3 5:2 
6.114259895523083 1:-5 2:2 3:3 5:3 
8 1:-5 2:2 3:3 5:4 
8 1:-5 2:2 3:3 5:5 
-8 1:-6 2:2 3:5 5:1 
8 1:-6 2:2 3:5 5:3 
8 1:-6 2:2 3:5 5:4 
8 1:-6 2:2 3:5 5:5 
8 1:3 2:-4 4:2 5:1 
-8 1:3 2:-4 4:2 5:2 
-8 1:3 2:-4 4:2 5:3 
-8 1:3 2:-4 4:2 5:4 
8 1:3 2:-4 4:2 5:5 
-8 1:8 2:-6 3:5 4:3 5:1 
8 1:8 2:-6 3:5 4:3 5:2 
8 1:8 2:-6 3:5 4:3 5:3 
8 1:8 2:-6 3:5 4:3 5:4 
8 1:8 2:-6 3:5 4:3 5:5 
8 1:8 2:-8 3:-2 4:1 5:1 
-8 1:8 2:-8 3:-2 4:1 5:2 
-8 1:8 2:-8 3:-2 4:1 5:3 
-8 1:8 2:-8 3:-2 4:1 5:4 
-8 1:8 2:-8 3:-2 4:1 5:5 
8 1:-10 3:5 4:3 5:1 
-8 1:-10 3:5 4:3 5:2 
-8 1:-10 3:5 4:3 5:3 
-8 1:-10 3:5 4:3 5:4 
-8 1:-10 3:5 4:3 5:5 
8 1:-10 3:5 4:1 5:1 
8 1:-10 3:5 4:1 5:2 
8 1:-10 3:5 4:1 5:3 
8 1:-10 3:5 4:1 5:4 
7.087731084217614 1:-10 3:5 4:1 5:5 
-8 1:-4 3:5 5:1 
8 1:-4 3:5 5:3 
8 1:-4 3:5 5:4 
8 1:-4 3:5 5:5 
-8 1:-9 2:5 3:2 4:-1 5:1 
-8 1:-9 2:5 3:2 4:-1 5:2 
-8 1:-9 2:5 3:2 4:-1 5:3 
-8 1:-9 2:5 3:2 4:-1 5:4 
8 1:-9 2:5 3:2 4:-1 5:5 
8 1:10 2:3 3:-4 4:-1 5:1 
-8 1:10 2:3 3:-4 4:-1 5:5 
8 1:-3 2:8 3:3 4:3 5:1 
5.607760400758649 1:-3 2:8 3:3 4:3 5:2 
-8 1:-3 2:8 3:3 4:3 5:3 
-8 1:-3 2:8 3:3 4:3 5:4 
-8 1:-3 2:8 3:3 4:3 5:5 
-8 1:-7 2:3 3:4 5:1 
8 1:-7 2:3 3:4 5:3 
8 1:-7 2:3 3:4 5:4 
8 1:-7 2:3 3:4 5:5 
-8 1:-1 2:3 3:-3 5:1 
8 1:-1 2:3 3:-3 5:4 
8 1:-1 2:3 3:-3 5:5 
7.16602905064605 1:5 2:8 3:4 4:1 5:1 
-8 1:5 2:8 3:4 4:1 5:2 
-8 1:5 2:8 3:4 4:1 5:3 
-8 1:5 2:8 3:4 4:1 5:4 
-8 1:5 2:8 3:4 4:1 5:5 
-5.04540038083207 1:-9 2:-10 3:-3 4:-3 5:1 
8 1:-9 2:-10 3:-3 4:-3 5:2 
-8 1:-9 2:-10 3:-3 4:-3 5:4 
-8 1:-9 2:-10 3:-3 4:-3 5:5 
-8 1:9 2:2 3:3 4:-3 5:2 
-8 1:9 2:2 3:3 4:-3 5:3 
8 1:9 2:2 3:3 4:-3 5:4 
8 1:9 2:2 3:3 4:-3 5:5 
8 1:-5 2:7 4:-2 5:1 
8 1:-5 2:7 4:-2 5:2 
-8 1:-5 2:7 4:-2 5:3 
-8 1:-5 2:7 4:-2 5:4 
-8 1:-5 2:7 4:-2 5:5 
-8 1:2 2:1 3:3 4:-3 5:1 
-8 1:2 2:1 3:3 4:-3 5:2 
-8 1:10 2:7 4:3 5:1 
8 1:10 2:7 4:3 5:2 
8 1:10 2:7 4:3 5:3 
8 1:10 2:7 4:3 5:4 
8 1:10 2:7 4:3 5:5 
8 1:-10 2:-5 3:5 4:2 5:1 
-8 1:-10 2:-5 3:5 4:2 5:2 
-8 1:-10 2:-5 3:5 4:2 5:3 
-8 1:-10 2:-5 3:5 4:2 5:4 
-8 1:-10 2:-5 3:5 4:2 5:5 
8 1:2 2:-4 3:5 5:1 
-8 1:2 2:-4 3:5 5:3 
-8 1:2 2:-4 3:5 5:4 
-8 1:2 2:-4 3:5 5:5 
-8 1:-8 2:-2 3:-5 4:-3 5:1 
8 1:-8 2:-2 3:-5 4:-3 5:2 
-8 1:-8 2:-2 3:-5 4:-3 5:4 
-8 1:-8 2:-2 3:-5 4:-3 5:5 
-8 1:-3 2:-7 5:1 
-8 1:-3 2:-7 5:2 
8 1:-3 2:-7 5:3 
8 1:-3 2:-7 5:4 
8 1:-3 2:-7 5:5 
8 1:8 2:2 3:-3 5:1 
-8 1:8 2:2 3:-3 5:3 
-8 1:8 2:2 3:-3 5:4 
-8 1:8 2:2 3:-3 5:5 
-8 1:10 2:5 3:-3 4:3 5:1 
8 1:10 2:5 3:-3 4:3 5:2 
8 1:10 2:5 3:-3 4:3 5:3 
8 1:10 2:5 3:-3 4:3 5:4 
8 1:10 2:5 3:-3 4:3 5:5 
-4.155113666744827 1:7 2:3 3:4 4:-3 5:1 
-8 1:7 2:3 3:4 4:-3 5:2 
-8 1:7 2:3 3:4 4:-3 5:3 
8 1:6 3:1 4:1 5:1 
-8 1:6 3:1 4:1 5:2 
-8 1:6 3:1 4:1 5:3 
-8 1:6 3:1 4:1 5:4 
-8 1:6 3:1 4:1 5:5 
-8 1:-2 2:8 3:-1 4:-1 5:3 
-8 1:-2 2:8 3:-1 4:-1 5:4 
-5.871351734311556 1:-2 2:8 3:-1 4:-1 5:5 
-8 1:8 2:7 3:2 4:-3 5:2 
-8 1:8 2:7 3:2 4:-3 5:3 
8 1:8 2:7 3:2 4:-3 5:5 
-8 1:1 2:10 3:1 4:2 5:1 
-8 1:1 2:10 3:1 4:2 5:2 
-1.085257095860307 1:1 2:10 3:1 4:2 5:3 
8 1:1 2:10 3:1 4:2 5:4 
8 1:1 2:10 3:1 4:2 5:5 
8 1:5 2:-2 3:-4 4:1 5:1 
-8 1:5 2:-2 3:-4 4:1 5:2 
-8 1:5 2:-2 3:-4 4:1 5:3 
-8 1:5 2:-2 3:-4 4:1 5:4 
-8 1:5 2:-2 3:-4 4:1 5:5 
2.287644742622157 1:-4 2:-10 3:5 4:-3 5:1 
8 1:-4 2:-10 3:5 4:-3 5:2 
-8 1:-4 2:-10 3:5 4:-3 5:3 
-8 1:-4 2:-10 3:5 4:-3 5:4 
-8 1:-4 2:-10 3:5 4:-3 5:5 
8 1:2 2:10 3:2 4:-2 5:5 
7.942033591606774 1:9 2:10 3:-2 5:1 
-8 1:9 2:10 3:-2 5:3 
-8 1:9 2:10 3:-2 5:4 
-8 1:9 2:10 3:-2 5:5 
8 1:8 2:7 3:-4 4:-1 5:1 
8 1:8 2:7 3:-4 4:-1 5:2 
-4.02165555214787 1:8 2:7 3:-4 4:-1 5:3 
-8 1:8 2:7 3:-4 4:-1 5:4 
-8 1:8 2:7 3:-4 4:-1 5:5 
-8 1:1 2:7 3:2 4:2 5:2 
-8 1:1 2:7 3:2 4:2 5:3 
8 1:1 2:7 3:2 4:2 5:4 
8 1:1 2:7 3:2 4:2 5:5 
-8 1:-1 2:4 3:-2 4:-1 5:3 
-8 1:-1 2:4 3:-2 4:-1 5:4 
-8 1:-9 2:9 3:3 5:1 
8 1:-9 2:9 3:3 5:2 
8 1:-9 2:9 3:3 5:3 
8 1:-9 2:9 3:3 5:4 
8 1:-9 2:9 3:3 5:5 
8 1:6 2:8 4:-1 5:1 
8 1:6 2:8 4:-1 5:2 
8 1:6 2:8 4:-1 5:3 
8 1:6 2:8 4:-1 5:4 
-3.9878928157901 1:6 2:8 4:-1 5:5 
8 1:-5 2:-7 3:-2 4:-3 5:1 
8 1:-5 2:-7 3:-2 4:-3 5:2 
7.446320999162127 1:-5 2:-7 3:-2 4:-3 5:3 
-8 1:-5 2:-7 3:-2 4:-3 5:4 
-8 1:-5 2:-7 3:-2 4:-3 5:5 
-8 1:-3 2:6 3:-2 5:1 
8 1:-3 2:6 3:-2 5:3 
8 1:-3 2:6 3:-2 5:4 
8 1:-3 2:6 3:-2 5:5 
8 1:-10 3:-5 4:2 5:1 
-8 1:-10 3:-5 4:2 5:2 
-8 1:-10 3:-5 4:2 5:3 
-8 1:-10 3:-5 4:2 5:4 
-8 1:-10 3:-5 4:2 5:5 
8 1:5 2:-4 3:-3 5:1 
8 1:5 2:-4 3:-3 5:2 
-8 1:5 2:-4 3:-3 5:3 
-8 1:5 2:-4 3:-3 5:4 
-8 1:5 2:-4 3:-3 5:5 
-8 1:9 2:-2 3:-5 4:1 5:1 
-8 1:9 2:-2 3:-5 4:1 5:2 
-8 1:9 2:-2 3:-5 4:1 5:3 
-8 1:9 2:-2 3:-5 4:1 5:4 
4.669076872105391 1:9 2:-2 3:-5 4:1 5:5 
-8 1:9 3:3 4:3 5:1 
8 1:9 3:3 4:3 5:2 
8 1:9 3:3 4:3 5:3 
8 1:9 3:3 4:3 5:4 
8 1:9 3:3 4:3 5:5 
-8 1:9 2:-1 3:5 4:2 5:1 
-8 1:9 2:-1 3:5 4:2 5:2 
8 1:9 2:-1 3:5 4:2 5:3 
8 1:9 2:-1 3:5 4:2 5:4 
8 1:9 2:-1 3:5 4:2 5:5 
8 1:2 2:-7 3:-4 4:1 5:1 
-8 1:2 2:-7 3:-4 4:1 5:3 
-8 1:2 2:-7 3:-4 4:1 5:4 
-8 1:2 2:-7 3:-4 4:1 5:5 
-8 1:7 2:-4 4:-3 5:1 
-8 1:7 2:-4 4:-3 5:2 
-8 1:7 2:-4 4:-3 5:3 
8 1:7 2:-4 4:-3 5:4 
8 1:7 2:-4 4:-3 5:5 
8 2:-10 3:-3 4:2 5:1 
-8 2:-10 3:-3 4:2 5:2 
-8 2:-10 3:-3 4:2 5:3 
-8 2:-10 3:-3 4:2 5:4 
-8 2:-10 3:-3 4:2 5:5 
-8 1:-7 2:-4 3:-1 4:1 5:1 
8 1:-7 2:-4 3:-1 4:1 5:2 
8 1:-7 2:-4 3:-1 4:1 5:3 
8 1:-7 2:-4 3:-1 4:1 5:4 
8 1:-7 2:-4 3:-1 4:1 5:5 
8 1:-8 2:-9 3:-3 4:1 5:1 
8 1:-8 2:-9 3:-3 4:1 5:2 
8 1:-8 2:-9 3:-3 4:1 5:3 
8 1:-8 2:-9 3:-3 4:1 5:4 
-8 1:-8 2:-9 3:-3 4:1 5:5 
8 1:5 2:7 3:3 5:1 
8 1:5 2:7 3:3 5:2 
-8 1:5 2:7 3:3 5:3 
-8 1:5 2:7 3:3 5:4 
-8 1:5 2:7 3:3 5:5 
8 1:-6 2:-1 3:1 4:3 5:1 
8 1:-6 2:-1 3:1 4:3 5:2 
-8 1:-6 2:-1 3:1 4:3 5:3 
-8 1:-6 2:-1 3:1 4:3 5:4 
-8 1:-6 2:-1 3:1 4:3 5:5 
-8 1:9 2:-8 3:-5 4:3 5:1 
8 1:9 2:-8 3:-5 4:3 5:2 
8 1:9 2:-8 3:-5 4:3 5:3 
8 1:9 2:-8 3:-5 4:3 5:4 
8 1:9 2:-8 3:-5 4:3 5:5 
-8 1:10 2:6 3:-4 4:3 5:1 
8 1:10 2:6 3:-4 4:3 5:2 
8 1:10 2:6 3:-4 4:3 5:3 
8 1:10 2:6 3:-4 4:3 5:4 
8 1:10 2:6 3:-4 4:3 5:5 
8 1:-10 2:-9 3:-4 4:3 5:1 
-8 1:-10 2:-9 3:-4 4:3 5:2 
-8 1:-10 2:-9 3:-4 4:3 5:3 
-8 1:-10 2:-9 3:-4 4:3 5:4 
-8 1:-10 2:-9 3:-4 4:3 5:5 
-8 1:-9 3:-5 4:-2 5:1 
-8 1:-9 3:-5 4:-2 5:4 
-8 1:-7 2:9 3:5 4:-1 5:1 
-2.398299494262978 1:-7 2:9 3:5 4:-1 5:2 
-8 1:-7 2:9 3:5 4:-1 5:3 
8 1:-7 2:9 3:5 4:-1 5:5 
8 1:2 2:-5 3:-2 4:1 5:1 
-8 1:2 2:-5 3:-2 4:1 5:3 
-8 1:2 2:-5 3:-2 4:1 5:4 
-8 1:2 2:-5 3:-2 4:1 5:5 
-8 1:-6 2:8 3:2 4:-1 5:1 
-8 1:-6 2:8 3:2 4:-1 5:2 
-8 1:-6 2:8 3:2 4:-1 5:3 
-8 1:-6 2:8 3:2 4:-1 5:4 
-8 1:-6 2:8 3:2 4:-1 5:5 
8 1:2 2:4 3:2 5:1 
8 1:2 2:4 3:2 5:2 
-8 1:2 2:4 3:2 5:3 
-8 1:2 2:4 3:2 5:4 
-8 1:2 2:4 3:2 5:5 
8 1:-1 2:-8 3:-3 4:1 5:3 
8 1:-1 2:-8 3:-3 4:1 5:4 
8 1:-1 2:-8 3:-3 4:1 5:5 
8 1:-8 2:-7 3:1 4:3 5:1 
-8 1:-8 2:-7 3:1 4:3 5:2 
-8 1:-8 2:-7 3:1 4:3 5:3 
-8 1:-8 2:-7 3:1 4:3 5:4 
-8 1:-8 2:-7 3:1 4:3 5:5 
-8 1:-7 2:2 3:4 4:-2 5:1 
-8 1:-7 2:2 3:4 4:-2 5:3 
-8 1:-7 2:2 3:4 4:-2 5:4 
-8 1:-7 2:2 3:4 4:-2 5:5 
8 1:-5 2:3 3:4 4:1 5:2 
8 1:-5 2:3 3:4 4:1 5:3 
8 1:-5 2:3 3:4 4:1 5:4 
8 1:-5 2:3 3:4 4:1 5:5 
-8 1:9 2:-5 3:-4 4:1 5:2 
-8 1:9 2:-5 3:-4 4:1 5:3 
-8 1:9 2:-5 3:-4 4:1 5:4 
-8 1:9 2:-5 3:-4 4:1 5:5 
8 1:-7 2:5 3:3 4:3 5:1 
-8 1:-7 2:5 3:3 4:3 5:2 
-8 1:-7 2:5 3:3 4:3 5:3 
-8 1:-7 2:5 3:3 4:3 5:4 
-8 1:-7 2:5 3:3 4:3 5:5 
-8 1:7 2:-8 4:2 5:1 
-8 1:7 2:-8 4:2 5:2 
8 1:7 2:-8 4:2 5:3 
8 1:7 2:-8 4:2 5:4 
8 1:7 2:-8 4:2 5:5 
8 1:-8 2:-10 3:-1 4:1 5:3 
8 1:-8 2:-10 3:-1 4:1 5:4 
-8 1:-8 2:-10 3:-1 4:1 5:5 
8 1:6 2:10 3:1 5:1 
8 1:6 2:10 3:1 5:2 
-8 1:6 2:10 3:1 5:3 
-8 1:6 2:10 3:1 5:4 
-8 1:6 2:10 3:1 5:5 
8 1:7 2:-2 3:1 4:-2 5:1 
8 1:7 2:-2 3:1 4:-2 5:3 
8 1:7 2:-2 3:1 4:-2 5:4 
8 1:7 2:-2 3:1 4:-2 5:5 
8 1:-9 2:-2 3:2 4:1 5:1 
8 1:-9 2:-2 3:2 4:1 5:2 
8 1:-9 2:-2 3:2 4:1 5:3 
8 1:-9 2:-2 3:2 4:1 5:4 
8 1:-9 2:-2 3:2 4:1 5:5 
8 1:2 2:9 3:1 4:-1 5:1 
8 1:2 2:9 3:1 4:-1 5:2 
-8 1:2 2:9 3:1 4:-1 5:4 
-8 1:2 2:9 3:1 4:-1 5:5 
8 1:-3 2:-3 4:3 5:1 
8 1:-3 2:-3 4:3 5:2 
-8 1:-3 2:-3 4:3 5:3 
-8 1:-3 2:-3 4:3 5:4 
-8 1:-3 2:-3 4:3 5:5 
8 1:-10 2:1 3:5 4:3 5:1 
-8 1:-10 2:1 3:5 4:3 5:2 
-8 1:-10 2:1 3:5 4:3 5:3 
-8 1:-10 2:1 3:5 4:3 5:4 
-8 1:-10 2:1 3:5 4:3 5:5 
-8 1:-9 2:4 3:2 4:-1 5:1 
-8 1:-9 2:4 3:2 4:-1 5:2 
-8 1:-9 2:4 3:2 4:-1 5:3 
-8 1:-9 2:4 3:2 4:-1 5:4 
8 1:-9 2:4 3:2 4:-1 5:5 
8 1:3 2:5 4:2 5:1 
-8 1:3 2:5 4:2 5:2 
-8 1:3 2:5 4:2 5:3 
8 1:3 2:5 4:2 5:4 
8 1:3 2:5 4:2 5:5 
-8 1:-10 2:3 3:-4 4:-1 5:1 
-2.193979415207236 1:-10 2:3 3:-4 4:-1 5:2 
8 1:-10 2:3 3:-4 4:-1 5:3 
8 1:-10 2:3 3:-4 4:-1 5:4 
8 1:-10 2:3 3:-4 4:-1 5:5 
-2.359867189810185 1:-1 2:2 3:2 5:1 
8 1:-1 2:2 3:2 5:4 
8 1:-1 2:2 3:2 5:5 
8 1:2 2:-2 3:2 4:2 5:1 
-8 1:2 2:-2 3:2 4:2 5:2 
-8 1:2 2:-2 3:2 4:2 5:3 
8 1:2 2:-2 3:2 4:2 5:5 
8 1:9 2:7 4:-1 5:1 
8 1:9 2:7 4:-1 5:2 
-8 1:9 2:7 4:-1 5:3 
-8 1:9 2:7 4:-1 5:4 
-8 1:9 2:7 4:-1 5:5 
8 1:6 2:-10 3:-2 4:1 5:1 
-8 1:6 2:-10 3:-2 4:1 5:2 
-8 1:6 2:-10 3:-2 4:1 5:3 
-8 1:6 2:-10 3:-2 4:1 5:4 
-8 1:6 2:-10 3:-2 4:1 5:5 
1.09505338251977 3:-5 5:1 
-5.196670564792951 1:7 2:9 3:-5 5:2 
-8 1:7 2:9 3:-5 5:3 
-8 1:7 2:9 3:-5 5:4 
-8 1:7 2:9 3:-5 5:5 
-8 1:8 2:-1 3:-4 4:3 5:1 
8 1:8 2:-1 3:-4 4:3 5:2 
8 1:8 2:-1 3:-4 4:3 5:3 
8 1:8 2:-1 3:-4 4:3 5:4 
8 1:8 2:-1 3:-4 4:3 5:5 
8 1:-2 2:3 3:4 4:2 5:1 
8 1:-2 2:3 3:4 4:2 5:2 
-8 1:-2 2:3 3:4 4:2 5:3 
-8 1:-2 2:3 3:4 4:2 5:4 
-8 1:-2 2:3 3:4 4:2 5:5 
8 1:5 2:-9 4:-2 5:1 
8 1:5 2:-9 4:-2 5:3 
8 1:5 2:-9 4:-2 5:4 
-8 1:5 2:-9 4:-2 5:5 
-8 1:7 2:4 3:1 4:-3 5:1 
-8 1:7 2:4 3:1 4:-3 5:2 
-8 1:7 2:4 3:1 4:-3 5:3 
-2.24993243672402 1:7 2:4 3:1 4:-3 5:5 
-8 1:10 2:-3 3:4 4:2 5:1 
-8 1:10 2:-3 3:4 4:2 5:2 
8 1:10 2:-3 3:4 4:2 5:3 
8 1:10 2:-3 3:4 4:2 5:4 
8 1:10 2:-3 3:4 4:2 5:5 
-8 1:1 2:7 3:3 4:2 5:2 
-1.08155169895839 1:1 2:7 3:3 4:2 5:3 
8 1:1 2:7 3:3 4:2 5:4 
8 1:1 2:7 3:3 4:2 5:5 
-8 1:-8 2:9 3:5 4:-2 5:1 
-8 1:-8 2:9 3:5 4:-2 5:3 
-8 1:-8 2:9 3:5 4:-2 5:4 
5.676799907190276 1:-8 2:9 3:5 4:-2 5:5 
8 1:3 2:10 3:3 4:-2 5:4 
8 1:3 2:10 3:3 4:-2 5:5 
-8 2:10 3:-2 4:-2 5:4 
8 2:10 3:-2 4:-2 5:5 
-8 1:-9 2:-7 3:1 4:-2 5:1 
6.097961346986527 1:-9 2:-7 3:1 4:-2 5:2 
-8 1:-9 2:-7 3:1 4:-2 5:3 
-8 1:-9 2:-7 3:1 4:-2 5:4 
-8 1:-9 2:-7 3:1 4:-2 5:5 
8 1:7 2:-9 3:-2 4:-2 5:1 
-0.8090765727065562 1:7 2:-9 3:-2 4:-2 5:2 
8 1:7 2:-9 3:-2 4:-2 5:3 
8 1:7 2:-9 3:-2 4:-2 5:4 
-8 1:9 2:-10 3:-4 4:3 5:1 
8 1:9 2:-10 3:-4 4:3 5:2 
8 1:9 2:-10 3:-4 4:3 5:3 
8 1:9 2:-10 3:-4 4:3 5:4 
8 1:9 2:-10 3:-4 4:3 5:5 
8 1:6 2:5 3:-2 4:-2 5:3 
8 1:6 2:5 3:-2 4:-2 5:4 
8 1:6 2:5 3:-2 4:-2 5:5 
8 1:7 2:-8 3:-2 4:-2 5:1 
-8 1:7 2:-8 3:-2 4:-2 5:2 
8 1:7 2:-8 3:-2 4:-2 5:3 
8 1:7 2:-8 3:-2 4:-2 5:4 
8 1:7 2:-8 3:-2 4:-2 5:5 
-8 1:-5 2:-4 3:5 5:1 
-8 1:-5 2:-4 3:5 5:2 
8 1:-5 2:-4 3:5 5:3 
8 1:-5 2:-4 3:5 5:4 
8 1:-5 2:-4 3:5 5:5 
8 1:-2 2:-10 3:-2 4:2 5:1 
-8 1:-2 2:-10 3:-2 4:2 5:3 
-8 1:-2 2:-10 3:-2 4:2 5:4 
-8 1:-2 2:-10 3:-2 4:2 5:5 
8 2:-9 3:4 4:-3 5:1 
-8 2:-9 3:4 4:-3 5:5 
-8 1:-8 2:10 3:-1 4:-3 5:1 
8 1:-8 2:10 3:-1 4:-3 5:2 
-2.071877602228143 1:-8 2:10 3:-1 4:-3 5:4 
8 1:-8 2:10 3:-1 4:-3 5:5 
-8 1:1 2:-5 3:4 4:-3 5:1 
-8 1:1 2:-5 3:4 4:-3 5:2 
8 2:5 5:2 
-8 1:2 3:-3 4:3 5:1 
-8 1:2 3:-3 4:3 5:2 
8 1:2 3:-3 4:3 5:3 
8 1:2 3:-3 4:3 5:4 
8 1:2 3:-3 4:3 5:5 
-8 1:7 2:4 3:-1 4:-3 5:1 
-8 1:7 2:4 3:-1 4:-3 5:2 
-8 1:7 2:4 3:-1 4:-3 5:3 
8 1:-8 2:5 3:-3 4:2 5:1 
8 1:-8 2:5 3:-3 4:2 5:2 
-8 1:-8 2:5 3:-3 4:2 5:3 
-8 1:-8 2:5 3:-3 4:2 5:4 
-8 1:-8 2:5 3:-3 4:2 5:5 
-8 1:-7 2:-7 3:-4 4:-1 5:1 
-8 1:-7 2:-7 3:-4 4:-1 5:2 
8 1:-7 2:-7 3:-4 4:-1 5:4 
8 1:-7 2:-7 3:-4 4:-1 5:5 
-8 1:7 3:-3 4:2 5:1 
-8 1:7 3:-3 4:2 5:2 
8 1:7 3:-3 4:2 5:3 
8 1:7 3:-3 4:2 5:4 
8 1:7 3:-3 4:2 5:5 
4.093675952737615 1:-3 2:-10 3:1 4:2 5:1 
8 1:-3 2:-10 3:1 4:2 5:2 
-8 1:-3 2:-10 3:1 4:2 5:3 
-8 1:-3 2:-10 3:1 4:2 5:4 
-8 1:-3 2:-10 3:1 4:2 5:5 
-8 1:6 2:4 3:-1 4:-3 5:1 
-8 1:6 2:4 3:-1 4:-3 5:2 
-8 1:6 2:4 3:-1 4:-3 5:3 
8 1:5 2:-10 3:2 4:-3 5:1 
-8 1:5 2:-10 3:2 4:-3 5:2 
-8 1:5 2:-10 3:2 4:-3 5:3 
-1.488749159563686 1:5 2:-10 3:2 4:-3 5:4 
-8 1:5 2:-10 3:2 4:-3 5:5 
8 1:-3 2:1 3:-4 4:-2 5:1 
2.60171732085061 1:-3 2:1 3:-4 4:-2 5:2 
-8 1:-3 2:1 3:-4 4:-2 5:3 
-8 1:-3 2:1 3:-4 4:-2 5:4 
-8 1:-3 2:1 3:-4 4:-2 5:5 
-8 1:-9 3:5 4:-2 5:1 
8 1:-9 3:5 4:-2 5:2 
2.651662510473728 1:-9 3:5 4:-2 5:3 
3.21200053357669 1:-9 3:5 4:-2 5:5 
-8 1:6 2:-3 3:-2 4:2 5:1 
-8 1:6 2:-3 3:-2 4:2 5:2 
-8 1:6 2:-3 3:-2 4:2 5:3 
8 1:6 2:-3 3:-2 4:2 5:4 
8 1:6 2:-3 3:-2 4:2 5:5 
-8 1:-8 2:-6 5:1 
-8 1:-8 2:-6 5:2 
8 1:-8 2:-6 5:3 
8 1:-8 2:-6 5:4 
8 1:-8 2:-6 5:5 
-8 1:10 2:-2 3:-2 4:1 5:3 
-8 1:10 2:-2 3:-2 4:1 5:4 
6.861358698580008 1:10 2:-2 3:-2 4:1 5:5 
8 1:5 2:-9 3:-5 5:1 
-8 1:5 2:-9 3:-5 5:3 
-8 1:5 2:-9 3:-5 5:4 
-8 1:5 2:-9 3:-5 5:5 
-8 1:4 2:-9 3:-5 4:-3 5:1 
-8 1:4 2:-9 3:-5 4:-3 5:2 
-8 1:4 2:-9 3:-5 4:-3 5:3 
-8 1:4 2:-9 3:-5 4:-3 5:5 
-8 1:-3 2:3 3:-1 4:2 5:1 
8 1:-3 2:3 3:-1 4:2 5:2 
8 1:-3 2:3 3:-1 4:2 5:3 
-8 1:-3 2:3 3:-1 4:2 5:4 
-8 1:-3 2:3 3:-1 4:2 5:5 
8 1:1 2:-7 3:-3 4:2 5:1 
-8 1:1 2:-7 3:-3 4:2 5:2 
-8 1:1 2:-7 3:-3 4:2 5:3 
8 1:1 2:-7 3:-3 4:2 5:5 
8 1:6 2:4 3:-1 5:1 
8 1:6 2:4 3:-1 5:2 
-8 1:6 2:4 3:-1 5:3 
-8 1:6 2:4 3:-1 5:4 
-8 1:6 2:4 3:-1 5:5 
-8 1:10 2:6 3:-4 4:1 5:1 
-8 1:10 2:6 3:-4 4:1 5:2 
8 1:10 2:6 3:-4 4:1 5:3 
8 1:10 2:6 3:-4 4:1 5:4 
8 1:10 2:6 3:-4 4:1 5:5 
8 1:-3 2:1 3:-5 4:-2 5:2 
-5.329090985726112 1:-3 2:1 3:-5 4:-2 5:3 
-8 1:-3 2:1 3:-5 4:-2 5:4 
-8 1:-3 2:1 3:-5 4:-2 5:5 
8 1:-9 2:3 3:5 4:1 5:1 
8 1:-9 2:3 3:5 4:1 5:2 
8 1:-9 2:3 3:5 4:1 5:3 
8 1:-9 2:3 3:5 4:1 5:4 
8 1:-9 2:3 3:5 4:1 5:5 
-8 1:-1 2:-10 3:1 4:1 5:1 
8 1:-1 2:-10 3:1 4:1 5:3 
8 1:-1 2:-10 3:1 4:1 5:4 
8 1:-1 2:-10 3:1 4:1 5:5 
-8 1:-3 2:4 3:-5 4:1 5:1 
8 1:-3 2:4 3:-5 4:1 5:2 
8 1:-3 2:4 3:-5 4:1 5:3 
8 1:-3 2:4 3:-5 4:1 5:4 
8 1:-3 2:4 3:-5 4:1 5:5 
8 1:6 2:-3 3:2 4:-2 5:1 
8 1:6 2:-3 3:2 4:-2 5:3 
8 1:6 2:-3 3:2 4:-2 5:4 
8 1:6 2:-3 3:2 4:-2 5:5 
8 1:-6 2:-1 3:-2 4:2 5:1 
8 1:-6 2:-1 3:-2 4:2 5:2 
8 1:-6 2:-1 3:-2 4:2 5:3 
-8 1:-6 2:-1 3:-2 4:2 5:4 
-8 1:-6 2:-1 3:-2 4:2 5:5 
8 1:4 2:-4 3:3 5:1 
8 1:4 2:-4 3:3 5:2 
-8 1:4 2:-4 3:3 5:3 
-8 1:4 2:-4 3:3 5:4 
-8 1:4 2:-4 3:3 5:5 
8 1:1 2:9 3:3 5:1 
1.97998391008699 1:1 2:9 3:3 5:2 
-8 1:1 2:9 3:3 5:3 
-8 1:1 2:9 3:3 5:4 
-8 1:1 2:9 3:3 5:5 
-2.157285026677169 1:-5 2:4 4:2 5:1 
8 1:-5 2:4 4:2 5:2 
-8 1:-5 2:4 4:2 5:3 
-8 1:-5 2:4 4:2 5:4 
-8 1:-5 2:4 4:2 5:5 
-8 1:7 2:-1 3:-2 4:3 5:1 
8 1:7 2:-1 3:-2 4:3 5:2 
8 1:7 2:-1 3:-2 4:3 5:3 
8 1:7 2:-1 3:-2 4:3 5:4 
8 1:7 2:-1 3:-2 4:3 5:5 
6.489912861429531 1:-6 2:-7 3:5 4:-3 5:1 
8 1:-6 2:-7 3:5 4:-3 5:2 
8 1:-6 2:-7 3:5 4:-3 5:3 
-8 1:-6 2:-7 3:5 4:-3 5:5 
8 1:-4 3:3 4:3 5:1 
8 1:-4 3:3 4:3 5:2 
-8 1:-4 3:3 4:3 5:3 
-8 1:-4 3:3 4:3 5:4 
-8 1:-4 3:3 4:3 5:5 
8 1:-7 2:5 3:-4 4:2 5:1 
8 1:-7 2:5 3:-4 4:2 5:2 
-8 1:-7 2:5 3:-4 4:2 5:3 
-8 1:-7 2:5 3:-4 4:2 5:4 
-8 1:-7 2:5 3:-4 4:2 5:5 
-8 1:-6 2:-1 3:2 4:1 5:1 
8 1:-6 2:-1 3:2 4:1 5:2 
8 1:-6 2:-1 3:2 4:1 5:3 
8 1:-6 2:-1 3:2 4:1 5:4 
8 1:-6 2:-1 3:2 4:1 5:5 
-8 1:4 2:10 3:5 4:2 5:1 
8 1:4 2:10 3:5 4:2 5:2 
8 1:4 2:10 3:5 4:2 5:3 
8 1:4 2:10 3:5 4:2 5:4 
8 1:4 2:10 3:5 4:2 5:5 
8 1:-4 2:-8 4:3 5:1 
8 1:-4 2:-8 4:3 5:2 
-8 1:-4 2:-8 4:3 5:3 
-8 1:-4 2:-8 4:3 5:4 
-8 1:-4 2:-8 4:3 5:5 
8 1:-5 2:8 3:3 4:2 5:1 
8 1:-5 2:8 3:3 4:2 5:2 
-8 1:-5 2:8 3:3 4:2 5:3 
-8 1:-5 2:8 3:3 4:2 5:4 
-8 1:-5 2:8 3:3 4:2 5:5 
8 1:2 2:4 4:2 5:1 
-8 1:2 2:4 4:2 5:2 
-8 1:2 2:4 4:2 5:3 
8 1:2 2:4 4:2 5:4 
8 1:2 2:4 4:2 5:5 
-8 1:8 3:-2 4:-3 5:1 
-8 1:8 3:-2 4:-3 5:2 
-8 1:8 3:-2 4:-3 5:3 
8 1:8 3:-2 4:-3 5:4 
5.214007539773356 1:8 3:-2 4:-3 5:5 
-8 1:3 2:-2 3:3 4:-3 5:1 
-8 1:3 2:-2 3:3 4:-3 5:2 
8 1:3 2:-2 3:3 4:-3 5:4 
8 1:2 2:-4 4:-2 5:3 
8 1:2 2:-4 4:-2 5:4 
8 1:-8 2:8 3:3 4:1 5:1 
8 1:-8 2:8 3:3 4:1 5:2 
8 1:-8 2:8 3:3 4:1 5:3 
8 1:-8 2:8 3:3 4:1 5:4 
8 1:-8 2:8 3:3 4:1 5:5 
8 1:3 2:-9 3:-5 4:1 5:1 
-8 1:3 2:-9 3:-5 4:1 5:2 
-8 1:3 2:-9 3:-5 4:1 5:3 
-8 1:3 2:-9 3:-5 4:1 5:4 
-8 1:3 2:-9 3:-5 4:1 5:5 
8 1:9 2:4 4:-2 5:1 
-8 1:9 2:4 4:-2 5:2 
8 1:9 2:4 4:-2 5:3 
8 1:9 2:4 4:-2 5:4 
8 1:9 2:4 4:-2 5:5 
8 1:-3 2:-2 3:-1 4:-2 5:1 
-8 1:-3 2:-2 3:-1 4:-2 5:3 
-8 1:-3 2:-2 3:-1 4:-2 5:4 
-8 1:-3 2:-2 3:-1 4:-2 5:5 
8 1:-6 2:1 3:3 4:-3 5:1 
8 1:-6 2:1 3:3 4:-3 5:2 
-8 1:-6 2:1 3:3 4:-3 5:4 
-8 1:1 2:5 3:3 4:-3 5:1 
-8 1:1 2:5 3:3 4:-3 5:2 
8 1:1 2:5 3:3 4:-3 5:5 
-8 1:-3 2:-5 3:-4 5:1 
-8 1:-3 2:-5 3:-4 5:2 
8 1:-3 2:-5 3:-4 5:3 
8 1:-3 2:-5 3:-4 5:4 
8 1:-3 2:-5 3:-4 5:5 
-8 1:-3 2:-2 3:1 4:2 5:1 
8 1:-3 2:-2 3:1 4:2 5:2 
8 1:-3 2:-2 3:1 4:2 5:3 
-8 1:-3 2:-2 3:1 4:2 5:4 
-8 1:-3 2:-2 3:1 4:2 5:5 
-8 1:8 2:10 3:-4 4:-3 5:2 
-8 1:8 2:10 3:-4 4:-3 5:3 
1.83539736162019 1:8 2:10 3:-4 4:-3 5:4 
8 1:8 2:10 3:-4 4:-3 5:5 
8 1:3 2:8 3:-5 5:1 
-8 1:3 2:8 3:-5 5:3 
-8 1:3 2:8 3:-5 5:4 
-8 1:3 2:8 3:-5 5:5 
-8 1:10 2:-3 3:-1 4:1 5:2 
-8 1:10 2:-3 3:-1 4:1 5:3 
-8 1:10 2:-3 3:-1 4:1 5:4 
-8 1:10 2:-3 3:-1 4:1 5:5 
2.006256526306676 1:2 3:5 4:-1 5:1 
1.81005887852436 1:2 3:5 4:-1 5:2 
8 1:2 3:5 4:-1 5:3 
-8 1:2 3:5 4:-1 5:5 
8 1:8 2:-4 3:2 4:-1 5:1 
8 1:8 2:-4 3:2 4:-1 5:2 
-8 1:8 2:-4 3:2 4:-1 5:4 
-8 1:8 2:-4 3:2 4:-1 5:5 
8 1:-8 2:-1 3:4 4:3 5:1 
-8 1:-8 2:-1 3:4 4:3 5:2 
-8 1:-8 2:-1 3:4 4:3 5:3 
-8 1:-8 2:-1 3:4 4:3 5:4 
-8 1:-8 2:-1 3:4 4:3 5:5 
8 1:7 2:3 3:-2 5:1 
8 1:7 2:3 3:-2 5:2 
-8 1:7 2:3 3:-2 5:3 
-8 1:7 2:3 3:-2 5:4 
-8 1:7 2:3 3:-2 5:5 
-8 1:6 2:10 3:2 4:3 5:1 
8 1:6 2:10 3:2 4:3 5:2 
8 1:6 2:10 3:2 4:3 5:3 
8 1:6 2:10 3:2 4:3 5:4 
8 1:6 2:10 3:2 4:3 5:5 
8 1:-8 2:9 3:3 4:2 5:1 
8 1:-8 2:9 3:3 4:2 5:2 
-8 1:-8 2:9 3:3 4:2 5:3 
-8 1:-8 2:9 3:3 4:2 5:4 
-8 1:-8 2:9 3:3 4:2 5:5 
7.682596056890749 1:-4 2:-7 3:2 4:2 5:1 
8 1:-4 2:-7 3:2 4:2 5:2 
8 1:-4 2:-7 3:2 4:2 5:3 
-8 1:-4 2:-7 3:2 4:2 5:4 
-8 1:-4 2:-7 3:2 4:2 5:5 
-8 1:10 2:-3 3:-2 4:2 5:1 
8 1:10 2:-3 3:-2 4:2 5:2 
8 1:10 2:-3 3:-2 4:2 5:3 
8 1:10 2:-3 3:-2 4:2 5:4 
8 1:10 2:-3 3:-2 4:2 5:5 
8 1:-2 2:-5 3:4 4:-2 5:1 
-4.82616216300681 1:-2 2:-5 3:4 4:-2 5:4 
-8 1:-2 2:-5 3:4 4:-2 5:5 
8 1:-5 2:1 3:5 4:3 5:1 
-3.451268575544411 1:-5 2:1 3:5 4:3 5:2 
-8 1:-5 2:1 3:5 4:3 5:3 
-8 1:-5 2:1 3:5 4:3 5:4 
-8 1:-5 2:1 3:5 4:3 5:5 
8 2:-8 3:-3 4:-2 5:3 
8 2:-8 3:-3 4:-2 5:4 
8 2:-8 3:-3 4:-2 5:5 
8 1:-2 2:3 3:1 4:-2 5:1 
-8 1:-2 2:3 3:1 4:-2 5:3 
-8 1:-2 2:3 3:1 4:-2 5:4 
-8 1:-2 2:3 3:1 4:-2 5:5 
-8 1:5 2:9 3:3 4:2 5:1 
-8 1:5 2:9 3:3 4:2 5:2 
8 1:5 2:9 3:3 4:2 5:3 
8 1:5 2:9 3:3 4:2 5:4 
8 1:5 2:9 3:3 4:2 5:5 
8 1:-3 2:-9 3:-4 4:-2 5:1 
8 1:-3 2:-9 3:-4 4:-2 5:2 
-7.818205616593667 1:-3 2:-9 3:-4 4:-2 5:4 
-8 1:-3 2:-9 3:-4 4:-2 5:5 
-8 1:4 2:7 3:-5 4:3 5:1 
-8 1:4 2:7 3:-5 4:3 5:2 
8 1:4 2:7 3:-5 4:3 5:3 
8 1:4 2:7 3:-5 4:3 5:4 
8 1:4 2:7 3:-5 4:3 5:5 
8 1:-7 2:-3 3:5 4:1 5:1 
8 1:-7 2:-3 3:5 4:1 5:2 
8 1:-7 2:-3 3:5 4:1 5:3 
8 1:-7 2:-3 3:5 4:1 5:4 
8 1:-7 2:-3 3:5 4:1 5:5 
-8 1:2 2:4 3:3 4:3 5:1 
8 1:2 2:4 3:3 4:3 5:3 
8 1:2 2:4 3:3 4:3 5:4 
8 1:2 2:4 3:3 4:3 5:5 
-8 1:8 2:8 3:-5 4:1 5:1 
-8 1:8 2:8 3:-5 4:1 5:2 
8 1:8 2:8 3:-5 4:1 5:4 
8 1:8 2:8 3:-5 4:1 5:5 
-8 1:-1 2:6 5:1 
8 1:-1 2:6 5:3 
8 1:-1 2:6 5:4 
8 1:-1 2:6 5:5 
-8 1:9 2:10 3:3 4:1 5:1 
-8 1:9 2:10 3:3 4:1 5:2 
8 1:9 2:10 3:3 4:1 5:3 
8 1:9 2:10 3:3 4:1 5:4 
8 1:9 2:10 3:3 4:1 5:5 
-1.938183214031756 1:-3 2:10 3:2 4:-3 5:1 
8 1:-3 2:10 3:2 4:-3 5:2 
8 1:-3 2:10 3:2 4:-3 5:5 
8 1:6 2:4 3:5 4:-2 5:1 
-8 1:6 2:4 3:5 4:-2 5:2 
7.280464730988427 1:6 2:4 3:5 4:-2 5:3 
8 1:6 2:4 3:5 4:-2 5:4 
8 1:6 2:4 3:5 4:-2 5:5 
8 1:2 2:-10 3:-5 4:-1 5:1 
2.559500441196126 1:2 2:-10 3:-5 4:-1 5:2 
8 1:2 2:-10 3:-5 4:-1 5:3 
-8 1:2 2:-10 3:-5 4:-1 5:5 
8 1:5 2:-3 4:2 5:1 
-8 1:5 2:-3 4:2 5:2 
-8 1:5 2:-3 4:2 5:3 
8 1:5 2:-3 4:2 5:4 
8 1:5 2:-3 4:2 5:5 
8 1:6 2:-7 3:1 4:-1 5:1 
8 1:6 2:-7 3:1 4:-1 5:2 
8 1:6 2:-7 3:1 4:-1 5:3 
-8 1:6 2:-7 3:1 4:-1 5:4 
-8 1:6 2:-7 3:1 4:-1 5:5 
-8 1:-5 2:-3 3:-1 5:1 
-8 1:-5 2:-3 3:-1 5:2 
8 1:-5 2:-3 3:-1 5:3 
8 1:-5 2:-3 3:-1 5:4 
8 1:-5 2:-3 3:-1 5:5 
8 1:-4 2:-3 3:-3 4:-3 5:1 
8 1:-4 2:-3 3:-3 4:-3 5:2 
-8 1:-4 2:-3 3:-3 4:-3 5:5 
8 1:-3 2:5 3:5 4:1 5:3 
8 1:-3 2:5 3:5 4:1 5:4 
8 1:-3 2:5 3:5 4:1 5:5 
-8 1:-9 2:-9 3:-3 4:-1 5:1 
-0.2690622516871699 1:-9 2:-9 3:-3 4:-1 5:2 
8 1:-9 2:-9 3:-3 4:-1 5:3 
8 1:-9 2:-9 3:-3 4:-1 5:4 
8 1:-9 2:-9 3:-3 4:-1 5:5 
-8 1:3 2:-7 3:1 4:3 5:1 
-8 1:3 2:-7 3:1 4:3 5:2 
8 1:3 2:-7 3:1 4:3 5:3 
8 1:3 2:-7 3:1 4:3 5:4 
8 1:3 2:-7 3:1 4:3 5:5 
8 1:6 2:-5 3:3 4:-1 5:1 
8 1:6 2:-5 3:3 4:-1 5:2 
-8 1:6 2:-5 3:3 4:-1 5:4 
-8 1:6 2:-5 3:3 4:-1 5:5 
-8 1:-5 2:-1 3:-3 4:1 5:1 
8 1:-5 2:-1 3:-3 4:1 5:2 
8 1:-5 2:-1 3:-3 4:1 5:3 
8 1:-5 2:-1 3:-3 4:1 5:4 
8 1:-5 2:-1 3:-3 4:1 5:5 
-8 1:2 2:8 3:1 4:-3 5:1 
-8 1:2 2:8 3:1 4:-3 5:2 
-8 1:2 2:8 3:1 4:-3 5:3 
-8 1:2 2:8 3:1 4:-3 5:4 
-8 1:-8 2:-4 3:-1 4:1 5:1 
8 1:-8 2:-4 3:-1 4:1 5:2 
8 1:-8 2:-4 3:-1 4:1 5:3 
8 1:-8 2:-4 3:-1 4:1 5:4 
8 1:-8 2:-4 3:-1 4:1 5:5 
-8 1:5 2:-10 3:-4 4:3 5:1 
8 1:5 2:-10 3:-4 4:3 5:2 
8 1:5 2:-10 3:-4 4:3 5:3 
8 1:5 2:-10 3:-4 4:3 5:4 
8 1:5 2:-10 3:-4 4:3 5:5 
8 1:5 2:3 3:-1 4:1 5:1 
-8 1:5 2:3 3:-1 4:1 5:2 
-8 1:5 2:3 3:-1 4:1 5:3 
-8 1:5 2:3 3:-1 4:1 5:4 
-8 1:5 2:3 3:-1 4:1 5:5 
-8 1:-8 2:-8 3:1 4:-1 5:1 
-8 1:-8 2:-8 3:1 4:-1 5:2 
8 1:-8 2:-8 3:1 4:-1 5:3 
8 1:-8 2:-8 3:1 4:-1 5:4 
8 1:-8 2:-8 3:1 4:-1 5:5 
-8 1:-4 2:10 3:-1 4:-1 5:1 
-8 1:-4 2:10 3:-1 4:-1 5:3 
-8 1:-4 2:10 3:-1 4:-1 5:4 
8 1:-4 2:10 3:-1 4:-1 5:5 
8 1:6 2:4 3:-1 4:-2 5:3 
8 1:6 2:4 3:-1 4:-2 5:4 
8 1:6 2:4 3:-1 4:-2 5:5 
-8 1:-7 2:-6 4:-2 5:1 
-8 1:-7 2:-6 4:-2 5:2 
-8 1:-7 2:-6 4:-2 5:3 
-8 1:-7 2:-6 4:-2 5:4 
-8 1:-7 2:-6 4:-2 5:5 
-8 1:5 2:-6 3:1 4:-3 5:1 
-8 1:5 2:-6 3:1 4:-3 5:2 
-8 1:5 2:-6 3:1 4:-3 5:3 
8 1:5 2:-6 3:1 4:-3 5:4 
-8 1:-6 2:9 3:-3 5:1 
-8 1:-6 2:9 3:-3 5:2 
8 1:-6 2:9 3:-3 5:4 
8 1:-6 2:9 3:-3 5:5 
8 1:4 2:9 3:1 4:-2 5:1 
8 1:4 2:9 3:1 4:-2 5:2 
8 1:4 2:9 3:1 4:-2 5:3 
8 1:4 2:9 3:1 4:-2 5:4 
8 1:4 2:9 3:1 4:-2 5:5 
-8 1:5 2:-9 3:1 4:-3 5:1 
-8 1:5 2:-9 3:1 4:-3 5:2 
8 1:5 2:-9 3:1 4:-3 5:4 
-8 1:5 2:-9 3:1 4:-3 5:5 
-8 1:-6 2:-2 3:-1 5:1 
-8 1:-6 2:-2 3:-1 5:2 
8 1:-6 2:-2 3:-1 5:3 
8 1:-6 2:-2 3:-1 5:4 
8 1:-6 2:-2 3:-1 5:5 
-8 1:1 2:-8 3:4 4:-3 5:2 
8 1:1 2:-8 3:4 4:-3 5:4 
-8 1:-3 2:-7 3:2 4:2 5:1 
8 1:-3 2:-7 3:2 4:2 5:2 
8 1:-3 2:-7 3:2 4:2 5:3 
-8 1:-3 2:-7 3:2 4:2 5:4 
-8 1:-3 2:-7 3:2 4:2 5:5 
